{"learner":{"attributes":{"best_iteration":"29","best_ntree_limit":"30","scikit_learn":"{\"use_label_encoder\": null, \"n_estimators\": 30, \"objective\": \"binary:logistic\", \"max_depth\": null, \"max_leaves\": null, \"max_bin\": null, \"grow_policy\": null, \"learning_rate\": 0.5, \"verbosity\": null, \"booster\": null, \"tree_method\": null, \"gamma\": null, \"min_child_weight\": null, \"max_delta_step\": null, \"subsample\": null, \"sampling_method\": null, \"colsample_bytree\": null, \"colsample_bylevel\": null, \"colsample_bynode\": null, \"reg_alpha\": null, \"reg_lambda\": null, \"scale_pos_weight\": null, \"base_score\": null, \"missing\": NaN, \"num_parallel_tree\": null, \"random_state\": null, \"n_jobs\": null, \"monotone_constraints\": null, \"interaction_constraints\": null, \"importance_type\": null, \"gpu_id\": null, \"validate_parameters\": null, \"predictor\": null, \"enable_categorical\": false, \"feature_types\": null, \"max_cat_to_onehot\": null, \"max_cat_threshold\": null, \"eval_metric\": null, \"early_stopping_rounds\": null, \"callbacks\": null, \"classes_\": [0, 1], \"n_classes_\": 2, \"_estimator_type\": \"classifier\"}"},"feature_names":["B0_IPCHI2_OWNPV","Pi_PT","Kstar_M","Pi_IPCHI2_OWNPV","B0_ENDVERTEX_CHI2","B0_DIRA_OWNPV","q2","Kstar_ENDVERTEX_CHI2","B0_OWNPV_Y","B0_FDCHI2_OWNPV","costhetak","K_ProbNNk","B0_ID","mu_minus_IPCHI2_OWNPV","costhetal","K_IPCHI2_OWNPV","Pi_ProbNNk","B0_PT","J_psi_ENDVERTEX_CHI2","mu_plus_IPCHI2_OWNPV","mu_minus_PE","Pi_ProbNNpi","Pi_ETA","mu_minus_ProbNNk","K_PT","mu_minus_PX","Pi_PX","mu_plus_PE","K_PE","Pi_ProbNNe","B0_P","mu_minus_ETA","mu_plus_ProbNNpi","mu_minus_ProbNNmu","mu_plus_ProbNNmu","mu_minus_ProbNNpi","B0_ENDVERTEX_X","Pi_ProbNNp","mu_minus_ProbNNp","B0_ENDVERTEX_Y","mu_plus_ProbNNp","mu_plus_ProbNNk","K_PX","mu_minus_PZ","K_PY","mu_minus_PY","mu_plus_PX","mu_plus_PY"],"feature_types":["float","float","float","float","float","float","float","float","float","float","float","float","int","float","float","float","float","float","float","float","float","float","float","float","float","float","float","float","float","float","float","float","float","float","float","float","float","float","float","float","float","float","float","float","float","float","float","float"],"gradient_booster":{"model":{"gbtree_model_param":{"num_parallel_tree":"1","num_trees":"30","size_leaf_vector":"0"},"tree_info":[0,0,0,0,0,0,0,0,0,0,0,0,0,0,0,0,0,0,0,0,0,0,0,0,0,0,0,0,0,0],"trees":[{"base_weights":[-1.4632486E0,-1.5983918E0,1.6173028E0,-2.678599E-1,-1.8235095E0,4.6843177E-1,1.99729E0,-1.0309434E0,9.417863E-1,-1.005698E0,-1.8881217E0,1.4409639E0,-2.4168126E-1,2.3445826E-2,-1.6077058E0,1.262017E0,-8.14433E-1,-1.4320596E0,5.7309943E-1,-1.8927276E0,1.8651686E0,1.6174864E0,1.1320755E-1,5.477707E-1,-1.1877395E0,-5.373444E-1,1.2368126E0,-1.748422E0,-7.1570015E-1,8.6331534E-1,1.780554E0,-1.4071146E0,2.919708E-1,-1.6211499E0,-3.3898305E-2,9.463221E-1,-1.3641026E0,-1.8970158E0,1.902439E0,1.9058824E0,5E-1,1.7109827E0,-0E0,-8.75E-1,1.36E0,-1.0588236E0,1.1244636E0,3.6734694E-1,-1.5185186E0,1.1289399E0,-9.033481E-1,3.0366492E-1,1.4829545E0,-4.573379E-1,-1.8379551E0,1.0152284E-2,-1.6088328E0,1.5474747E0,3.8423645E-1,1.8078213E0,7.6363635E-1,-1.6509434E0,-1.3953489E-1,1.1858407E0,-3.272727E-1,-1.659486E0,1.6595745E0,5.07772E-1,-1.4362416E0,4.7402596E-1,1.6751269E0,-1.6273292E0,-1.0526316E-1,-1.9297698E0,-1.5097473E0,1.7419355E0,-2.2222222E-1,-1E0,1.3333334E0,1E0,-1.2857143E0,-0E0,1.6190476E0,-2.857143E-1,-1.6595745E0,1.5211267E0,4.8421052E-1,1.3333334E0,-4.827586E-1,5.4545456E-1,-1.5980861E0],"categories":[],"categories_nodes":[],"categories_segments":[],"categories_sizes":[],"default_left":[1,1,1,1,1,1,0,1,1,1,1,1,1,1,1,1,1,1,1,1,1,1,1,1,1,1,1,1,1,1,1,1,1,1,1,1,1,1,0,0,0,1,1,1,1,1,1,1,1,0,0,0,0,0,0,0,0,0,0,0,0,0,0,0,0,0,0,0,0,0,0,0,0,0,0,0,0,0,0,0,0,0,0,0,0,0,0,0,0,0,0],"id":0,"left_children":[1,3,5,7,9,11,-1,13,15,17,19,21,23,25,27,29,31,33,35,37,39,41,43,45,47,49,51,53,55,57,59,61,63,65,67,69,71,73,-1,-1,-1,75,77,79,81,83,85,87,89,-1,-1,-1,-1,-1,-1,-1,-1,-1,-1,-1,-1,-1,-1,-1,-1,-1,-1,-1,-1,-1,-1,-1,-1,-1,-1,-1,-1,-1,-1,-1,-1,-1,-1,-1,-1,-1,-1,-1,-1,-1,-1],"loss_changes":[9.730414E3,6.70441E3,4.2798096E2,2.9921504E3,1.0097617E3,1.6989244E2,0E0,1.2087E3,7.062715E2,9.459076E2,3.1025E2,2.4133698E1,1.0726594E2,4.795272E2,1.6001025E2,2.1781567E2,1.276254E2,2.9228174E2,2.1765091E2,2.9201172E2,2.8373718E-1,1.3837448E1,1.751519E1,7.392175E1,3.4121773E1,2.9497534E2,5.0712433E1,1.2735425E2,1.1460027E2,1.966388E2,1.138147E1,3.886731E1,3.830443E1,1.2525464E2,1.01567215E2,8.577516E1,1.5982506E1,2.216289E2,0E0,0E0,0E0,5.5631104E0,9.333334E0,7.4464283E0,2.2019043E0,9.395315E0,1.4056908E1,1.0703261E1,9.739845E0,0E0,0E0,0E0,0E0,0E0,0E0,0E0,0E0,0E0,0E0,0E0,0E0,0E0,0E0,0E0,0E0,0E0,0E0,0E0,0E0,0E0,0E0,0E0,0E0,0E0,0E0,0E0,0E0,0E0,0E0,0E0,0E0,0E0,0E0,0E0,0E0,0E0,0E0,0E0,0E0,0E0,0E0],"parents":[2147483647,0,0,1,1,2,2,3,3,4,4,5,5,7,7,8,8,9,9,10,10,11,11,12,12,13,13,14,14,15,15,16,16,17,17,18,18,19,19,20,20,21,21,22,22,23,23,24,24,25,25,26,26,27,27,28,28,29,29,30,30,31,31,32,32,33,33,34,34,35,35,36,36,37,37,41,41,42,42,43,43,44,44,45,45,46,46,47,47,48,48],"right_children":[2,4,6,8,10,12,-1,14,16,18,20,22,24,26,28,30,32,34,36,38,40,42,44,46,48,50,52,54,56,58,60,62,64,66,68,70,72,74,-1,-1,-1,76,78,80,82,84,86,88,90,-1,-1,-1,-1,-1,-1,-1,-1,-1,-1,-1,-1,-1,-1,-1,-1,-1,-1,-1,-1,-1,-1,-1,-1,-1,-1,-1,-1,-1,-1,-1,-1,-1,-1,-1,-1,-1,-1,-1,-1,-1,-1],"split_conditions":[1.1965599E1,3.1389673E2,1.5996937E1,8.79603E0,1.2117554E1,3.9716965E2,9.98645E-1,1.2052974E1,3.903289E1,1.0863113E1,1.9190329E1,6.198104E1,2.8424316E3,9.522343E2,9.698156E2,9.5335535E2,1.60227E1,9.783034E2,1.1016892E3,1.2155666E1,1.9415631E2,9.132261E-1,1.18089285E1,0E0,2.882846E1,8.3981573E2,3.21312E0,8.318679E2,3.7303627E1,8.7022766E2,9.619113E-1,5.0885215E0,9.999975E-1,1.9001133E1,8.6153394E2,9.5598956E2,9.558871E2,9.862135E2,9.512195E-1,9.529412E-1,2.5E-1,4.4162803E3,1.2203396E1,2.358738E-2,7.1853886E0,8.4202515E2,1.3024442E5,5.3391797E2,2.6391206E3,5.6446993E-1,-4.5167404E-1,1.5183246E-1,7.4147725E-1,-2.2866894E-1,-9.1897756E-1,5.076142E-3,-8.044164E-1,7.737374E-1,1.9211823E-1,9.0391064E-1,3.8181818E-1,-8.254717E-1,-6.9767445E-2,5.9292036E-1,-1.6363636E-1,-8.29743E-1,8.2978725E-1,2.53886E-1,-7.181208E-1,2.3701298E-1,8.3756346E-1,-8.136646E-1,-5.263158E-2,-9.648849E-1,-7.5487363E-1,8.7096775E-1,-1.1111111E-1,-5E-1,6.666667E-1,5E-1,-6.4285713E-1,-0E0,8.095238E-1,-1.4285715E-1,-8.2978725E-1,7.605634E-1,2.4210526E-1,6.666667E-1,-2.413793E-1,2.7272728E-1,-7.9904306E-1],"split_indices":[0,1,0,4,3,1,0,3,3,4,6,3,9,2,2,2,4,2,1,18,3,10,4,12,3,2,4,2,3,2,10,0,5,6,1,2,2,2,0,0,0,24,4,18,6,1,30,1,17,0,0,0,0,0,0,0,0,0,0,0,0,0,0,0,0,0,0,0,0,0,0,0,0,0,0,0,0,0,0,0,0,0,0,0,0,0,0,0,0,0,0],"split_type":[0,0,0,0,0,0,0,0,0,0,0,0,0,0,0,0,0,0,0,0,0,0,0,0,0,0,0,0,0,0,0,0,0,0,0,0,0,0,0,0,0,0,0,0,0,0,0,0,0,0,0,0,0,0,0,0,0,0,0,0,0,0,0,0,0,0,0,0,0,0,0,0,0,0,0,0,0,0,0,0,0,0,0,0,0,0,0,0,0,0,0],"sum_hessian":[2.33655E4,2.2384E4,9.815E2,3.2395E3,1.91445E4,2.445E2,7.37E2,1.9865E3,1.253E3,1.403E3,1.77415E4,1.0275E2,1.4175E2,7.0275E2,1.28375E3,1.06E3,1.93E2,1.10475E3,2.9825E2,1.772025E4,2.125E1,9.05E1,1.225E1,7.75E1,6.425E1,4.81E2,2.2175E2,1.108E3,1.7575E2,6.0075E2,4.5925E2,1.255E2,6.75E1,9.73E2,1.3175E2,2.505E2,4.775E1,1.770075E4,1.95E1,2.025E1,1E0,8.55E1,5E0,7E0,5.25E0,2.025E1,5.725E1,1.125E1,5.3E1,8.625E1,3.9475E2,4.675E1,1.75E2,7.225E1,1.03575E3,9.75E1,7.825E1,2.465E2,3.5425E2,4.465E2,1.275E1,1.05E2,2.05E1,2.725E1,4.025E1,9.6225E2,1.075E1,9.55E1,3.625E1,1.53E2,9.75E1,3.925E1,8.5E0,1.631675E4,1.384E3,8.425E1,1.25E0,3E0,2E0,1E0,6E0,1E0,4.25E0,9.5E0,1.075E1,3.45E1,2.275E1,5E0,6.25E0,1.75E0,5.125E1],"tree_param":{"num_deleted":"0","num_feature":"48","num_nodes":"91","size_leaf_vector":"0"}},{"base_weights":[-9.539885E-1,-1.0636715E0,8.453198E-1,-2.7845424E-1,-1.2586645E0,2.627028E-1,1.3660231E0,-9.4581926E-1,3.2401845E-1,-1.3070809E0,-7.1963924E-1,8.4910136E-1,-4.7840986E-1,-1.0791351E0,-1.3484113E-1,7.133883E-1,-8.625406E-1,-1.3169161E0,5.7554827E-3,2.0750107E-1,-1.159464E0,4.770052E-1,1.3730608E0,6.817552E-1,-8.9564276E-1,3.7849177E-2,-1.1622596E0,2.963862E-1,-1.0921768E0,8.4465516E-1,-7.4413526E-1,-1.0587637E0,1.944698E-1,-1.3197489E0,1.5428848E0,1.3842387E0,-8.4276843E-1,8.692457E-1,-5.969426E-1,-1.195051E0,7.0632875E-1,1.2116076E0,5.7655316E-2,1.4287823E0,2.356936E-1,-1.0026377E0,1.1662246E0,-9.8609847E-1,8.531897E-1,3.8896927E-1,-8.9258546E-1,-1.1806328E0,1.8110545E0,-2.6727772E-1,8.595296E-1,-1.1718749E0,1.3257396E0,4.2226952E-1,1.2097902E0,-1.3147944E0,7.9472226E-1,4.4918853E-1,-1.1552216E0,7.681247E-1,-8.168314E-1,2.6909719E0,-1.321633E0,-9.2272955E-1,2.7551441E0,-9.285073E-1,2.071992E0,-9.3198425E-1,1.2771823E0,4.5392826E-1,1.650407E0,-8.559592E-1,5.359949E-1,-5.6488776E-1,-1.2564538E0,1.7612927E0,-1.0238259E0,1.3607991E0,-1.6990615E-1,5.512717E-1,-5.088028E-1,-2.1905224E-1,1.4589707E0,8.7906206E-1,-1.0625422E0,-1.2371002E0,6.956388E-2,1.7337618E0,2.9015908E-1,-1.1448334E0,-2.6715228E-1,-8.8383055E-1,1.372309E0],"categories":[],"categories_nodes":[],"categories_segments":[],"categories_sizes":[],"default_left":[1,1,1,1,1,1,0,1,1,1,1,1,1,1,1,1,1,1,1,1,1,1,1,1,1,1,1,1,1,1,1,1,1,1,1,1,1,1,1,1,1,1,1,1,1,1,1,1,1,0,0,0,0,0,0,0,0,0,0,0,0,0,0,0,0,0,0,0,0,0,0,0,0,0,0,0,0,0,0,0,0,0,0,0,0,0,0,0,0,0,0,0,0,0,0,0,0],"id":1,"left_children":[1,3,5,7,9,11,-1,13,15,17,19,21,23,25,27,29,31,33,35,37,39,41,43,45,47,49,51,53,55,57,59,61,63,65,67,69,71,73,75,77,79,81,83,85,87,89,91,93,95,-1,-1,-1,-1,-1,-1,-1,-1,-1,-1,-1,-1,-1,-1,-1,-1,-1,-1,-1,-1,-1,-1,-1,-1,-1,-1,-1,-1,-1,-1,-1,-1,-1,-1,-1,-1,-1,-1,-1,-1,-1,-1,-1,-1,-1,-1,-1,-1],"loss_changes":[3.7796074E3,2.7628984E3,3.335495E2,1.4443063E3,3.7634766E2,2.2669E2,0E0,1.8410632E2,8.729931E2,1.7127344E2,4.8702417E2,5.6088165E1,1.1225462E2,1.359242E2,1.001221E2,2.727379E2,9.706256E1,1.0869531E2,1.17696175E2,2.0543547E2,5.4613403E1,5.2828827E1,7.2890625E0,5.1415993E1,2.7744583E1,3.3779022E1,7.655029E1,5.338369E1,1.6061852E1,2.0078748E2,1.0470149E2,5.7830566E1,4.3535465E1,1.0294922E2,4.2861923E1,6.2903114E1,1.2971081E1,6.7903015E1,5.1615738E1,3.0052612E1,3.0615013E1,1.3082771E1,3.1140017E1,6.01593E0,6.62812E0,3.6788902E0,2.3502853E1,1.8201004E1,9.238192E0,0E0,0E0,0E0,0E0,0E0,0E0,0E0,0E0,0E0,0E0,0E0,0E0,0E0,0E0,0E0,0E0,0E0,0E0,0E0,0E0,0E0,0E0,0E0,0E0,0E0,0E0,0E0,0E0,0E0,0E0,0E0,0E0,0E0,0E0,0E0,0E0,0E0,0E0,0E0,0E0,0E0,0E0,0E0,0E0,0E0,0E0,0E0,0E0],"parents":[2147483647,0,0,1,1,2,2,3,3,4,4,5,5,7,7,8,8,9,9,10,10,11,11,12,12,13,13,14,14,15,15,16,16,17,17,18,18,19,19,20,20,21,21,22,22,23,23,24,24,25,25,26,26,27,27,28,28,29,29,30,30,31,31,32,32,33,33,34,34,35,35,36,36,37,37,38,38,39,39,40,40,41,41,42,42,43,43,44,44,45,45,46,46,47,47,48,48],"right_children":[2,4,6,8,10,12,-1,14,16,18,20,22,24,26,28,30,32,34,36,38,40,42,44,46,48,50,52,54,56,58,60,62,64,66,68,70,72,74,76,78,80,82,84,86,88,90,92,94,96,-1,-1,-1,-1,-1,-1,-1,-1,-1,-1,-1,-1,-1,-1,-1,-1,-1,-1,-1,-1,-1,-1,-1,-1,-1,-1,-1,-1,-1,-1,-1,-1,-1,-1,-1,-1,-1,-1,-1,-1,-1,-1,-1,-1,-1,-1,-1,-1],"split_conditions":[9.198433E0,1.8534029E1,1.5996937E1,5.95903E0,1.3087398E1,6.433329E2,6.8301153E-1,9.753532E2,6.0285406E2,-9.5249996E-2,5.7960034E2,9.4933325E2,9.5923157E2,8.275167E2,5.331333E2,9.2598045E-1,9.672201E2,9.3700564E-1,1.3826538E3,3.1376404E3,-1.0505E-1,8.662512E2,2.3353218E3,0E0,-9.875E-2,5.7854877E2,1.9149824E1,1.9461795E0,1.7959787E1,2.1967256E0,9.846004E2,8.16972E2,1.1450879E3,9.9989974E-1,9.624427E2,0E0,1.047124E3,9.5870734E2,9.793424E2,5.4843677E2,2.8635034E3,6.7762583E-1,3.2101746E1,-3.4827164E-1,2.4173555E3,1.4149235E1,7.6022544E3,9.4489954E2,0E0,1.9448464E-1,-4.4629273E-1,-5.903164E-1,9.0552723E-1,-1.3363886E-1,4.297648E-1,-5.8593744E-1,6.628698E-1,2.1113476E-1,6.048951E-1,-6.573972E-1,3.9736113E-1,2.2459427E-1,-5.776108E-1,3.8406235E-1,-4.084157E-1,1.3454859E0,-6.608165E-1,-4.6136478E-1,1.3775721E0,-4.6425366E-1,1.035996E0,-4.6599212E-1,6.385912E-1,2.2696413E-1,8.252035E-1,-4.279796E-1,2.6799744E-1,-2.8244388E-1,-6.282269E-1,8.8064635E-1,-5.1191294E-1,6.8039954E-1,-8.495308E-2,2.7563584E-1,-2.544014E-1,-1.0952612E-1,7.2948533E-1,4.3953103E-1,-5.312711E-1,-6.185501E-1,3.478194E-2,8.668809E-1,1.4507954E-1,-5.724167E-1,-1.3357614E-1,-4.4191527E-1,6.861545E-1],"split_indices":[0,3,0,4,4,1,0,2,1,8,1,2,9,2,1,10,2,16,9,9,8,2,44,12,8,1,6,0,6,7,2,2,1,5,2,12,2,2,2,9,9,14,3,36,47,4,17,2,12,0,0,0,0,0,0,0,0,0,0,0,0,0,0,0,0,0,0,0,0,0,0,0,0,0,0,0,0,0,0,0,0,0,0,0,0,0,0,0,0,0,0,0,0,0,0,0,0],"split_type":[0,0,0,0,0,0,0,0,0,0,0,0,0,0,0,0,0,0,0,0,0,0,0,0,0,0,0,0,0,0,0,0,0,0,0,0,0,0,0,0,0,0,0,0,0,0,0,0,0,0,0,0,0,0,0,0,0,0,0,0,0,0,0,0,0,0,0,0,0,0,0,0,0,0,0,0,0,0,0,0,0,0,0,0,0,0,0,0,0,0,0,0,0,0,0,0,0],"sum_hessian":[1.9145914E4,1.8046254E4,1.0996614E3,3.5904216E3,1.4455832E4,5.1968646E2,5.7997485E2,1.7032001E3,1.8872216E3,1.3263089E4,1.1927428E3,2.900452E2,2.296413E2,1.4624575E3,2.4074248E2,1.4212399E3,4.659817E2,1.3164464E4,9.862553E1,3.8393823E2,8.0880457E2,1.7071806E2,1.1932712E2,6.0574055E1,1.6906725E2,1.01333694E2,1.3611239E3,1.6645432E2,7.4288155E1,1.3042019E3,1.1703797E2,3.930199E2,7.2961784E1,1.3151974E4,1.2489513E1,3.7337288E1,6.128824E1,2.1060861E2,1.7332964E2,7.940195E2,1.4785093E1,6.135292E1,1.0936514E2,1.1350986E2,5.8172655E0,1.3291809E1,4.7282246E1,1.6116725E2,7.899989E0,7.399281E1,2.7340878E1,1.3533639E3,7.760012E0,8.345129E1,8.300304E1,7.241654E1,1.8716166E0,6.056949E2,6.98507E2,8.548348E1,3.1554497E1,2.3408669E1,3.6961124E2,4.6707615E1,2.6254173E1,5.505336E0,1.3146469E4,4.1953745E0,8.294139E0,8.477952E0,2.8859335E1,5.93509E1,1.937343E0,1.3853516E2,7.207345E1,1.4127522E2,3.205441E1,7.140507E1,7.226144E2,9.173527E0,5.611567E0,5.5386642E1,5.9662795E0,5.8454346E1,5.09108E1,1.9295316E0,1.1158032E2,4.1055517E0,1.7117141E0,1.0780583E1,2.5112257E0,2.809959E1,1.9182653E1,1.3153374E2,2.9633512E1,1.6560699E0,6.2439194E0],"tree_param":{"num_deleted":"0","num_feature":"48","num_nodes":"97","size_leaf_vector":"0"}},{"base_weights":[-7.520752E-1,-8.672255E-1,4.11351E-1,-2.946745E-1,-1.078883E0,6.580443E-2,1.1830314E0,-5.6620157E-1,5.337195E-1,-1.1104245E0,-6.064839E-1,7.3060566E-1,-4.634895E-1,-2.1481135E-1,-9.900706E-1,6.9662905E-1,-4.4135812E-1,-1.113886E0,2.1464744E0,1.8758325E-1,-9.128754E-1,9.382345E-1,-1.4338542E-2,1.4424606E-1,-8.608898E-1,-4.8268294E-1,4.5080042E-1,-1.0038366E0,1.3824465E0,3.0359975E-1,1.0017742E0,-9.226403E-2,-9.634519E-1,-1.1275475E0,-3.4114406E-1,5.76635E-1,-8.743601E-1,7.248541E-1,-9.8068035E-1,1.0332497E0,-4.131746E-1,-6.538874E-1,4.7721037E-1,-7.066151E-1,5.7516325E-1,-9.649019E-1,-1.8587337E-1,4.9124992E-1,-7.022344E-1,-2.5335404E-1,7.541257E-1,-1.046944E0,-2.2471553E-1,-3.288868E-2,9.423411E-1,1.0765318E0,-1.08731695E-1,-1.0170355E0,3.3841097E-1,-1.0211699E0,5.393483E-1,1.1384997E0,-1.1306434E0,4.2815295E-1,-9.3836534E-1,1.7979342E0,3.9264315E-1,-9.6744543E-1,3.9846867E-1,1.6889435E0,-1.2502527E-1,5.355861E-1,-1.0117805E0,5.143833E-1,1.2004288E0,-8.1344E-1,1.2837933E0,-9.528465E-1,1.382131E0,5.405119E-2,1.1666226E0,-8.365007E-1,7.114684E-1,1.3620836E-1,1.3522034E0,-4.0042505E-1,-1.049806E0,9.517259E-1,-5.8597755E-1],"categories":[],"categories_nodes":[],"categories_segments":[],"categories_sizes":[],"default_left":[1,1,1,1,1,1,0,1,1,1,1,1,1,1,1,1,1,1,0,1,1,1,1,1,1,1,1,1,0,1,1,1,1,1,1,1,1,1,1,1,1,1,1,1,1,1,1,0,0,0,0,0,0,0,0,0,0,0,0,0,0,0,0,0,0,0,0,0,0,0,0,0,0,0,0,0,0,0,0,0,0,0,0,0,0,0,0,0,0],"id":2,"left_children":[1,3,5,7,9,11,-1,13,15,17,19,21,23,25,27,29,31,33,-1,35,37,39,41,43,45,47,49,51,-1,53,55,57,59,61,63,65,67,69,71,73,75,77,79,81,83,85,87,-1,-1,-1,-1,-1,-1,-1,-1,-1,-1,-1,-1,-1,-1,-1,-1,-1,-1,-1,-1,-1,-1,-1,-1,-1,-1,-1,-1,-1,-1,-1,-1,-1,-1,-1,-1,-1,-1,-1,-1,-1,-1],"loss_changes":[1.8797651E3,1.5466729E3,3.3700183E2,7.7559515E2,1.3819238E2,3.0794812E2,0E0,3.8650464E2,1.3555081E2,1.0087012E2,1.4262688E2,6.000844E1,1.1781766E2,2.5355264E2,3.981421E1,8.723334E1,2.2236864E1,9.173926E1,0E0,6.8199974E1,4.7647064E1,3.937903E1,2.720038E1,7.136286E1,2.05177E1,2.1708263E2,8.738666E1,3.907202E1,0E0,6.8904045E1,3.4192352E1,3.0021843E1,4.799122E0,6.1442383E1,7.07115E1,2.6376373E1,5.6378784E0,1.4450581E1,1.970108E1,2.3992798E1,1.5064865E1,2.41985E1,1.421406E1,1.2661278E1,4.3821423E1,1.1810043E1,1.9035906E1,0E0,0E0,0E0,0E0,0E0,0E0,0E0,0E0,0E0,0E0,0E0,0E0,0E0,0E0,0E0,0E0,0E0,0E0,0E0,0E0,0E0,0E0,0E0,0E0,0E0,0E0,0E0,0E0,0E0,0E0,0E0,0E0,0E0,0E0,0E0,0E0,0E0,0E0,0E0,0E0,0E0,0E0],"parents":[2147483647,0,0,1,1,2,2,3,3,4,4,5,5,7,7,8,8,9,9,10,10,11,11,12,12,13,13,14,14,15,15,16,16,17,17,19,19,20,20,21,21,22,22,23,23,24,24,25,25,26,26,27,27,29,29,30,30,31,31,32,32,33,33,34,34,35,35,36,36,37,37,38,38,39,39,40,40,41,41,42,42,43,43,44,44,45,45,46,46],"right_children":[2,4,6,8,10,12,-1,14,16,18,20,22,24,26,28,30,32,34,-1,36,38,40,42,44,46,48,50,52,-1,54,56,58,60,62,64,66,68,70,72,74,76,78,80,82,84,86,88,-1,-1,-1,-1,-1,-1,-1,-1,-1,-1,-1,-1,-1,-1,-1,-1,-1,-1,-1,-1,-1,-1,-1,-1,-1,-1,-1,-1,-1,-1,-1,-1,-1,-1,-1,-1,-1,-1,-1,-1,-1,-1],"split_conditions":[6.921335E0,2.4078348E1,1.5996937E1,1.1082123E1,1.4710505E1,4.8322363E2,5.915157E-1,4.8785907E2,7.3261176E2,1.9203064E1,5.526423E1,5.1411175E1,1.8585347E3,9.4465466E2,1.9170383E1,1.51011505E1,3.6427963E-1,-1.0655E-1,1.0732372E0,7.6774774E2,4.087787E2,9.1412234E-1,5.2936065E-1,0E0,9.7018713E2,8.4726025E2,3.950218E0,1.02356384E3,6.9122326E-1,9.551626E2,9.347187E-1,-2.2420569E-1,8.759055E-1,1.7064373E-3,1.8739802E3,8.2274255E2,9.8989716E2,6.5294507E3,1.8728918E2,3.4632367E-1,1.7794601E1,-1.2674999E-1,9.488816E2,6.954246E-1,-1.476E-1,8.5504724E2,6.47647E1,2.4562496E-1,-3.511172E-1,-1.2667702E-1,3.7706286E-1,-5.23472E-1,-1.12357765E-1,-1.644434E-2,4.7117054E-1,5.382659E-1,-5.4365847E-2,-5.0851774E-1,1.6920549E-1,-5.1058495E-1,2.6967415E-1,5.6924987E-1,-5.653217E-1,2.1407647E-1,-4.6918267E-1,8.989671E-1,1.9632158E-1,-4.8372272E-1,1.9923434E-1,8.4447175E-1,-6.2512636E-2,2.6779306E-1,-5.0589025E-1,2.5719166E-1,6.002144E-1,-4.0672E-1,6.4189667E-1,-4.7642326E-1,6.910655E-1,2.7025595E-2,5.833113E-1,-4.1825035E-1,3.557342E-1,6.810418E-2,6.761017E-1,-2.0021252E-1,-5.24903E-1,4.7586295E-1,-2.9298878E-1],"split_indices":[0,3,0,4,4,1,0,1,1,6,3,3,9,2,6,4,14,8,0,1,9,10,7,12,2,2,4,2,0,2,10,10,10,11,9,2,2,17,1,7,6,8,2,10,8,2,3,0,0,0,0,0,0,0,0,0,0,0,0,0,0,0,0,0,0,0,0,0,0,0,0,0,0,0,0,0,0,0,0,0,0,0,0,0,0,0,0,0,0],"split_type":[0,0,0,0,0,0,0,0,0,0,0,0,0,0,0,0,0,0,0,0,0,0,0,0,0,0,0,0,0,0,0,0,0,0,0,0,0,0,0,0,0,0,0,0,0,0,0,0,0,0,0,0,0,0,0,0,0,0,0,0,0,0,0,0,0,0,0,0,0,0,0,0,0,0,0,0,0,0,0,0,0,0,0,0,0,0,0,0,0],"sum_hessian":[1.402769E4,1.2764569E4,1.2631207E3,3.4457976E3,9.318772E3,8.732004E2,3.8992035E2,2.5954045E3,8.5039307E2,8.734247E3,5.8452527E2,3.868857E2,4.8631467E2,1.419848E3,1.1755566E3,7.28899E2,1.21494095E2,8.725631E3,8.61561E0,1.6285246E2,4.2167282E2,3.0235474E2,8.453098E1,1.9252597E2,2.937887E2,1.01260565E3,4.0724237E2,1.1693486E3,6.208E0,3.1944553E2,4.0945346E2,7.351534E1,4.797876E1,8.573598E3,1.5203339E2,1.195217E2,4.3330765E1,1.6378716E1,4.052941E2,2.827131E2,1.9641636E1,3.6591686E1,4.7939297E1,6.4509636E1,1.2801633E2,2.5419136E2,3.9597343E1,1.8604967E2,8.2655597E2,1.2265942E2,2.8458298E2,1.1077168E3,6.163177E1,2.0984686E2,1.0959865E2,3.8365686E2,2.5796602E1,2.2925922E1,5.0589417E1,4.651283E1,1.4659284E0,1.1197169E1,8.5624E3,6.6568184E1,8.54652E1,1.4500256E1,1.0502144E2,4.0601402E1,2.729362E0,7.211188E0,9.167528E0,7.8198686E0,3.9747424E2,6.9886444E1,2.1282666E2,1.6314232E1,3.3274026E0,3.2370556E1,4.221131E0,3.0374142E1,1.7565157E1,5.9472527E1,5.037111E0,8.25555E1,4.5460835E1,3.3981926E1,2.2020943E2,9.944338E0,2.9653008E1],"tree_param":{"num_deleted":"0","num_feature":"48","num_nodes":"89","size_leaf_vector":"0"}},{"base_weights":[-6.1214185E-1,-1.2894309E-1,-8.638614E-1,-3.902585E-1,4.4112682E-1,-9.252442E-1,1.0450505E0,7.768106E-2,-6.7072815E-1,6.250094E-1,-2.7355447E-1,-9.8214805E-1,-5.132621E-1,-5.095758E-1,1.0802265E0,-2.0920816E-1,6.685409E-1,1.5955053E-1,-7.9593563E-1,3.9686945E-1,1.007962E0,3.379516E-1,-5.769306E-1,-2.8562558E-1,-1.0143839E0,-4.1410003E-2,-8.100168E-1,-9.808783E-1,7.3622596E-1,1.089783E0,-2.0892985E-2,5.145574E-1,-4.9364853E-1,3.9457235E-1,1.0222906E0,4.2564717E-1,-8.5746765E-1,-8.1902957E-1,1.49216E0,1.1957836E0,1.0331984E-1,1.076882E0,2.6236042E-1,5.5312085E-1,-5.921569E-1,-7.956218E-1,1.4429633E-1,3.480482E-1,-8.06904E-1,1.8156374E0,-1.0190103E0,-2.402978E-1,1.1406428E0,1.657432E0,-8.600009E-1,1.0961672E0,-6.183451E-2,7.363267E-1,-5.0825197E-1,-6.4338136E-1,2.946876E-1,-7.4053265E-2,7.3694724E-1,1.9169971E-2,1.1032511E0,6.7775166E-1,-3.456393E-1,-1.0221404E0,1.2054814E0,-8.975735E-1,-1.4480202E-1,1.3784448E0,7.633435E-1,-5.8841307E-2,1.3979874E0,1.1113867E0,-1.4743474E-1,-5.3975445E-1,8.16014E-1,-6.3573855E-1,7.0145345E-1,-1.0636326E0,7.374198E-1,3.948669E-1,-9.1581494E-1,-1.1256516E0,5.3712696E-1,-2.1044059E-1,1.1519083E0,-9.407679E-1,2.354161E-1,-1.0227925E0,1.7743617E0,-7.716587E-1,1.1228502E-1,-3.5367746E-2,1.5031606E0,4.3244787E-2,2.0980704E0,-2.7436382E-1,-9.8952615E-1,3.2440636E-1,1.0986896E0],"categories":[],"categories_nodes":[],"categories_segments":[],"categories_sizes":[],"default_left":[1,1,1,1,1,1,1,1,1,1,1,1,1,1,1,1,1,1,1,1,1,1,1,1,1,1,1,0,0,1,0,1,1,1,1,1,1,1,0,1,1,1,1,1,1,1,1,1,1,0,1,1,1,1,1,1,0,0,0,0,0,0,0,0,0,0,0,0,0,0,0,0,0,0,0,0,0,0,0,0,0,0,0,0,0,0,0,0,0,0,0,0,0,0,0,0,0,0,0,0,0,0,0],"id":3,"left_children":[1,3,5,7,9,11,13,15,17,19,21,23,25,27,29,31,33,35,37,39,41,43,45,47,49,51,53,-1,-1,55,-1,57,59,61,63,65,67,69,-1,71,73,75,77,79,81,83,85,87,89,-1,91,93,95,97,99,101,-1,-1,-1,-1,-1,-1,-1,-1,-1,-1,-1,-1,-1,-1,-1,-1,-1,-1,-1,-1,-1,-1,-1,-1,-1,-1,-1,-1,-1,-1,-1,-1,-1,-1,-1,-1,-1,-1,-1,-1,-1,-1,-1,-1,-1,-1,-1],"loss_changes":[1.2321589E3,5.1728033E2,7.8146387E2,3.125064E2,1.4361774E2,1.5079932E2,1.1924362E1,1.5152818E2,1.5488239E2,7.547513E1,4.176322E1,1.2701074E2,1.099346E2,3.8231168E0,2.1663055E0,1.2417554E2,2.7909775E1,5.338213E1,6.958484E1,1.2789926E2,1.6345062E1,1.5323688E1,2.3795177E1,8.358201E1,7.279346E1,7.180747E1,6.088153E1,0E0,0E0,1.5527039E0,0E0,3.900614E1,5.1257423E1,2.6730904E1,1.0282928E1,3.05573E1,1.51465645E1,6.773163E1,0E0,1.052681E1,8.4123604E1,1.2662964E1,1.3186498E1,1.1268517E1,9.911961E0,1.6867943E1,1.8453709E1,5.1655518E1,1.9569069E1,0E0,5.8973633E1,4.903651E1,1.8809952E1,6.960367E0,3.562024E1,3.4683228E-2,0E0,0E0,0E0,0E0,0E0,0E0,0E0,0E0,0E0,0E0,0E0,0E0,0E0,0E0,0E0,0E0,0E0,0E0,0E0,0E0,0E0,0E0,0E0,0E0,0E0,0E0,0E0,0E0,0E0,0E0,0E0,0E0,0E0,0E0,0E0,0E0,0E0,0E0,0E0,0E0,0E0,0E0,0E0,0E0,0E0,0E0,0E0],"parents":[2147483647,0,0,1,1,2,2,3,3,4,4,5,5,6,6,7,7,8,8,9,9,10,10,11,11,12,12,13,13,14,14,15,15,16,16,17,17,18,18,19,19,20,20,21,21,22,22,23,23,24,24,25,25,26,26,29,29,31,31,32,32,33,33,34,34,35,35,36,36,37,37,39,39,40,40,41,41,42,42,43,43,44,44,45,45,46,46,47,47,48,48,50,50,51,51,52,52,53,53,54,54,55,55],"right_children":[2,4,6,8,10,12,14,16,18,20,22,24,26,28,30,32,34,36,38,40,42,44,46,48,50,52,54,-1,-1,56,-1,58,60,62,64,66,68,70,-1,72,74,76,78,80,82,84,86,88,90,-1,92,94,96,98,100,102,-1,-1,-1,-1,-1,-1,-1,-1,-1,-1,-1,-1,-1,-1,-1,-1,-1,-1,-1,-1,-1,-1,-1,-1,-1,-1,-1,-1,-1,-1,-1,-1,-1,-1,-1,-1,-1,-1,-1,-1,-1,-1,-1,-1,-1,-1,-1],"split_conditions":[5.0853534E2,1.9232962E0,1.4851715E1,9.9999577E-1,9.9999946E-1,9.719289E2,0E0,9.424763E2,8.329151E0,9.44994E2,1.3755938E1,8.2415393E2,1.5918018E3,4.010072E0,9.999976E-1,8.620348E2,1.0203525E3,8.979124E-1,1.9158798E1,8.482101E2,7.1912E-1,9.1251457E-1,9.551836E2,9.9999774E-1,9.9989974E-1,5.2235126E0,2.6785383E-2,-4.9043915E-1,3.6811298E-1,1.841166E1,-1.0446493E-2,6.312592E-1,3.8412595E0,3.1039357E0,2.113171E0,4.5292985E-1,1.7108433E1,9.9406415E2,7.4608E-1,8.201803E2,1.831788E1,1.84193E2,1.00115063E3,8.6225875E4,1.381769E1,8.212532E2,2.322724E4,7.8024974E0,1.2365534E1,9.078187E-1,1.2154236E1,9.201225E0,0E0,1.5187988E-1,4.2713844E1,8.149338E-1,-3.0917255E-2,3.6816335E-1,-2.5412598E-1,-3.2169068E-1,1.473438E-1,-3.7026633E-2,3.6847362E-1,9.584986E-3,5.5162555E-1,3.3887583E-1,-1.7281964E-1,-5.110702E-1,6.027407E-1,-4.4878674E-1,-7.240101E-2,6.892224E-1,3.8167176E-1,-2.9420653E-2,6.989937E-1,5.556933E-1,-7.371737E-2,-2.6987723E-1,4.08007E-1,-3.1786928E-1,3.5072672E-1,-5.318163E-1,3.687099E-1,1.9743346E-1,-4.5790747E-1,-5.628258E-1,2.6856348E-1,-1.05220295E-1,5.7595414E-1,-4.7038394E-1,1.1770805E-1,-5.113962E-1,8.8718086E-1,-3.8582936E-1,5.614251E-2,-1.7683873E-2,7.515803E-1,2.1622393E-2,1.0490352E0,-1.3718191E-1,-4.9476308E-1,1.6220318E-1,5.493448E-1],"split_indices":[1,7,0,5,5,2,12,2,3,2,3,2,9,7,5,2,2,10,6,2,14,10,2,5,5,0,11,0,0,4,0,14,22,0,6,14,4,2,0,2,6,3,2,30,6,2,20,4,4,0,18,6,12,16,3,11,0,0,0,0,0,0,0,0,0,0,0,0,0,0,0,0,0,0,0,0,0,0,0,0,0,0,0,0,0,0,0,0,0,0,0,0,0,0,0,0,0,0,0,0,0,0,0],"split_type":[0,0,0,0,0,0,0,0,0,0,0,0,0,0,0,0,0,0,0,0,0,0,0,0,0,0,0,0,0,0,0,0,0,0,0,0,0,0,0,0,0,0,0,0,0,0,0,0,0,0,0,0,0,0,0,0,0,0,0,0,0,0,0,0,0,0,0,0,0,0,0,0,0,0,0,0,0,0,0,0,0,0,0,0,0,0,0,0,0,0,0,0,0,0,0,0,0,0,0,0,0,0,0],"sum_hessian":[1.0130256E4,3.470269E3,6.659987E3,2.379734E3,1.0905352E3,6.453E3,2.0698676E2,8.920867E2,1.4876471E3,8.674672E2,2.2306789E2,5.6686494E3,7.843504E2,4.2813954E0,2.0270535E2,6.009461E2,2.911406E2,1.9490625E2,1.2927408E3,5.448907E2,3.2257657E2,7.39318E1,1.491361E2,2.5118289E2,5.417467E3,3.0327322E2,4.8107718E2,3.2605436E0,1.020852E0,2.0097145E2,1.7339153E0,1.6931383E2,4.3163226E2,1.6526398E2,1.2587663E2,1.5494682E2,3.9959423E1,1.2804591E3,1.2281721E1,1.4558855E2,3.9930215E2,2.948753E2,2.7701262E1,6.0371025E1,1.35607815E1,1.1435736E2,3.4778725E1,1.1351937E2,1.3766353E2,8.202917E0,5.4092637E3,2.6027673E2,4.2996483E1,8.913348E0,4.7216382E2,1.9991136E2,1.0600879E0,1.3937428E2,2.993955E1,3.6289044E2,6.874181E1,7.009929E1,9.516469E1,9.492994E0,1.1638364E2,1.1686826E2,3.807856E1,3.7472725E1,2.4866972E0,1.1465597E3,1.338994E2,1.00816444E2,4.4772102E1,3.557037E2,4.3598446E1,2.8688242E2,7.9928937E0,1.1322584E1,1.637868E1,6.3323646E0,5.403866E1,1.0158528E1,3.4022527E0,1.0277316E1,1.0408005E2,7.775736E0,2.7002989E1,6.74182E1,4.6101173E1,1.2208209E2,1.5581429E1,5.4025825E3,6.6810374E0,1.0334371E2,1.5693301E2,1.0343744E1,3.265274E1,2.146872E0,6.766476E0,8.6079796E1,3.86084E2,1.0734849E0,1.9883788E2],"tree_param":{"num_deleted":"0","num_feature":"48","num_nodes":"103","size_leaf_vector":"0"}},{"base_weights":[-4.8460156E-1,-1.4778768E-1,-8.102276E-1,-4.9200067E-1,1.8247287E-1,-8.838081E-1,5.176949E-1,-6.811805E-1,4.872082E-2,3.1562448E-2,8.321567E-1,-6.1789566E-1,-9.791925E-1,2.2361925E-2,1.0490947E0,-1.0835476E-3,-8.010491E-1,-5.6616243E-2,1.0443972E0,1.0627091E0,-9.8769255E-2,6.940688E-3,9.143369E-1,-7.0033556E-1,5.255838E-1,-4.1784054E-1,-1.0020915E0,-1.2526056E-1,1.1139512E0,2.3275088E-1,-8.5689574E-1,-5.340863E-1,-9.37089E-1,3.0509633E-1,-6.061997E-1,1.0784168E0,1.02314025E-1,1.1064792E0,-7.4740344E-1,-3.5564834E-1,2.7218214E-1,-6.080271E-1,9.696727E-1,9.519568E-1,-5.266746E-1,-7.1450293E-1,4.6937404E0,-5.8832973E-1,1.0059431E0,-7.085015E-1,8.120437E-1,5.7828563E-1,-1.0090714E0,-8.0551714E-1,1.604702E-1,1.3454202E0,-1.578653E-1,-4.2561326E-2,8.2657075E-1,-1.031767E0,4.654587E-1,7.0759827E-1,-6.2277937E-1,-9.482944E-1,1.12381E0,4.705456E-1,-9.666753E-1,6.990386E-1,-7.5690717E-1,3.7173983E-1,1.0993619E0,1.1953254E0,1.6792251E-1,-1.1948444E0,3.7646985E-1,-4.1986346E-1,1.406242E0,7.981056E-1,1.1041872E-1,5.83421E-1,-1.0363077E0,1.3275071E0,-3.9347825E-3,5.7999307E-1,1.0805304E0,6.808968E-1,-8.96808E-1,-7.9813904E-1,-6.849162E-2,-8.5875344E-1,6.71221E-1,-5.9027296E-1,1.3990166E0,-7.816697E-1,4.0822384E-1,-4.6271616E-1,1.1156267E0,-6.85759E-1,1.7225529E0,-1.01268E0,6.7478997E-1,-9.5437455E-1,2.3435932E-1,4.9347377E-1,-6.658063E-1,3.7961048E-1,1.4813503E0],"categories":[],"categories_nodes":[],"categories_segments":[],"categories_sizes":[],"default_left":[1,1,1,1,1,1,1,1,1,1,1,1,1,1,0,1,1,1,1,1,1,1,1,1,1,1,1,1,1,1,1,1,1,1,1,1,0,1,1,1,1,1,1,1,1,1,0,1,1,1,1,1,1,1,1,1,0,0,0,0,0,0,0,0,0,0,0,0,0,0,0,0,0,0,0,0,0,0,0,0,0,0,0,0,0,0,0,0,0,0,0,0,0,0,0,0,0,0,0,0,0,0,0,0,0,0,0],"id":4,"left_children":[1,3,5,7,9,11,13,15,17,19,21,23,25,27,-1,29,31,33,35,37,39,41,43,45,47,49,51,53,55,57,59,61,63,65,67,69,-1,71,73,75,77,79,81,83,85,87,-1,89,91,93,95,97,99,101,103,105,-1,-1,-1,-1,-1,-1,-1,-1,-1,-1,-1,-1,-1,-1,-1,-1,-1,-1,-1,-1,-1,-1,-1,-1,-1,-1,-1,-1,-1,-1,-1,-1,-1,-1,-1,-1,-1,-1,-1,-1,-1,-1,-1,-1,-1,-1,-1,-1,-1,-1,-1],"loss_changes":[8.264768E2,4.2138297E2,3.7485962E2,1.8568768E2,1.8547702E2,9.149121E1,5.3095448E1,1.0961273E2,4.9493366E1,2.0658798E2,2.417743E1,9.098953E1,3.3911133E1,1.7135046E1,0E0,4.0718792E1,4.1014404E1,8.510625E1,1.3365326E0,1.4493256E1,1.3016171E2,2.0307444E1,1.808197E1,7.190973E1,3.548812E1,3.8607315E1,2.888086E1,1.836183E1,3.940834E0,2.6162262E1,1.0577297E1,4.319255E1,1.8522034E1,5.480335E1,3.394899E1,2.3469925E-1,0E0,1.3876846E1,2.7978866E0,9.1883644E1,4.7472095E1,1.1288411E1,4.6621685E0,1.4505371E1,4.5862837E0,4.8335266E1,0E0,7.484406E0,2.964746E1,7.393959E0,8.566837E0,1.8416079E1,1.6205078E1,4.5443115E0,1.873381E1,8.5814285E-1,0E0,0E0,0E0,0E0,0E0,0E0,0E0,0E0,0E0,0E0,0E0,0E0,0E0,0E0,0E0,0E0,0E0,0E0,0E0,0E0,0E0,0E0,0E0,0E0,0E0,0E0,0E0,0E0,0E0,0E0,0E0,0E0,0E0,0E0,0E0,0E0,0E0,0E0,0E0,0E0,0E0,0E0,0E0,0E0,0E0,0E0,0E0,0E0,0E0,0E0,0E0],"parents":[2147483647,0,0,1,1,2,2,3,3,4,4,5,5,6,6,7,7,8,8,9,9,10,10,11,11,12,12,13,13,15,15,16,16,17,17,18,18,19,19,20,20,21,21,22,22,23,23,24,24,25,25,26,26,27,27,28,28,29,29,30,30,31,31,32,32,33,33,34,34,35,35,37,37,38,38,39,39,40,40,41,41,42,42,43,43,44,44,45,45,47,47,48,48,49,49,50,50,51,51,52,52,53,53,54,54,55,55],"right_children":[2,4,6,8,10,12,14,16,18,20,22,24,26,28,-1,30,32,34,36,38,40,42,44,46,48,50,52,54,56,58,60,62,64,66,68,70,-1,72,74,76,78,80,82,84,86,88,-1,90,92,94,96,98,100,102,104,106,-1,-1,-1,-1,-1,-1,-1,-1,-1,-1,-1,-1,-1,-1,-1,-1,-1,-1,-1,-1,-1,-1,-1,-1,-1,-1,-1,-1,-1,-1,-1,-1,-1,-1,-1,-1,-1,-1,-1,-1,-1,-1,-1,-1,-1,-1,-1,-1,-1,-1,-1],"split_conditions":[6.878815E2,6.4468675E0,9.636133E0,3.4071956E0,9.9349384E2,1.0839952E3,1.5994137E1,8.342233E0,1.4859289E1,8.1977045E2,-7.6739526E-1,-1.1945E-1,1.19231205E1,-1.0805E-1,5.2454734E-1,8.665857E-1,1.5901555E3,3.5178486E1,1.0477703E4,9.492474E-1,2.5760624E0,4.0858755E0,4.2987433E2,9.521332E2,0E0,2.8603747E0,9.015156E-3,7.422428E0,3.3218909E3,1.0186661E0,1.046088E3,8.186813E2,1.9234493E1,9.0776074E-1,7.781466E2,3.8092746E-3,5.1157013E-2,7.3809695E-1,1.0589897E-4,1.8978714E1,1.8299648E2,1.8624289E2,1.6972147E0,9.160564E0,9.9999404E-1,4.3807597E0,2.3468702E0,1.3396412E1,2.367101E1,1.5481289E1,2.8472223E0,1.4220837E-1,-7.4E-2,6.163067E0,6.2004656E-1,3.1249892E-2,-7.893265E-2,-2.1280663E-2,4.1328537E-1,-5.158835E-1,2.3272935E-1,3.5379913E-1,-3.1138968E-1,-4.741472E-1,5.61905E-1,2.352728E-1,-4.8333764E-1,3.495193E-1,-3.7845358E-1,1.8586992E-1,5.4968095E-1,5.976627E-1,8.3961256E-2,-5.974222E-1,1.8823493E-1,-2.0993173E-1,7.03121E-1,3.990528E-1,5.520936E-2,2.917105E-1,-5.1815385E-1,6.6375357E-1,-1.9673912E-3,2.8999653E-1,5.402652E-1,3.404484E-1,-4.48404E-1,-3.9906952E-1,-3.424581E-2,-4.2937672E-1,3.356105E-1,-2.9513648E-1,6.995083E-1,-3.9083484E-1,2.0411192E-1,-2.3135808E-1,5.5781335E-1,-3.428795E-1,8.6127645E-1,-5.0634E-1,3.3739498E-1,-4.7718728E-1,1.1717966E-1,2.4673688E-1,-3.3290315E-1,1.8980524E-1,7.4067515E-1],"split_indices":[1,4,0,0,2,9,0,3,0,2,39,8,3,8,0,10,9,3,17,10,0,0,3,13,12,7,11,6,9,7,2,2,6,10,9,35,0,14,29,6,1,1,18,6,5,0,0,4,15,4,22,16,8,18,14,35,0,0,0,0,0,0,0,0,0,0,0,0,0,0,0,0,0,0,0,0,0,0,0,0,0,0,0,0,0,0,0,0,0,0,0,0,0,0,0,0,0,0,0,0,0,0,0,0,0,0,0],"split_type":[0,0,0,0,0,0,0,0,0,0,0,0,0,0,0,0,0,0,0,0,0,0,0,0,0,0,0,0,0,0,0,0,0,0,0,0,0,0,0,0,0,0,0,0,0,0,0,0,0,0,0,0,0,0,0,0,0,0,0,0,0,0,0,0,0,0,0,0,0,0,0,0,0,0,0,0,0,0,0,0,0,0,0,0,0,0,0,0,0,0,0,0,0,0,0,0,0,0,0,0,0,0,0,0,0,0,0],"sum_hessian":[7.535757E3,3.704958E3,3.8307988E3,1.813918E3,1.8910399E3,3.6299944E3,2.0080434E2,1.3435844E3,4.703336E2,1.5354336E3,3.5560632E2,9.603136E2,2.669681E3,1.0446842E2,9.6335915E1,2.0147693E2,1.1421074E3,4.2618835E2,4.4145237E1,1.714912E2,1.3639425E3,3.2304424E1,3.2330188E2,8.960965E2,6.421713E1,1.05389305E2,2.5642915E3,9.28033E1,1.1665125E1,1.5881247E2,4.2664455E1,3.8719913E2,7.549083E2,2.572935E2,1.6889485E2,4.2466995E1,1.6782446E0,1.6782184E2,3.6693537E0,8.059049E2,5.5803754E2,1.9937386E1,1.236704E1,3.1540707E2,7.8948174E0,8.946143E2,1.4821374E0,1.9281094E1,4.493604E1,8.558642E1,1.9802881E1,1.09156275E1,2.553376E3,2.691233E1,6.589097E1,9.82002E0,1.8451052E0,1.0914021E2,4.9672256E1,3.787546E1,4.788991E0,2.5348413E1,3.6185074E2,7.513629E2,3.545398E0,2.28232E2,2.9061497E1,1.710599E1,1.5178886E2,1.7621214E0,4.0704872E1,1.5305927E2,1.4762574E1,2.579317E0,1.0900366E0,7.783001E2,2.7604784E1,1.303409E2,4.2769666E2,5.175963E0,1.4761423E1,8.777509E0,3.589531E0,8.243458E1,2.3297249E2,1.6551715E0,6.239646E0,7.9186035E2,1.0275398E2,1.6135113E1,3.1459794E0,8.780005E0,3.6156036E1,8.060519E1,4.981237E0,3.7081199E0,1.6094763E1,5.3767548E0,5.5388722E0,2.5483132E3,5.062707E0,2.36142E1,3.2981286E0,4.7250843E1,1.8640125E1,1.6795031E0,8.140516E0],"tree_param":{"num_deleted":"0","num_feature":"48","num_nodes":"107","size_leaf_vector":"0"}},{"base_weights":[-3.726028E-1,-7.182902E-1,-6.701017E-2,-8.298973E-1,1.0287049E-1,1.0833895E-1,-5.5686086E-1,-3.868629E-1,-9.139955E-1,9.907022E-1,-1.5192623E-1,-1.3917987E-1,4.725186E-1,-7.7803415E-1,2.376613E-1,7.9449165E-1,-4.8409727E-1,-9.3079585E-1,1.0272487E0,-1.1740866E0,1.0564345E0,-6.610254E-1,1.4444935E-1,3.9616635E-1,-4.4819728E-1,5.8975327E-1,-5.5925673E-1,1.8275455E-1,-8.573926E-1,-3.9768606E-1,5.6894875E-1,-1.3349964E-1,1.4725397E0,-9.095463E-1,-2.2089724E-1,-9.425305E-1,1.2342053E-1,1.2214758E0,-1.6100419E-1,1.0966045E0,3.1463748E-1,2.5771928E-1,-8.9114636E-1,9.8358953E-1,-1.16022415E-1,6.278119E-1,-3.5086313E-1,2.9063848E-1,-5.623417E-1,1.6591899E-1,7.666513E-1,-1.0568339E0,6.26519E-1,-2.982006E-1,1.4715583E0,-8.7569153E-1,2.1540203E0,-7.084654E-1,7.008613E-1,9.258859E-1,-5.061213E-2,-7.0137376E-1,6.252207E-1,-9.0004665E-1,1.8155178E0,-9.4546086E-1,1.3801149E0,1.5111105E0,-6.078158E-1,-3.3405047E-2,-9.5552856E-1,-3.9191797E-1,1.0800588E0,1.2080527E-1,1.2982079E0,-6.172129E-1,4.6340823E-1,1.1636144E0,6.157418E-1,-7.409047E-1,8.058773E-1,1.0153767E0,-2.071472E-1,-9.2907107E-1,3.6438146E-1,1.00071095E-1,1.2297274E0,-6.990902E-1,1.5123181E-1,3.4864226E-1,1.037487E0,-3.828336E-3,-9.399223E-1,4.3808395E-1,-7.831622E-1,-6.0917616E-1,7.283137E-1,8.1745017E-1,-3.2964524E-2,8.7380457E-1,1.1545441E-1,1.5392371E0,-1.1261476E0,-4.464715E-1,8.438382E-1,-8.0249774E-1,3.8266024E-1,1.7738849E-1,2.6440005E0,4.4300148E-1,-8.969885E-1,-2.9661715E-1,3.2153304E0,6.4851475E-1,-7.990526E-1,1.2609856E0,-4.6033546E-1,-5.734041E-1,1.0576421E0,6.51797E-1,-5.547421E-1],"categories":[],"categories_nodes":[],"categories_segments":[],"categories_sizes":[],"default_left":[1,1,1,1,1,1,1,1,1,1,1,1,1,1,1,1,1,1,1,0,1,1,1,1,1,1,1,1,1,1,1,1,1,1,1,1,1,1,1,1,1,1,1,1,1,1,1,1,1,1,1,1,1,1,1,1,1,1,1,1,1,0,0,0,0,0,0,0,0,0,0,0,0,0,0,0,0,0,0,0,0,0,0,0,0,0,0,0,0,0,0,0,0,0,0,0,0,0,0,0,0,0,0,0,0,0,0,0,0,0,0,0,0,0,0,0,0,0,0,0,0],"id":5,"left_children":[1,3,5,7,9,11,13,15,17,19,21,23,25,27,29,31,33,35,37,-1,39,41,43,45,47,49,51,53,55,57,59,61,63,65,67,69,71,73,75,77,79,81,83,85,87,89,91,93,95,97,99,101,103,105,107,109,111,113,115,117,119,-1,-1,-1,-1,-1,-1,-1,-1,-1,-1,-1,-1,-1,-1,-1,-1,-1,-1,-1,-1,-1,-1,-1,-1,-1,-1,-1,-1,-1,-1,-1,-1,-1,-1,-1,-1,-1,-1,-1,-1,-1,-1,-1,-1,-1,-1,-1,-1,-1,-1,-1,-1,-1,-1,-1,-1,-1,-1,-1,-1],"loss_changes":[6.150405E2,2.5045984E2,2.6561224E2,8.925891E1,7.4297424E1,2.0536024E2,1.4342317E2,4.4660748E1,6.685889E1,1.1659691E1,3.865353E1,2.2461569E2,1.1182922E2,4.8791077E1,3.7747395E1,1.8879147E1,3.9748413E1,2.490625E1,4.3078403E0,0E0,1.7882462E0,2.0147366E1,3.5596836E1,8.62321E1,7.274452E1,6.19693E1,5.6456474E1,3.1115358E1,3.4363647E1,2.155551E1,2.6048847E1,6.234508E0,1.5662426E1,1.2491043E1,1.4950853E2,2.3388428E1,1.1734691E1,1.1461048E0,1.2506171E0,1.4589081E0,3.2312028E0,7.129775E0,3.9364777E0,8.262398E0,1.9549692E1,4.3070663E1,2.4177467E1,1.868188E1,4.552585E1,3.1795004E1,4.0653595E1,1.378685E1,7.041024E0,1.2967224E1,2.0194077E1,1.6869232E1,1.0963768E1,6.4896812E0,9.754457E0,1.5353394E1,1.5916252E1,0E0,0E0,0E0,0E0,0E0,0E0,0E0,0E0,0E0,0E0,0E0,0E0,0E0,0E0,0E0,0E0,0E0,0E0,0E0,0E0,0E0,0E0,0E0,0E0,0E0,0E0,0E0,0E0,0E0,0E0,0E0,0E0,0E0,0E0,0E0,0E0,0E0,0E0,0E0,0E0,0E0,0E0,0E0,0E0,0E0,0E0,0E0,0E0,0E0,0E0,0E0,0E0,0E0,0E0,0E0,0E0,0E0,0E0,0E0,0E0],"parents":[2147483647,0,0,1,1,2,2,3,3,4,4,5,5,6,6,7,7,8,8,9,9,10,10,11,11,12,12,13,13,14,14,15,15,16,16,17,17,18,18,20,20,21,21,22,22,23,23,24,24,25,25,26,26,27,27,28,28,29,29,30,30,31,31,32,32,33,33,34,34,35,35,36,36,37,37,38,38,39,39,40,40,41,41,42,42,43,43,44,44,45,45,46,46,47,47,48,48,49,49,50,50,51,51,52,52,53,53,54,54,55,55,56,56,57,57,58,58,59,59,60,60],"right_children":[2,4,6,8,10,12,14,16,18,20,22,24,26,28,30,32,34,36,38,-1,40,42,44,46,48,50,52,54,56,58,60,62,64,66,68,70,72,74,76,78,80,82,84,86,88,90,92,94,96,98,100,102,104,106,108,110,112,114,116,118,120,-1,-1,-1,-1,-1,-1,-1,-1,-1,-1,-1,-1,-1,-1,-1,-1,-1,-1,-1,-1,-1,-1,-1,-1,-1,-1,-1,-1,-1,-1,-1,-1,-1,-1,-1,-1,-1,-1,-1,-1,-1,-1,-1,-1,-1,-1,-1,-1,-1,-1,-1,-1,-1,-1,-1,-1,-1,-1,-1,-1],"split_conditions":[2.4002E-1,6.4144516E0,5.42144E1,5.246162E2,9.9992645E-1,9.230668E2,4.7308226E0,3.2594995E3,1.900905E1,1.3847548E1,0E0,8.703411E2,9.2140234E-1,9.675062E2,0E0,-1.758586E-1,9.067059E0,-9.005E-2,3.1336338E1,-5.870433E-1,9.992535E-1,2.2383362E1,4.33329E3,8.1809765E-1,1.5962112E2,4.8717074E0,1.5422226E1,6.0657406E-1,-8.71E-2,1.4573841E1,9.999939E-1,1.0637954E-1,3.944303E4,1.0108709E1,9.85383E0,7.8357996E2,8.535332E0,3.3542593E0,1.9152124E1,1.9189576E3,4.3705404E-6,9.715458E0,1.835299E1,-3.379054E-1,9.2240505E0,1.600703E0,9.773407E0,9.0045995E-1,1.8316013E1,7.8872385E0,6.072362E-1,3.8524088E-2,2.0058393E-1,9.426067E0,8.090753E0,6.727803E-2,2.9690938E0,8.2197876E2,1.4294643E0,5.337069E1,7.6381426E3,-3.5068688E-1,3.1261036E-1,-4.5002332E-1,9.077589E-1,-4.7273043E-1,6.9005746E-1,7.555553E-1,-3.039079E-1,-1.6702523E-2,-4.7776428E-1,-1.9595899E-1,5.400294E-1,6.0402635E-2,6.4910394E-1,-3.0860645E-1,2.3170412E-1,5.818072E-1,3.078709E-1,-3.7045234E-1,4.0293866E-1,5.0768834E-1,-1.035736E-1,-4.6453553E-1,1.8219073E-1,5.0035547E-2,6.148637E-1,-3.495451E-1,7.5615905E-2,1.7432113E-1,5.187435E-1,-1.914168E-3,-4.6996114E-1,2.1904197E-1,-3.915811E-1,-3.0458808E-1,3.6415684E-1,4.0872508E-1,-1.6482262E-2,4.3690228E-1,5.7727206E-2,7.696186E-1,-5.630738E-1,-2.2323576E-1,4.219191E-1,-4.0124887E-1,1.9133012E-1,8.8694245E-2,1.3220003E0,2.2150074E-1,-4.4849426E-1,-1.4830858E-1,1.6076652E0,3.2425737E-1,-3.995263E-1,6.304928E-1,-2.3016773E-1,-2.8670204E-1,5.2882105E-1,3.258985E-1,-2.7737105E-1],"split_indices":[10,0,3,9,5,2,0,17,6,15,12,2,10,9,12,39,6,8,3,0,33,3,17,10,1,4,6,10,8,4,5,32,30,18,6,2,4,4,6,1,40,6,6,39,6,7,6,10,6,3,14,11,7,6,6,11,31,2,18,15,9,0,0,0,0,0,0,0,0,0,0,0,0,0,0,0,0,0,0,0,0,0,0,0,0,0,0,0,0,0,0,0,0,0,0,0,0,0,0,0,0,0,0,0,0,0,0,0,0,0,0,0,0,0,0,0,0,0,0,0,0],"split_type":[0,0,0,0,0,0,0,0,0,0,0,0,0,0,0,0,0,0,0,0,0,0,0,0,0,0,0,0,0,0,0,0,0,0,0,0,0,0,0,0,0,0,0,0,0,0,0,0,0,0,0,0,0,0,0,0,0,0,0,0,0,0,0,0,0,0,0,0,0,0,0,0,0,0,0,0,0,0,0,0,0,0,0,0,0,0,0,0,0,0,0,0,0,0,0,0,0,0,0,0,0,0,0,0,0,0,0,0,0,0,0,0,0,0,0,0,0,0,0,0,0],"sum_hessian":[5.8215244E3,2.7309329E3,3.0905913E3,2.4041633E3,3.267695E2,2.2764736E3,8.1411774E2,3.8445142E2,2.019712E3,7.2222855E1,2.5454665E2,1.3556848E3,9.2078876E2,6.3685535E2,1.772624E2,2.8691498E1,3.5575992E2,2.0028986E3,1.6813427E1,1.6314666E0,7.059139E1,9.3208084E1,1.6133856E2,4.9604587E2,8.5963904E2,8.272244E2,9.356431E1,4.8489716E1,5.883656E2,6.068311E1,1.1657929E2,1.2452225E1,1.6239273E1,1.3503201E2,2.207279E2,1.9809542E3,2.1944355E1,1.4427246E1,2.386181E0,6.651135E1,4.08004E0,1.8645813E1,7.456227E1,3.7559635E1,1.2377892E2,3.7875708E2,1.1728877E2,1.14828545E2,7.448105E2,2.44164E2,5.830604E2,6.598452E1,2.7579784E1,3.5871742E1,1.2617976E1,5.855169E2,2.848705E0,4.757829E1,1.3104822E1,7.365262E1,4.292667E1,7.1650405E0,5.2871842E0,1.845895E0,1.4393379E1,1.3352469E2,1.5073295E0,3.977464E1,1.8095326E2,2.7973408E1,1.9529808E3,1.4645292E1,7.2990627E0,1.1080064E0,1.331924E1,1.385463E0,1.0007181E0,5.7130203E1,9.381147E0,1.1343638E0,2.9456763E0,6.6397915E0,1.2006022E1,7.2628456E1,1.9338138E0,8.490241E0,2.9069393E1,3.839558E1,8.538335E1,2.2635823E2,1.5239886E2,7.444009E1,4.2848686E1,1.0148542E2,1.334312E1,7.192392E2,2.5571299E1,5.6374413E1,1.8778958E2,5.003817E2,8.2678734E1,1.1644547E0,6.482007E1,4.467503E0,2.3112282E1,2.0505306E1,1.5366434E1,6.54488E0,6.0730968E0,8.991131E0,5.7652576E2,1.0786189E0,1.7700863E0,2.5919719E0,4.4986317E1,8.782492E0,4.3223305E0,5.678894E0,6.7973724E1,1.7813723E1,2.5112946E1],"tree_param":{"num_deleted":"0","num_feature":"48","num_nodes":"121","size_leaf_vector":"0"}},{"base_weights":[-2.838535E-1,-7.353025E-2,-6.80352E-1,-2.415695E-1,2.8718388E-1,-7.8629047E-1,-1.0630531E-1,2.3898882E-1,-3.8086683E-1,4.3026853E-1,-4.1825777E-1,-8.458401E-1,-2.1335521E-1,-2.7313957E-1,9.9506235E-1,-1.0113304E-1,5.066155E-1,-5.2806234E-1,6.2147126E-2,5.2788496E-1,-2.1417175E-1,-5.350873E-1,6.7348826E-1,6.382916E-1,-8.6005247E-1,1.6104472E0,-3.15603E-1,-4.1162091E-1,8.6836404E-1,-4.1313687E-1,2.457704E-1,6.883004E-1,-8.535012E-2,-3.0311698E-1,-7.896717E-1,4.3513855E-1,-2.5887817E-1,6.2729627E-1,-3.9881494E-2,9.369207E-1,-3.5227746E-1,-6.253767E-1,9.9550617E-1,-5.293442E-1,9.528272E-1,-2.1667773E-1,1.9330621E0,-6.8721026E-1,-9.655038E-1,1.8206089E0,2.8988555E-1,-4.1940752E-1,1.6536335E0,-6.172296E-1,1.5017514E-1,1.9000273E0,3.7931883E-1,-5.996095E-1,6.863283E-2,9.303917E-2,1.2777114E0,7.871892E-1,-6.510756E-1,8.195702E-1,-3.5229647E-1,-3.660228E-1,1.0662065E0,-5.8769363E-1,-9.5574236E-1,-1.7491792E-1,2.0878475E0,-3.4786624E-1,9.2806196E-1,-4.7663885E-1,6.852939E-1,-2.3657204E-1,7.52887E-1,1.1666586E0,-7.013879E-1,5.6946135E-1,-5.416522E-1,2.1570984E-1,-7.428234E-1,-2.1514289E-1,1.1825554E0,-1.3979883E0,4.818472E-1,-4.226552E-1,1.0974334E0,1.1834458E0,-7.525538E-1,2.476993E0,1.2966487E-1,-7.3263067E-1,6.9420254E-1,-9.8835003E-1,-5.567404E-1,-5.749498E-1,1.0259247E0,-1.0073334E-3,1.983334E0,2.1201918E-1,-8.002311E-1,7.441546E-1,-3.31256E-1,2.8757522E-1,2.2650464E0,1.1698316E0,-1.9883549E-1],"categories":[],"categories_nodes":[],"categories_segments":[],"categories_sizes":[],"default_left":[1,1,1,1,1,1,1,1,1,1,1,1,1,1,0,1,1,1,1,1,1,1,1,1,1,1,1,1,1,1,1,1,1,1,1,1,1,1,1,1,1,1,1,1,1,1,1,1,1,0,0,1,1,1,1,1,1,0,0,0,0,0,0,0,0,0,0,0,0,0,0,0,0,0,0,0,0,0,0,0,0,0,0,0,0,0,0,0,0,0,0,0,0,0,0,0,0,0,0,0,0,0,0,0,0,0,0,0,0],"id":6,"left_children":[1,3,5,7,9,11,13,15,17,19,21,23,25,27,-1,29,31,33,35,37,39,41,43,45,47,49,51,53,55,57,59,61,63,65,67,69,71,73,75,77,79,81,83,85,87,89,91,93,95,-1,-1,97,99,101,103,105,107,-1,-1,-1,-1,-1,-1,-1,-1,-1,-1,-1,-1,-1,-1,-1,-1,-1,-1,-1,-1,-1,-1,-1,-1,-1,-1,-1,-1,-1,-1,-1,-1,-1,-1,-1,-1,-1,-1,-1,-1,-1,-1,-1,-1,-1,-1,-1,-1,-1,-1,-1,-1],"loss_changes":[3.8983624E2,1.853043E2,9.845447E1,1.3968317E2,9.825646E1,4.6483948E1,4.686896E1,4.276397E1,1.05481995E2,5.0961426E1,2.1323439E1,2.6675293E1,2.4771486E1,3.5295517E1,0E0,2.2556686E1,2.832019E1,7.119556E1,4.8509846E1,3.966208E1,1.7346746E1,2.1217098E1,5.991348E0,1.4060058E1,2.1705688E1,1.434679E0,2.604943E1,2.293895E1,1.1505878E1,9.88731E0,1.5463322E1,2.7157707E1,1.5410548E1,5.6751064E1,1.8241882E1,1.8924408E2,2.3333195E1,3.8593338E1,1.6640947E1,5.237053E0,1.711829E1,1.4121864E1,2.2216034E0,3.9416468E0,3.1708717E0,7.133889E0,4.585081E0,2.9905472E1,6.545105E0,0E0,0E0,2.7258501E1,3.50078E0,2.217234E1,1.563017E1,3.7887707E0,8.317506E0,0E0,0E0,0E0,0E0,0E0,0E0,0E0,0E0,0E0,0E0,0E0,0E0,0E0,0E0,0E0,0E0,0E0,0E0,0E0,0E0,0E0,0E0,0E0,0E0,0E0,0E0,0E0,0E0,0E0,0E0,0E0,0E0,0E0,0E0,0E0,0E0,0E0,0E0,0E0,0E0,0E0,0E0,0E0,0E0,0E0,0E0,0E0,0E0,0E0,0E0,0E0,0E0],"parents":[2147483647,0,0,1,1,2,2,3,3,4,4,5,5,6,6,7,7,8,8,9,9,10,10,11,11,12,12,13,13,15,15,16,16,17,17,18,18,19,19,20,20,21,21,22,22,23,23,24,24,25,25,26,26,27,27,28,28,29,29,30,30,31,31,32,32,33,33,34,34,35,35,36,36,37,37,38,38,39,39,40,40,41,41,42,42,43,43,44,44,45,45,46,46,47,47,48,48,51,51,52,52,53,53,54,54,55,55,56,56],"right_children":[2,4,6,8,10,12,14,16,18,20,22,24,26,28,-1,30,32,34,36,38,40,42,44,46,48,50,52,54,56,58,60,62,64,66,68,70,72,74,76,78,80,82,84,86,88,90,92,94,96,-1,-1,98,100,102,104,106,108,-1,-1,-1,-1,-1,-1,-1,-1,-1,-1,-1,-1,-1,-1,-1,-1,-1,-1,-1,-1,-1,-1,-1,-1,-1,-1,-1,-1,-1,-1,-1,-1,-1,-1,-1,-1,-1,-1,-1,-1,-1,-1,-1,-1,-1,-1,-1,-1,-1,-1,-1,-1],"split_conditions":[8.511708E2,1.0168924E1,5.376912E0,9.079326E0,3.5956635E0,1.0030195E3,1.5994137E1,4.6174145E0,4.1789584E0,7.0710164E-1,6.9104705E0,6.6071157E0,2.54763E-2,5.3307095E0,4.9753118E-1,1.9580823E0,8.40101E-1,2.604183E3,9.831924E0,8.7528723E-1,4.7641506E1,-1.05900005E-1,7.561451E-1,9.178961E0,1.5497136E3,2.005475E4,1.9400776E1,9.398434E2,8.335838E0,4.0707337E-3,1.7019264E1,8.1161284E-1,3.6191928E0,-1.09850004E-1,4.8877174E1,9.269884E0,3.957049E0,1.4559268E0,1.02170264E3,1.21909894E-1,3.0487637E3,8.450977E2,6.210052E4,9.315196E0,-8.2352024E-1,9.9998784E-1,1.4814922E3,6.806372E0,1.549613E1,9.103044E-1,1.4494278E-1,-1.24400005E-1,2.0467596E-5,8.528823E2,9.8807466E-1,6.8934975E0,1.3282175E2,-2.9980475E-1,3.4316417E-2,4.6519585E-2,6.388557E-1,3.935946E-1,-3.255378E-1,4.097851E-1,-1.7614824E-1,-1.830114E-1,5.331032E-1,-2.9384682E-1,-4.7787118E-1,-8.745896E-2,1.0439237E0,-1.7393312E-1,4.6403098E-1,-2.3831943E-1,3.4264696E-1,-1.1828602E-1,3.764435E-1,5.833293E-1,-3.5069394E-1,2.8473067E-1,-2.708261E-1,1.0785492E-1,-3.714117E-1,-1.07571445E-1,5.912777E-1,-6.9899416E-1,2.409236E-1,-2.113276E-1,5.487167E-1,5.917229E-1,-3.762769E-1,1.2384965E0,6.4832434E-2,-3.6631534E-1,3.4710127E-1,-4.9417502E-1,-2.783702E-1,-2.874749E-1,5.1296234E-1,-5.036667E-4,9.91667E-1,1.0600959E-1,-4.0011555E-1,3.720773E-1,-1.65628E-1,1.4378761E-1,1.1325232E0,5.849158E-1,-9.9417746E-2],"split_indices":[1,4,0,3,18,2,0,4,0,14,7,3,11,18,0,0,10,9,6,10,19,8,0,4,9,28,4,2,4,41,6,14,6,8,3,6,7,6,2,16,17,2,30,6,39,5,1,18,4,0,0,8,37,2,33,18,19,0,0,0,0,0,0,0,0,0,0,0,0,0,0,0,0,0,0,0,0,0,0,0,0,0,0,0,0,0,0,0,0,0,0,0,0,0,0,0,0,0,0,0,0,0,0,0,0,0,0,0,0],"split_type":[0,0,0,0,0,0,0,0,0,0,0,0,0,0,0,0,0,0,0,0,0,0,0,0,0,0,0,0,0,0,0,0,0,0,0,0,0,0,0,0,0,0,0,0,0,0,0,0,0,0,0,0,0,0,0,0,0,0,0,0,0,0,0,0,0,0,0,0,0,0,0,0,0,0,0,0,0,0,0,0,0,0,0,0,0,0,0,0,0,0,0,0,0,0,0,0,0,0,0,0,0,0,0,0,0,0,0,0,0],"sum_hessian":[4.6742974E3,3.0549695E3,1.6193279E3,2.0843171E3,9.7065216E2,1.366732E3,2.5259578E2,4.6823825E2,1.616079E3,8.0729803E2,1.6335408E2,1.2376201E3,1.2911188E2,2.2001942E2,3.257636E1,2.0646623E2,2.6177203E2,1.2128922E3,4.0318677E2,7.012563E2,1.0604177E2,1.480237E2,1.5330381E1,1.1322803E1,1.2262974E3,6.071079E0,1.23040794E2,1.9678578E2,2.3233637E1,1.08600426E2,9.78658E1,2.001727E2,6.159932E1,6.5330505E2,5.5958716E2,1.8633418E2,2.1685258E2,5.966779E2,1.0457835E2,1.0740132E1,9.5301636E1,1.4033669E2,7.687018E0,2.7205808E0,1.26098E1,7.3211293E0,4.001673E0,4.6751837E2,7.58779E2,4.910872E0,1.1602067E0,1.1762732E2,5.41348E0,1.4398927E2,5.279652E1,6.543869E0,1.6689768E1,7.81192E1,3.0481222E1,8.619828E1,1.1667518E1,1.8679362E2,1.3379074E1,1.3560494E1,4.8038826E1,6.2531134E2,2.7993702E1,2.5454445E2,3.050427E2,1.3675035E2,4.9583836E1,2.0238608E2,1.4466502E1,2.942275E1,5.672552E2,8.435176E1,2.0226583E1,9.6717615E0,1.068371E0,1.5900837E1,7.9400795E1,1.7092588E1,1.23244095E2,1.0086281E0,6.6783895E0,1.2576798E0,1.4629011E0,1.0166556E0,1.1593144E1,1.6919676E0,5.629162E0,2.7874286E0,1.2142445E0,4.5309055E2,1.4427825E1,7.17272E2,4.1507034E1,1.0674224E2,1.0885076E1,1.0650988E0,4.348381E0,2.6002691E1,1.1798657E2,2.339122E1,2.9405302E1,1.5379399E0,5.005929E0,6.6178136E0,1.0071954E1],"tree_param":{"num_deleted":"0","num_feature":"48","num_nodes":"109","size_leaf_vector":"0"}},{"base_weights":[-2.0376098E-1,-5.567508E-1,-2.2585858E-2,-7.179418E-1,-8.26236E-2,-3.073823E-1,1.5272895E-1,-5.021358E-1,-9.4272476E-1,3.7562457E-1,-4.1837105E-1,-7.2359663E-1,-5.8038946E-2,1.6469955E0,-6.1022382E-2,-5.86171E-1,2.9140842E-1,-9.5092607E-1,7.840338E-1,9.811E-1,-4.622964E-3,-5.1927686E-1,9.4888747E-1,-7.968548E-1,9.8514616E-1,3.0880364E-2,-9.0386117E-1,1.8509009E0,2.4822876E-1,-1.5319479E-1,9.7888833E-1,4.8401558E-1,-6.5343326E-1,7.4773574E-1,-3.8802418E-1,6.826549E-1,-9.572607E-1,-8.161941E-1,1.1012926E0,2.6658228E-1,-6.4095634E-1,9.424391E-2,-6.7873716E-1,-1.1905125E-1,-8.5611373E-1,3.8822487E-1,-1.7020753E-1,-1.1314967E0,-1.656708E-1,1.1605604E0,2.3202634E0,2.8755486E0,7.749412E-3,9.387083E-2,-4.4022286E-1,6.28621E-1,1.4662583E0,-3.5595414E-1,1.0410966E0,-6.715996E-1,2.424274E0,-3.0304533E-1,1.2417595E0,-2.4113065E-2,-1.0008026E0,-9.633101E-1,4.480641E-1,1.21834E-1,-1.1779933E0,-2.4324551E-1,1.2560499E0,-5.365125E-1,6.7412823E-1,-2.2792572E-2,-9.434649E-1,4.9080223E-1,-6.003202E-1,-1.3527508E-3,-8.0190736E-1,-1.2020209E0,2.6302195E-1,5.392997E-1,-8.8401884E-1,-3.6643547E-1,5.057264E-1,-2.8083602E-1,5.5916166E-1,-1.2378219E0,-3.2362044E-1,4.9062347E-1,-9.472718E-1,1.5060811E0,-2.5268242E-1,-1.1671394E-1,2.4417078E0,-4.4631544E-1,6.9720745E-1,2.3652764E-1,-5.4159325E-1,-7.497183E-1,-1.9333528E-1,1.7578752E-1,1.3465862E0,1.5575724E0,1.2393967E-1],"categories":[],"categories_nodes":[],"categories_segments":[],"categories_sizes":[],"default_left":[1,1,1,1,1,1,1,1,1,1,1,1,1,1,1,1,1,1,0,1,1,1,0,1,0,1,1,1,1,1,1,1,1,1,1,0,1,1,1,1,1,1,1,1,1,1,1,1,1,1,1,0,1,1,1,1,1,0,0,0,0,0,0,0,0,0,0,0,0,0,0,0,0,0,0,0,0,0,0,0,0,0,0,0,0,0,0,0,0,0,0,0,0,0,0,0,0,0,0,0,0,0,0,0,0],"id":7,"left_children":[1,3,5,7,9,11,13,15,17,19,21,23,25,27,29,31,33,35,-1,37,39,41,-1,43,-1,45,47,49,51,53,55,57,59,61,63,-1,65,67,69,71,73,75,77,79,81,83,85,87,89,91,93,-1,95,97,99,101,103,-1,-1,-1,-1,-1,-1,-1,-1,-1,-1,-1,-1,-1,-1,-1,-1,-1,-1,-1,-1,-1,-1,-1,-1,-1,-1,-1,-1,-1,-1,-1,-1,-1,-1,-1,-1,-1,-1,-1,-1,-1,-1,-1,-1,-1,-1,-1,-1],"loss_changes":[2.5091884E2,1.0164505E2,1.2955858E2,4.7696655E1,5.227877E1,1.0256383E2,5.1313306E2,3.409761E1,7.617462E0,3.3106705E1,2.7532532E1,4.7140366E1,4.661084E1,5.6882996E1,1.3493402E2,3.3455307E1,1.5601791E1,5.6558228E0,0E0,1.2881126E1,1.5583793E1,1.7983627E1,0E0,1.4182709E1,0E0,4.0408394E1,9.718761E0,5.411267E1,1.6868692E1,9.170276E1,1.8645782E1,1.3378261E1,2.5869537E1,1.588991E1,4.5474215E0,0E0,4.5289E0,1.5184069E0,1.1212254E1,2.1088655E1,5.0242996E0,1.0944098E1,1.2138756E1,1.262783E1,1.320546E1,1.8138956E1,2.9201157E1,3.4550362E0,8.192994E0,3.6004974E1,3.0875E1,0E0,8.2925825E0,6.3173798E1,4.555609E1,2.2015522E1,5.590065E0,0E0,0E0,0E0,0E0,0E0,0E0,0E0,0E0,0E0,0E0,0E0,0E0,0E0,0E0,0E0,0E0,0E0,0E0,0E0,0E0,0E0,0E0,0E0,0E0,0E0,0E0,0E0,0E0,0E0,0E0,0E0,0E0,0E0,0E0,0E0,0E0,0E0,0E0,0E0,0E0,0E0,0E0,0E0,0E0,0E0,0E0,0E0,0E0],"parents":[2147483647,0,0,1,1,2,2,3,3,4,4,5,5,6,6,7,7,8,8,9,9,10,10,11,11,12,12,13,13,14,14,15,15,16,16,17,17,19,19,20,20,21,21,23,23,25,25,26,26,27,27,28,28,29,29,30,30,31,31,32,32,33,33,34,34,36,36,37,37,38,38,39,39,40,40,41,41,42,42,43,43,44,44,45,45,46,46,47,47,48,48,49,49,50,50,52,52,53,53,54,54,55,55,56,56],"right_children":[2,4,6,8,10,12,14,16,18,20,22,24,26,28,30,32,34,36,-1,38,40,42,-1,44,-1,46,48,50,52,54,56,58,60,62,64,-1,66,68,70,72,74,76,78,80,82,84,86,88,90,92,94,-1,96,98,100,102,104,-1,-1,-1,-1,-1,-1,-1,-1,-1,-1,-1,-1,-1,-1,-1,-1,-1,-1,-1,-1,-1,-1,-1,-1,-1,-1,-1,-1,-1,-1,-1,-1,-1,-1,-1,-1,-1,-1,-1,-1,-1,-1,-1,-1,-1,-1,-1,-1],"split_conditions":[1.2289889E-1,4.2179046E0,9.338966E0,1.9281914E3,1.2300166E3,6.5752494E-1,9.763332E0,1.0115781E3,1.934222E1,5.615124E3,1.5996937E1,1.5981271E1,9.356646E-1,5.859407E3,1.8282597E1,8.0894104E2,3.9668658E-1,4.0141126E-4,3.920169E-1,8.593222E-1,5.257139E-1,2.0642639E2,4.7444373E-1,8.3527484E2,4.9257308E-1,1.0540607E1,9.894781E-3,1.6090052E1,2.2862577E-1,2.5310898E-1,9.161919E2,-3.3253944E-1,1.3715457E3,9.264115E0,1.3829154E3,3.4132746E-1,-7.11E-2,9.9994457E-1,8.210255E-1,8.571766E0,7.489235E3,8.574949E2,2.2476915E1,1.56955E0,3.6511976E-1,2.863094E0,1.780906E1,3.9655542E0,2.8307343E2,7.646475E-1,9.409115E0,1.4377743E0,1.9341519E3,8.511411E-1,5.257231E-1,1.9190329E1,7.8132266E-1,-1.7797707E-1,5.205483E-1,-3.357998E-1,1.212137E0,-1.5152267E-1,6.2087977E-1,-1.2056532E-2,-5.004013E-1,-4.8165506E-1,2.2403204E-1,6.0917E-2,-5.8899665E-1,-1.21622756E-1,6.2802494E-1,-2.6825625E-1,3.3706412E-1,-1.1396286E-2,-4.7173244E-1,2.4540111E-1,-3.001601E-1,-6.763754E-4,-4.0095368E-1,-6.0101044E-1,1.3151097E-1,2.6964986E-1,-4.4200942E-1,-1.8321773E-1,2.528632E-1,-1.4041801E-1,2.7958083E-1,-6.1891097E-1,-1.6181022E-1,2.4531174E-1,-4.736359E-1,7.5304055E-1,-1.2634121E-1,-5.835697E-2,1.2208539E0,-2.2315772E-1,3.4860373E-1,1.1826382E-1,-2.7079663E-1,-3.7485915E-1,-9.666764E-2,8.789376E-2,6.732931E-1,7.787862E-1,6.1969835E-2],"split_indices":[10,0,6,9,9,10,6,2,6,17,0,0,10,9,6,2,14,11,0,6,14,19,0,2,0,3,41,3,11,14,2,10,13,6,1,0,8,5,11,6,17,47,3,6,34,4,4,22,19,10,6,0,15,10,10,6,14,0,0,0,0,0,0,0,0,0,0,0,0,0,0,0,0,0,0,0,0,0,0,0,0,0,0,0,0,0,0,0,0,0,0,0,0,0,0,0,0,0,0,0,0,0,0,0,0],"split_type":[0,0,0,0,0,0,0,0,0,0,0,0,0,0,0,0,0,0,0,0,0,0,0,0,0,0,0,0,0,0,0,0,0,0,0,0,0,0,0,0,0,0,0,0,0,0,0,0,0,0,0,0,0,0,0,0,0,0,0,0,0,0,0,0,0,0,0,0,0,0,0,0,0,0,0,0,0,0,0,0,0,0,0,0,0,0,0,0,0,0,0,0,0,0,0,0,0,0,0,0,0,0,0,0,0],"sum_hessian":[3.9226868E3,1.3297723E3,2.5929146E3,9.920027E2,3.377696E2,9.876835E2,1.6052311E3,5.0775723E2,4.8424548E2,1.4277838E2,1.9499123E2,3.693114E2,6.183721E2,2.0004886E2,1.4051823E3,4.5937177E2,4.838547E1,4.824036E2,1.8418903E0,5.4467915E1,8.831046E1,1.821672E2,1.2824018E1,3.5464072E2,1.46706915E1,5.604199E2,5.7952145E1,1.7431485E2,2.5734003E1,1.2915577E3,1.13624435E2,2.6798265E1,4.325735E2,2.8884945E1,1.9500525E1,1.4510125E0,4.8095258E2,3.0512006E0,5.1416714E1,6.2327538E1,2.5982925E1,3.7664124E1,1.4450308E2,2.8754606E1,3.258861E2,2.0146848E2,3.5895145E2,4.388618E1,1.4065962E1,7.1955284E1,1.02359566E2,1.2390779E0,2.4494925E1,6.944596E2,5.9709814E2,6.744342E1,4.6181015E1,1.0829908E1,1.5968357E1,4.3081238E2,1.7611083E0,9.360942E0,1.9524002E1,1.2886789E1,6.613735E0,4.7920428E2,1.7482734E0,1.0338968E0,2.017304E0,5.2482166E0,4.6168495E1,2.0875202E1,4.1452335E1,8.890632E0,1.7092295E1,2.4162193E1,1.3501931E1,2.2388222E1,1.2211486E2,6.9393306E0,2.1815275E1,6.029923E0,3.1985617E2,2.6857307E1,1.7461116E2,3.1221118E2,4.6740276E1,3.8311745E1,5.5744367E0,7.8482404E0,6.217722E0,5.7766403E1,1.418888E1,4.8607087E0,9.749886E1,1.4981218E1,9.513707E0,5.6765356E2,1.2680607E2,2.640506E2,3.3304755E2,4.2121487E1,2.532193E1,4.3089405E1,3.0916097E0],"tree_param":{"num_deleted":"0","num_feature":"48","num_nodes":"105","size_leaf_vector":"0"}},{"base_weights":[-1.4539863E-1,-2.908309E-1,1.6662903E-1,2.1747245E-1,-4.5322272E-1,-5.4854244E-2,3.829539E-1,5.2043957E-1,-7.2972804E-2,-1.7336532E-1,-6.630458E-1,-5.017298E-1,1.15020484E-1,7.078921E-2,5.380665E-1,1.305487E-1,7.472926E-1,-2.7526727E-1,2.8731272E-1,4.052171E-1,-2.5573546E-1,-7.291749E-1,-8.836444E-2,-6.6349477E-1,3.1642446E-1,3.3983296E-1,-3.1742203E-1,-2.6643223E-1,3.8431004E-1,1.4231938E0,3.2512185E-1,3.9342664E-2,2.2291331E0,1.1450609E0,4.5568195E-1,-3.897125E-1,5.7493603E-1,-5.3588215E-2,5.8461136E-1,1.3844635E-1,9.2276275E-1,2.2481641E-1,-3.514186E-1,-8.328319E-1,-4.5703498E-1,1.2475808E0,-3.1912208E-1,1.4427963E-1,-7.538113E-1,9.3963754E-1,-3.9068422E-1,6.414037E-1,8.240066E-2,-4.4914246E-1,4.5304623E-1,1.0574406E0,-4.0734592E-1,5.183773E-1,-1.2168039E0,1.755512E-1,1.5400503E0,4.5936796E-1,-2.3452342E-1,-6.4512193E-1,3.006593E-1,2.8674984E0,7.132755E-1,7.233494E-1,1.404335E0,1.18240625E-1,9.2332363E-1,-1.3684437E-1,-7.0634633E-1,7.5076795E-1,-9.7821885E-1,-3.47692E-1,5.024828E-1,-3.241187E-1,7.4891233E-1,-1.414431E-1,6.950139E-1,1.1756915E0,-5.985337E-1,-2.2234182E-1,5.101201E-1,-4.53956E-1,1.5416035E-1,1.0690958E-1,-8.548397E-1,-3.1033054E-1,-8.528891E-1,1.7470818E0,-4.5053318E-1,-4.8536408E-1,4.6435577E-1,9.755481E-1,-5.387763E-1,-7.866843E-1,6.218094E-1,-2.971164E-1,1.4050069E0,-1.5804011E0,-2.1259943E-2,2.871595E-1,9.227643E-1,-1.0390442E-1,6.0012275E-1,-5.2269393E-1,5.035741E-1,1.0017807E-1,1.4183897E0,-2.7449062E-1,1.2665954E0,-5.373248E-1,7.8753614E-1,6.559103E-1,-4.9504715E-1,-1.3174884E-1,-1.4999812E0,8.7687707E-1,-4.366977E-1,1.5994993E0,-3.9303765E-1,1.4126762E0,3.6688614E-1,3.7062392E-1,-5.104919E-1],"categories":[],"categories_nodes":[],"categories_segments":[],"categories_sizes":[],"default_left":[1,1,1,1,1,1,1,1,1,1,1,1,1,1,1,1,1,1,1,1,1,1,1,1,1,1,1,1,1,1,1,1,1,1,1,1,1,1,1,1,1,1,1,1,1,1,1,1,1,1,1,1,1,1,1,1,1,1,1,1,1,1,1,0,0,0,0,0,0,0,0,0,0,0,0,0,0,0,0,0,0,0,0,0,0,0,0,0,0,0,0,0,0,0,0,0,0,0,0,0,0,0,0,0,0,0,0,0,0,0,0,0,0,0,0,0,0,0,0,0,0,0,0,0,0,0,0],"id":8,"left_children":[1,3,5,7,9,11,13,15,17,19,21,23,25,27,29,31,33,35,37,39,41,43,45,47,49,51,53,55,57,59,61,63,65,67,69,71,73,75,77,79,81,83,85,87,89,91,93,95,97,99,101,103,105,107,109,111,113,115,117,119,121,123,125,-1,-1,-1,-1,-1,-1,-1,-1,-1,-1,-1,-1,-1,-1,-1,-1,-1,-1,-1,-1,-1,-1,-1,-1,-1,-1,-1,-1,-1,-1,-1,-1,-1,-1,-1,-1,-1,-1,-1,-1,-1,-1,-1,-1,-1,-1,-1,-1,-1,-1,-1,-1,-1,-1,-1,-1,-1,-1,-1,-1,-1,-1,-1,-1],"loss_changes":[1.5483228E2,1.9217183E2,5.200641E1,4.967424E1,1.0345822E2,4.082201E1,2.654596E1,2.4332687E1,2.1132841E1,3.6187252E1,3.823117E1,1.9809715E1,3.801298E1,1.9492468E1,6.863957E1,1.959021E1,1.9707726E1,1.827414E1,1.0608279E1,1.295318E1,3.0582336E1,2.5108246E1,3.280693E1,9.152878E0,1.14387665E1,1.9900345E1,1.3790493E1,1.702462E1,2.1119541E1,1.005217E1,2.2407986E1,1.7998672E1,2.0808945E0,6.9781494E0,1.6032383E1,1.3041784E1,6.855094E0,8.275244E0,8.578396E0,1.0020562E1,1.30354595E1,1.42444515E1,2.8770508E1,1.3598907E1,1.4337872E1,1.4093706E1,1.2004929E1,8.080886E0,5.5385857E0,8.272483E0,5.449798E0,1.1517422E1,1.3546883E1,8.310175E0,6.685833E0,2.8089762E0,1.3021129E1,1.2698156E1,2.1601667E0,3.4711366E0,8.053619E0,2.061752E1,9.889925E0,0E0,0E0,0E0,0E0,0E0,0E0,0E0,0E0,0E0,0E0,0E0,0E0,0E0,0E0,0E0,0E0,0E0,0E0,0E0,0E0,0E0,0E0,0E0,0E0,0E0,0E0,0E0,0E0,0E0,0E0,0E0,0E0,0E0,0E0,0E0,0E0,0E0,0E0,0E0,0E0,0E0,0E0,0E0,0E0,0E0,0E0,0E0,0E0,0E0,0E0,0E0,0E0,0E0,0E0,0E0,0E0,0E0,0E0,0E0,0E0,0E0,0E0,0E0,0E0],"parents":[2147483647,0,0,1,1,2,2,3,3,4,4,5,5,6,6,7,7,8,8,9,9,10,10,11,11,12,12,13,13,14,14,15,15,16,16,17,17,18,18,19,19,20,20,21,21,22,22,23,23,24,24,25,25,26,26,27,27,28,28,29,29,30,30,31,31,32,32,33,33,34,34,35,35,36,36,37,37,38,38,39,39,40,40,41,41,42,42,43,43,44,44,45,45,46,46,47,47,48,48,49,49,50,50,51,51,52,52,53,53,54,54,55,55,56,56,57,57,58,58,59,59,60,60,61,61,62,62],"right_children":[2,4,6,8,10,12,14,16,18,20,22,24,26,28,30,32,34,36,38,40,42,44,46,48,50,52,54,56,58,60,62,64,66,68,70,72,74,76,78,80,82,84,86,88,90,92,94,96,98,100,102,104,106,108,110,112,114,116,118,120,122,124,126,-1,-1,-1,-1,-1,-1,-1,-1,-1,-1,-1,-1,-1,-1,-1,-1,-1,-1,-1,-1,-1,-1,-1,-1,-1,-1,-1,-1,-1,-1,-1,-1,-1,-1,-1,-1,-1,-1,-1,-1,-1,-1,-1,-1,-1,-1,-1,-1,-1,-1,-1,-1,-1,-1,-1,-1,-1,-1,-1,-1,-1,-1,-1,-1],"split_conditions":[9.362567E2,8.5722644E2,2.0612998E0,1.5515543E3,4.1046124E2,7.096005E-4,9.304312E0,5.30867E0,3.9829872E0,2.852078E3,-1.3025E-1,1.2596255E1,2.6665698E3,6.633117E-1,9.753269E0,4.6487274E0,5.566128E3,1.60536E1,3.3923328E0,8.861919E4,7.4313335E0,9.20523E0,3.2825247E3,7.7498436E0,1.0564699E0,3.4029197E-2,4.316963E0,6.101976E-1,9.417826E-1,-2.184E-1,6.588362E-1,7.2325363E0,8.547783E0,9.698374E-1,9.9999523E-1,3.123703E1,1.7580209E0,1.0485524E1,8.45309E-2,1.3796589E1,9.997915E-2,7.4597543E-1,4.6381903E0,6.7253666E0,1.9428354E2,9.979431E0,1.17241745E1,-1.3654794E2,7.104977E-1,9.401478E0,8.4481695E-7,5.6402374E-4,1.0361465E3,2.0580582E1,1.0498998E3,6.903536E-1,1.3748405E1,8.541085E4,1.6257333E2,9.429153E-1,2.8066475E3,8.401573E-1,9.7447073E-1,-3.2256097E-1,1.5032965E-1,1.4337492E0,3.5663775E-1,3.616747E-1,7.021675E-1,5.9120312E-2,4.6166182E-1,-6.842218E-2,-3.5317317E-1,3.7538397E-1,-4.8910943E-1,-1.73846E-1,2.512414E-1,-1.6205935E-1,3.7445617E-1,-7.072155E-2,3.4750694E-1,5.8784574E-1,-2.9926684E-1,-1.1117091E-1,2.5506005E-1,-2.26978E-1,7.7080175E-2,5.345479E-2,-4.2741984E-1,-1.5516527E-1,-4.2644456E-1,8.735409E-1,-2.2526659E-1,-2.4268204E-1,2.3217788E-1,4.8777404E-1,-2.6938814E-1,-3.9334214E-1,3.109047E-1,-1.485582E-1,7.0250344E-1,-7.9020053E-1,-1.06299715E-2,1.4357975E-1,4.6138215E-1,-5.195221E-2,3.0006137E-1,-2.6134697E-1,2.5178704E-1,5.0089035E-2,7.0919484E-1,-1.3724531E-1,6.332977E-1,-2.686624E-1,3.9376807E-1,3.2795516E-1,-2.4752358E-1,-6.587442E-2,-7.499906E-1,4.3843853E-1,-2.1834885E-1,7.997497E-1,-1.9651882E-1,7.063381E-1,1.8344307E-1,1.8531196E-1,-2.5524595E-1],"split_indices":[2,2,0,9,1,16,6,4,0,17,8,4,9,10,6,18,17,4,22,30,3,4,17,3,18,14,7,34,10,8,14,6,0,11,5,3,36,4,36,6,16,36,7,3,3,6,4,42,32,6,38,41,2,4,2,6,0,28,19,21,44,34,33,0,0,0,0,0,0,0,0,0,0,0,0,0,0,0,0,0,0,0,0,0,0,0,0,0,0,0,0,0,0,0,0,0,0,0,0,0,0,0,0,0,0,0,0,0,0,0,0,0,0,0,0,0,0,0,0,0,0,0,0,0,0,0,0],"split_type":[0,0,0,0,0,0,0,0,0,0,0,0,0,0,0,0,0,0,0,0,0,0,0,0,0,0,0,0,0,0,0,0,0,0,0,0,0,0,0,0,0,0,0,0,0,0,0,0,0,0,0,0,0,0,0,0,0,0,0,0,0,0,0,0,0,0,0,0,0,0,0,0,0,0,0,0,0,0,0,0,0,0,0,0,0,0,0,0,0,0,0,0,0,0,0,0,0,0,0,0,0,0,0,0,0,0,0,0,0,0,0,0,0,0,0,0,0,0,0,0,0,0,0,0,0,0,0],"sum_hessian":[3.4099211E3,2.3259106E3,1.0840106E3,5.630781E2,1.7628324E3,5.3598804E2,5.480225E2,2.752106E2,2.8786755E2,7.561382E2,1.0066943E3,1.4709189E2,3.8889615E2,1.823994E2,3.6562314E2,1.0180848E2,1.7340213E2,1.8450626E2,1.0336128E2,9.3744026E1,6.6239417E2,9.025663E2,1.0412796E2,1.22967804E2,2.4124083E1,2.5601605E2,1.3288008E2,8.795049E1,9.4448906E1,6.980166E1,2.9582147E2,9.854441E1,3.2640662E0,7.211194E1,1.0129019E2,1.6309392E2,2.1412333E1,4.853165E1,5.4829636E1,6.269511E1,3.1048916E1,1.0976567E2,5.526285E2,6.521172E2,2.504491E2,1.4687852E1,8.944011E1,1.2306176E1,1.1066163E2,1.2647932E1,1.14761505E1,1.1721374E2,1.3880232E2,1.13835625E2,1.9044462E1,7.835204E0,8.011529E1,8.777538E1,6.6735225E0,6.192145E0,6.3609512E1,2.3873387E2,5.708761E1,2.682173E1,7.172268E1,1.669381E0,1.5946851E0,2.8898388E1,4.321355E1,5.9563297E1,4.17269E1,9.147384E1,7.162009E1,1.9698853E1,1.7134802E0,3.1988037E1,1.6543613E1,8.246496E0,4.6583138E1,4.2212795E1,2.0482315E1,2.681746E1,4.2314563E0,4.2841152E1,6.692452E1,4.5953204E2,9.3096436E1,1.4834167E1,6.37283E2,1.840308E2,6.641829E1,1.1327134E1,3.3607183E0,7.409812E1,1.5341988E1,5.3577123E0,6.9484644E0,1.08497025E2,2.1646092E0,3.5568593E0,9.091073E0,1.9424745E0,9.533676E0,5.2780987E1,6.4432755E1,1.0265917E2,3.614315E1,1.0609617E2,7.7394576E0,1.4754814E1,4.289647E0,1.0209904E0,6.8142138E0,7.275169E1,7.363592E0,7.759734E1,1.0178044E1,1.6844474E0,4.989075E0,2.684663E0,3.5074816E0,6.1879086E1,1.7304257E0,1.9849436E1,2.1888445E2,1.7772608E1,3.9315E1],"tree_param":{"num_deleted":"0","num_feature":"48","num_nodes":"127","size_leaf_vector":"0"}},{"base_weights":[-1.02464E-1,-2.606712E-2,-5.507102E-1,-1.687703E-1,1.7395358E-1,-6.540944E-1,1.4767708E-1,5.3330418E-2,-3.123206E-1,2.4385081E-1,-3.1259206E-1,-7.4888694E-1,-7.531565E-2,2.4108307E0,-1.15079366E-1,4.7200087E-1,-6.8398364E-2,1.5657666E0,-3.3448595E-1,4.032538E-1,4.0837463E-2,2.535344E-1,-5.1539564E-1,-7.6853615E-1,1.7671266E0,-6.324543E-1,3.675801E-1,5.605754E-1,2.793942E0,1.6896775E0,-2.9889324E-1,3.224794E-1,1.6525129E0,-2.473171E-1,1.9541398E-1,3.3348584E-1,2.2707086E0,8.9861244E-2,-4.130813E-1,5.7162637E-1,1.408526E-1,-4.2093217E-1,1.2975045E-1,6.8042433E-1,-2.7441508E-1,-6.561747E-1,2.405104E-1,-7.926753E-1,4.0887484E-1,-8.082172E-2,-9.356065E-1,1.5885793E0,-3.2288882E-1,6.369431E-1,3.2234154E0,1.7521136E-1,2.2797422E0,-6.08272E-1,4.828307E-1,-6.399623E-2,7.119124E-1,-4.876719E-1,2.0484912E0,-6.4540076E-1,5.2682003E-3,-2.1596114E-1,3.8453108E-1,1.4637759E0,-2.987869E-1,2.4514916E0,7.499008E-1,-1.0430055E0,1.6502771E-1,-5.603201E-2,-5.047796E-1,8.240731E-1,3.5577396E-1,-1.7984847E0,1.687326E-1,-1.2932959E-1,-1.078919E0,-1.6588326E-1,2.7561775E-1,1.1078604E0,-1.0485351E-1,-6.6757417E-1,9.8277795E-1,-3.1489438E-1,-8.6950964E-1,-4.932724E-1,5.753152E-1,-8.0681247E-1,8.814762E-1,-6.0614115E-1,7.2784907E-1,1.331028E0,-4.0542755E-1,-1.0518731E0,2.2336403E-1,2.227484E0,5.222808E-1,1.2283926E0,-6.0237056E-1,3.856834E0,1.2014754E0,4.7865164E-1,2.8323493E0,-7.221904E-1,5.1300883E-1,1.2227505E0,-2.7017963E-1],"categories":[],"categories_nodes":[],"categories_segments":[],"categories_sizes":[],"default_left":[1,1,1,1,1,1,1,1,1,1,1,1,1,1,1,1,1,1,1,1,1,1,1,1,0,1,1,0,1,1,1,1,1,1,1,1,1,1,1,1,1,1,1,1,1,1,1,1,1,1,1,1,1,0,1,0,1,1,1,0,0,0,0,0,0,0,0,0,0,0,0,0,0,0,0,0,0,0,0,0,0,0,0,0,0,0,0,0,0,0,0,0,0,0,0,0,0,0,0,0,0,0,0,0,0,0,0,0,0,0,0],"id":9,"left_children":[1,3,5,7,9,11,13,15,17,19,21,23,25,27,29,31,33,35,37,39,41,43,45,47,-1,49,51,-1,53,55,57,59,61,63,65,67,69,71,73,75,77,79,81,83,85,87,89,91,93,95,97,99,101,-1,103,-1,105,107,109,-1,-1,-1,-1,-1,-1,-1,-1,-1,-1,-1,-1,-1,-1,-1,-1,-1,-1,-1,-1,-1,-1,-1,-1,-1,-1,-1,-1,-1,-1,-1,-1,-1,-1,-1,-1,-1,-1,-1,-1,-1,-1,-1,-1,-1,-1,-1,-1,-1,-1,-1,-1],"loss_changes":[1.034013E2,7.370636E1,3.1843918E1,4.8062332E1,3.6643707E1,2.0966751E1,3.4477905E1,3.0226913E1,3.8634125E1,3.0427067E1,1.568842E1,1.7630447E1,1.381341E1,2.7069664E0,1.791621E1,2.3046259E1,2.1755253E1,8.672056E0,3.0241547E1,2.3196922E1,1.7088732E1,8.392583E0,1.0809626E1,9.626404E0,0E0,4.06211E0,2.6896833E1,0E0,2.3408508E0,4.0702686E0,1.2019197E1,1.8077576E1,1.3520283E1,2.7601793E1,1.4585297E1,4.0978646E0,1.26571655E-2,1.2293357E1,2.4995102E1,1.7177032E1,1.1509589E1,1.2758581E1,1.5081224E1,6.969919E0,9.054151E0,5.8892593E0,4.324344E0,8.309952E0,2.7836416E0,5.062875E0,2.3738613E0,6.653141E0,9.767327E0,0E0,1.16809845E-1,0E0,2.1438408E0,4.8639536E0,8.300434E0,0E0,0E0,0E0,0E0,0E0,0E0,0E0,0E0,0E0,0E0,0E0,0E0,0E0,0E0,0E0,0E0,0E0,0E0,0E0,0E0,0E0,0E0,0E0,0E0,0E0,0E0,0E0,0E0,0E0,0E0,0E0,0E0,0E0,0E0,0E0,0E0,0E0,0E0,0E0,0E0,0E0,0E0,0E0,0E0,0E0,0E0,0E0,0E0,0E0,0E0,0E0,0E0],"parents":[2147483647,0,0,1,1,2,2,3,3,4,4,5,5,6,6,7,7,8,8,9,9,10,10,11,11,12,12,13,13,14,14,15,15,16,16,17,17,18,18,19,19,20,20,21,21,22,22,23,23,25,25,26,26,28,28,29,29,30,30,31,31,32,32,33,33,34,34,35,35,36,36,37,37,38,38,39,39,40,40,41,41,42,42,43,43,44,44,45,45,46,46,47,47,48,48,49,49,50,50,51,51,52,52,54,54,56,56,57,57,58,58],"right_children":[2,4,6,8,10,12,14,16,18,20,22,24,26,28,30,32,34,36,38,40,42,44,46,48,-1,50,52,-1,54,56,58,60,62,64,66,68,70,72,74,76,78,80,82,84,86,88,90,92,94,96,98,100,102,-1,104,-1,106,108,110,-1,-1,-1,-1,-1,-1,-1,-1,-1,-1,-1,-1,-1,-1,-1,-1,-1,-1,-1,-1,-1,-1,-1,-1,-1,-1,-1,-1,-1,-1,-1,-1,-1,-1,-1,-1,-1,-1,-1,-1,-1,-1,-1,-1,-1,-1,-1,-1,-1,-1,-1,-1],"split_conditions":[1.3107292E3,1.2447357E0,3.49757E0,5.2966924E3,9.281979E3,-1.3075E-1,4.6016264E0,6.64457E2,1.9523192E-2,9.6182406E-1,9.9999833E-1,9.3683356E-1,9.336682E0,-1.062475E3,4.6973488E-1,1.0442048E2,3.4009595E0,1.0003537E-1,2.0439514E2,7.78352E-1,9.087295E-7,3.9480934E1,9.267887E4,1.3927462E1,8.835633E-1,9.492188E1,9.8262615E0,2.802877E-1,1.6405663E-6,2.4586028E-5,1.6623496E-3,5.6301517E0,0E0,5.1262987E-1,1.2439709E4,8.2558906E-1,4.067427E-1,7.7852764E3,5.694683E1,3.434979E-2,3.6568562E4,7.413137E-1,9.44072E0,3.1446102E-1,4.2725635E3,2.8795202E1,1.4379732E-3,1.8581966E1,8.4823334E-1,3.1893774E3,1.1848927E1,1.3363617E5,8.695829E-1,3.1847155E-1,5.370359E0,8.760568E-2,7.736754E1,1.082794E1,1.0207748E4,-3.1998117E-2,3.559562E-1,-2.4383596E-1,1.0242456E0,-3.2270038E-1,2.6341002E-3,-1.0798057E-1,1.9226554E-1,7.3188794E-1,-1.4939345E-1,1.2257458E0,3.749504E-1,-5.2150273E-1,8.2513854E-2,-2.8016005E-2,-2.523898E-1,4.1203654E-1,1.7788698E-1,-8.9924234E-1,8.43663E-2,-6.4664796E-2,-5.394595E-1,-8.294163E-2,1.3780887E-1,5.539302E-1,-5.2426755E-2,-3.3378708E-1,4.9138898E-1,-1.5744719E-1,-4.3475482E-1,-2.466362E-1,2.876576E-1,-4.0340623E-1,4.407381E-1,-3.0307057E-1,3.6392453E-1,6.65514E-1,-2.0271377E-1,-5.2593654E-1,1.1168201E-1,1.113742E0,2.611404E-1,6.141963E-1,-3.0118528E-1,1.928417E0,6.007377E-1,2.3932582E-1,1.4161747E0,-3.610952E-1,2.5650442E-1,6.113753E-1,-1.3508981E-1],"split_indices":[1,7,18,17,9,8,4,9,11,21,5,16,6,45,34,3,0,16,1,18,40,3,43,0,0,19,6,0,29,38,38,4,12,10,28,34,39,43,19,14,30,10,6,14,15,3,37,6,11,17,0,30,34,0,0,0,19,18,17,0,0,0,0,0,0,0,0,0,0,0,0,0,0,0,0,0,0,0,0,0,0,0,0,0,0,0,0,0,0,0,0,0,0,0,0,0,0,0,0,0,0,0,0,0,0,0,0,0,0,0,0],"split_type":[0,0,0,0,0,0,0,0,0,0,0,0,0,0,0,0,0,0,0,0,0,0,0,0,0,0,0,0,0,0,0,0,0,0,0,0,0,0,0,0,0,0,0,0,0,0,0,0,0,0,0,0,0,0,0,0,0,0,0,0,0,0,0,0,0,0,0,0,0,0,0,0,0,0,0,0,0,0,0,0,0,0,0,0,0,0,0,0,0,0,0,0,0,0,0,0,0,0,0,0,0,0,0,0,0,0,0,0,0,0,0],"sum_hessian":[3.0189104E3,2.5802102E3,4.387002E2,1.505955E3,1.0742552E3,3.8218738E2,5.6512817E1,5.91467E2,9.14488E2,9.397496E2,1.3450575E2,3.281491E2,5.4038273E1,5.0283E0,5.1484516E1,1.3258398E2,4.5888297E2,9.8546715E0,9.046333E2,5.2586334E2,4.138862E2,3.5409615E1,9.9096146E1,3.2629538E2,1.853709E0,2.3742945E1,3.0295326E1,1.2850933E0,3.7432065E0,4.001721E0,4.7482796E1,1.1880902E2,1.3774961E1,2.734741E2,1.8540887E2,4.1220865E0,5.7325854E0,1.4134555E2,7.632877E2,3.1960614E2,2.062572E2,6.622297E1,3.4766324E2,1.9418985E1,1.5990627E1,8.364932E1,1.5446824E1,3.200603E2,6.2350936E0,8.869719E0,1.4873227E1,1.0473557E1,1.982177E1,1.0338501E0,2.7093563E0,1.4856282E0,2.5160925E0,3.417817E1,1.330463E1,6.0050358E1,5.8758667E1,2.1145697E0,1.1660392E1,1.055571E2,1.67917E2,5.8347374E1,1.2706149E2,1.0069314E0,3.115155E0,4.576586E0,1.1559997E0,7.9936595E0,1.3335188E2,1.5630148E2,6.0698627E2,1.460168E2,1.7358934E2,2.023083E0,2.0423413E2,4.6716145E1,1.9506823E1,1.1481895E2,2.3284428E2,1.2308522E1,7.110463E0,1.2538491E1,3.4521368E0,3.312846E1,5.0520863E1,4.691429E0,1.0755394E1,3.1789395E2,2.1663265E0,1.2756221E0,4.9594717E0,1.0784843E0,7.791234E0,1.360118E1,1.2720476E0,5.8683634E0,4.6051936E0,2.5076497E0,1.731412E1,1.3720415E0,1.3373148E0,1.0288786E0,1.4872139E0,3.1349125E1,2.8290424E0,6.3960013E0,6.9086285E0],"tree_param":{"num_deleted":"0","num_feature":"48","num_nodes":"111","size_leaf_vector":"0"}},{"base_weights":[-6.845441E-2,-2.3754972E-1,9.5599875E-2,-4.5823714E-1,-5.8302954E-2,1.125009E0,6.7301475E-2,-4.8951292E-1,1.2005728E0,3.9554745E-2,-4.6493816E-1,1.4205573E-1,-2.7741268E-1,-2.907241E-1,-7.1393776E-1,-6.57099E-3,9.4089526E-1,-5.6001556E-1,3.9457712E-1,-1.3628604E-1,2.723044E-1,4.3125725E-1,-4.06543E-1,-7.420798E-1,-1.7379189E-1,-5.6526196E-1,-9.4931954E-1,-7.625057E-2,5.829975E-1,1.0693076E0,6.394088E-2,-6.666672E-1,-2.445076E-2,-1.8030183E-1,1.1967455E0,-4.5404506E-1,6.496614E-2,9.3483514E-1,1.2404607E-1,1.8297426E-2,1.1252593E0,-4.8408315E-1,3.169143E-1,1.2585839E0,-7.925303E-1,5.917538E-1,-4.5185137E-1,1.3221204E-1,-7.003675E-1,-9.767117E-1,8.227072E-3,-1.337629E-1,6.077444E-1,2.83006E-1,1.2947935E0,-1.7656566E-1,1.1616478E0,7.712259E-1,-5.179765E-1,-7.9464424E-1,-2.6932222E-1,-5.58881E-1,4.877381E-1,5.5353445E-1,-7.700932E-1,-2.2264546E-1,1.5571702E0,1.4029596E0,-5.1252353E-1,-3.0348864E-1,2.1871176E-1,3.05196E-1,1.3594922E0,1.1473288E-3,5.892629E-1,4.888244E-1,-5.3708804E-1,-2.814441E-1,1.3537236E0,-6.7377716E-1,-2.154317E-1,6.656157E-1,-7.555822E-1],"categories":[],"categories_nodes":[],"categories_segments":[],"categories_sizes":[],"default_left":[1,1,1,1,1,0,1,1,0,1,1,1,1,1,1,1,1,1,1,1,1,1,1,1,1,1,1,1,1,1,1,1,1,1,1,1,1,1,1,1,1,1,1,0,0,0,0,0,0,0,0,0,0,0,0,0,0,0,0,0,0,0,0,0,0,0,0,0,0,0,0,0,0,0,0,0,0,0,0,0,0,0,0],"id":10,"left_children":[1,3,5,7,9,-1,11,13,-1,15,17,19,21,23,25,27,29,31,33,35,37,39,41,43,45,47,49,51,53,55,57,59,61,63,65,67,69,71,73,75,77,79,81,-1,-1,-1,-1,-1,-1,-1,-1,-1,-1,-1,-1,-1,-1,-1,-1,-1,-1,-1,-1,-1,-1,-1,-1,-1,-1,-1,-1,-1,-1,-1,-1,-1,-1,-1,-1,-1,-1,-1,-1],"loss_changes":[7.726574E1,5.4224342E1,4.1115192E1,3.246956E1,3.0177977E1,0E0,3.552929E1,2.6732635E1,0E0,2.5442965E1,1.2241613E1,4.109292E1,2.2666758E1,1.6860683E1,9.36557E0,2.3996092E1,3.286642E0,7.572361E0,7.2424393E0,2.3157997E1,7.5693954E1,1.0975267E1,1.1844696E1,7.6521378E0,5.4969376E1,1.6667156E1,2.8424988E0,2.0627457E1,1.2817076E1,3.1874943E0,2.4034402E0,5.4180374E0,6.596129E0,4.644097E0,3.6679325E0,1.5962019E1,1.2659388E1,3.727899E1,3.6123272E1,6.8140864E0,4.975672E0,9.467846E0,8.27409E0,0E0,0E0,0E0,0E0,0E0,0E0,0E0,0E0,0E0,0E0,0E0,0E0,0E0,0E0,0E0,0E0,0E0,0E0,0E0,0E0,0E0,0E0,0E0,0E0,0E0,0E0,0E0,0E0,0E0,0E0,0E0,0E0,0E0,0E0,0E0,0E0,0E0,0E0,0E0,0E0],"parents":[2147483647,0,0,1,1,2,2,3,3,4,4,6,6,7,7,9,9,10,10,11,11,12,12,13,13,14,14,15,15,16,16,17,17,18,18,19,19,20,20,21,21,22,22,23,23,24,24,25,25,26,26,27,27,28,28,29,29,30,30,31,31,32,32,33,33,34,34,35,35,36,36,37,37,38,38,39,39,40,40,41,41,42,42],"right_children":[2,4,6,8,10,-1,12,14,-1,16,18,20,22,24,26,28,30,32,34,36,38,40,42,44,46,48,50,52,54,56,58,60,62,64,66,68,70,72,74,76,78,80,82,-1,-1,-1,-1,-1,-1,-1,-1,-1,-1,-1,-1,-1,-1,-1,-1,-1,-1,-1,-1,-1,-1,-1,-1,-1,-1,-1,-1,-1,-1,-1,-1,-1,-1,-1,-1,-1,-1,-1,-1],"split_conditions":[2.0476942E0,5.043197E-1,9.999004E-1,1.9122108E1,5.6306626E3,5.625045E-1,6.587963E-1,1.3201094E3,6.002864E-1,2.2659916E1,1.023461E3,8.598471E0,8.4343463E-1,7.457586E0,4.3130845E-1,1.2789227E-3,4.539064E-4,1.4751867E1,3.5276883E-3,5.945848E-1,9.71054E0,5.3279568E-3,1.0233537E3,2.4270543E-1,9.763626E0,1.3789392E1,-1.0375E-1,1.0480203E3,9.780711E-3,2.6776183E-1,1.4604273E1,1.4230607E1,9.031488E2,3.984449E-2,5.152026E0,2.7360737E-1,5.8755314E-1,9.458077E0,1.6898756E1,9.9999005E-1,1.2645394E-1,1.9273984E2,8.167623E2,6.2929195E-1,-3.9626515E-1,2.958769E-1,-2.2592568E-1,6.610602E-2,-3.5018376E-1,-4.8835585E-1,4.113536E-3,-6.688145E-2,3.038722E-1,1.41503E-1,6.4739674E-1,-8.828283E-2,5.808239E-1,3.8561296E-1,-2.5898826E-1,-3.9732212E-1,-1.3466111E-1,-2.794405E-1,2.4386905E-1,2.7676722E-1,-3.850466E-1,-1.1132273E-1,7.785851E-1,7.014798E-1,-2.5626177E-1,-1.5174432E-1,1.0935588E-1,1.52598E-1,6.797461E-1,5.736644E-4,2.9463145E-1,2.444122E-1,-2.6854402E-1,-1.4072205E-1,6.768618E-1,-3.3688858E-1,-1.0771585E-1,3.3280784E-1,-3.777911E-1],"split_indices":[0,10,5,6,9,0,14,9,0,4,2,6,33,6,14,29,29,4,41,10,6,38,2,34,6,3,8,2,41,11,3,6,2,32,6,33,36,6,6,5,7,15,1,0,0,0,0,0,0,0,0,0,0,0,0,0,0,0,0,0,0,0,0,0,0,0,0,0,0,0,0,0,0,0,0,0,0,0,0,0,0,0,0],"split_type":[0,0,0,0,0,0,0,0,0,0,0,0,0,0,0,0,0,0,0,0,0,0,0,0,0,0,0,0,0,0,0,0,0,0,0,0,0,0,0,0,0,0,0,0,0,0,0,0,0,0,0,0,0,0,0,0,0,0,0,0,0,0,0,0,0,0,0,0,0,0,0,0,0,0,0,0,0,0,0,0,0,0,0],"sum_hessian":[2.7834546E3,1.3704479E3,1.4130068E3,6.1352435E2,7.569235E2,3.6767372E1,1.3762394E3,6.028627E2,1.0661675E1,6.108289E2,1.4609465E2,1.1314603E3,2.4477911E2,3.2090768E2,2.8195502E2,5.8203613E2,2.8792753E1,1.3185738E2,1.4237273E1,3.606671E2,7.707932E2,3.736723E1,2.0741188E2,6.493064E1,2.5597704E2,1.7488972E2,1.0706529E2,5.2129614E2,6.073998E1,2.4923819E1,3.8689346E0,1.0975593E2,2.210145E1,8.745202E0,5.492071E0,1.393655E2,2.2130162E2,1.3997466E2,6.3081854E2,2.4070599E1,1.3296632E1,1.8763232E2,1.9779564E1,1.0080612E0,6.392258E1,6.790226E1,1.8807477E2,2.8383434E1,1.4650629E2,1.0406824E2,2.9970524E0,4.8160574E2,3.9690403E1,4.3713997E1,1.7025984E1,1.6568704E0,2.3266949E1,1.5995097E0,2.269425E0,8.22613E1,2.7494627E1,1.0771276E1,1.1330173E1,3.9241412E0,4.8210607E0,1.1895933E0,4.302478E0,3.5528388E0,1.3581265E2,6.486861E1,1.5643301E2,5.7072266E1,8.290238E1,4.9978912E2,1.3102943E2,1.3095681E1,1.0974917E1,1.8253943E0,1.1471237E1,1.0909363E2,7.853869E1,1.5212796E1,4.566768E0],"tree_param":{"num_deleted":"0","num_feature":"48","num_nodes":"83","size_leaf_vector":"0"}},{"base_weights":[-4.556419E-2,-2.0226802E-1,8.51927E-2,-5.596228E-2,-6.8869674E-1,1.95145E-1,-2.0066541E-1,-9.125351E-2,9.12004E-1,-7.523926E-1,2.9581532E-1,-6.4968005E-2,4.1513956E-1,-2.7842084E-1,4.785943E-1,3.354933E-1,-1.7320089E-1,1.1863599E0,2.5817078E-1,-7.744482E-1,1.2023821E0,-6.784262E-2,1.5606444E0,-1.5950592E-1,7.281651E-1,1.0060286E-1,6.496272E-1,-6.122338E-1,-1.1871563E-1,1.5141983E-1,1.0850947E0,-4.9731034E-1,4.390078E-1,-2.3650849E-1,4.539845E-1,2.8621644E-1,1.4264657E0,-3.823653E-1,9.4776285E-1,1.2867311E0,-7.957891E-1,3.3436576E-1,1.4569528E0,8.4986764E-1,-3.8734752E-1,2.1431987E0,6.657118E-2,-6.593541E-1,-4.2282745E-2,1.7448883E0,1.1152757E-2,6.3194777E-3,7.590832E-1,1.1109735E0,3.3734003E-1,-6.4740723E-1,1.4110043E0,9.807964E-3,-6.0933137E-1,6.626404E-1,-3.502694E-1,1.348222E0,-1.9093117E-1,-1.3015484E0,4.1630206E-1,6.822214E-1,-8.93214E-2,-1.7563866E-1,-1.0077055E0,-4.1543892E-1,5.634474E-1,-7.013512E-1,6.460071E-1,1.5526086E0,-3.037333E-1,-9.098621E-1,3.2241964E-1,-4.4415552E-2,-8.243965E-1,1.1804245E0,1.9326288E-2,8.8112414E-1,-7.857237E-1,-3.1527257E-1,-9.79515E-1,3.892564E-2,-6.779378E-1,8.254774E-1,2.2650495E0,-3.721775E-1,1.2394186E0,1.730792E-1,-4.5266542E-1,-3.580059E-1,8.812929E-1,-3.5185108E-1,1.2743831E0,9.9558786E-2,8.63466E-1,8.6521566E-1,-6.988477E-1,-5.8076236E-2,1.0611924E0,9.195761E-1,-6.786128E-1,8.3447295E-1,-4.526816E-1,-6.695227E-1,4.6440583E-1,-8.004152E-2,1.7445152E0,3.7693447E-1,-6.9595295E-1],"categories":[],"categories_nodes":[],"categories_segments":[],"categories_sizes":[],"default_left":[1,1,1,1,1,1,1,1,1,1,1,1,1,1,1,1,1,1,1,1,1,1,1,1,1,1,1,1,1,1,1,1,1,1,1,1,1,1,0,0,1,0,0,1,1,0,0,1,1,1,1,1,1,1,1,1,0,1,1,1,1,1,1,0,0,0,0,0,0,0,0,0,0,0,0,0,0,0,0,0,0,0,0,0,0,0,0,0,0,0,0,0,0,0,0,0,0,0,0,0,0,0,0,0,0,0,0,0,0,0,0,0,0],"id":11,"left_children":[1,3,5,7,9,11,13,15,17,19,21,23,25,27,29,31,33,35,37,39,41,43,45,47,49,51,53,55,57,59,61,63,65,67,69,71,73,75,-1,-1,77,-1,-1,79,81,-1,-1,83,85,87,89,91,93,95,97,99,-1,101,103,105,107,109,111,-1,-1,-1,-1,-1,-1,-1,-1,-1,-1,-1,-1,-1,-1,-1,-1,-1,-1,-1,-1,-1,-1,-1,-1,-1,-1,-1,-1,-1,-1,-1,-1,-1,-1,-1,-1,-1,-1,-1,-1,-1,-1,-1,-1,-1,-1,-1,-1,-1,-1],"loss_changes":[5.297477E1,8.364879E1,4.434452E1,3.100229E1,1.7268066E1,5.831174E1,2.0840935E1,3.0628736E1,5.4213314E0,1.1950317E1,8.033463E0,3.517603E1,4.064476E1,1.8716091E1,7.899685E0,1.2387743E1,2.9251743E1,4.392748E0,5.0957136E0,1.2167694E1,2.2952461E-1,4.535254E0,3.243493E0,2.4499765E1,3.6414467E1,1.4704494E1,4.5157578E1,9.0125885E0,1.5115633E1,7.3006263E0,4.984295E0,1.2353357E1,1.6263023E1,3.1151192E1,6.671363E0,2.5596147E0,4.244068E0,2.6236637E0,0E0,0E0,5.3663483E0,0E0,0E0,1.0801659E0,6.4162765E0,0E0,0E0,8.443794E0,1.7585224E1,8.011974E0,1.47346E1,1.6018606E1,4.3655605E0,3.083908E1,2.3671206E1,9.362118E0,0E0,1.3684194E1,5.894655E0,3.0601296E0,4.0988665E0,6.816044E0,1.2037596E0,0E0,0E0,0E0,0E0,0E0,0E0,0E0,0E0,0E0,0E0,0E0,0E0,0E0,0E0,0E0,0E0,0E0,0E0,0E0,0E0,0E0,0E0,0E0,0E0,0E0,0E0,0E0,0E0,0E0,0E0,0E0,0E0,0E0,0E0,0E0,0E0,0E0,0E0,0E0,0E0,0E0,0E0,0E0,0E0,0E0,0E0,0E0,0E0,0E0,0E0],"parents":[2147483647,0,0,1,1,2,2,3,3,4,4,5,5,6,6,7,7,8,8,9,9,10,10,11,11,12,12,13,13,14,14,15,15,16,16,17,17,18,18,19,19,20,20,21,21,22,22,23,23,24,24,25,25,26,26,27,27,28,28,29,29,30,30,31,31,32,32,33,33,34,34,35,35,36,36,37,37,40,40,43,43,44,44,47,47,48,48,49,49,50,50,51,51,52,52,53,53,54,54,55,55,57,57,58,58,59,59,60,60,61,61,62,62],"right_children":[2,4,6,8,10,12,14,16,18,20,22,24,26,28,30,32,34,36,38,40,42,44,46,48,50,52,54,56,58,60,62,64,66,68,70,72,74,76,-1,-1,78,-1,-1,80,82,-1,-1,84,86,88,90,92,94,96,98,100,-1,102,104,106,108,110,112,-1,-1,-1,-1,-1,-1,-1,-1,-1,-1,-1,-1,-1,-1,-1,-1,-1,-1,-1,-1,-1,-1,-1,-1,-1,-1,-1,-1,-1,-1,-1,-1,-1,-1,-1,-1,-1,-1,-1,-1,-1,-1,-1,-1,-1,-1,-1,-1,-1,-1],"split_conditions":[0E0,6.06989E1,3.7550745E3,1.8598145E1,2.1209614E1,9.114285E1,1.0293809E3,7.371398E0,1.0901853E0,8.8126814E-1,9.418439E4,1.2876572E2,1.7374424E1,4.1440773E-1,4.6986155E-4,2.2740683E1,1.8995453E1,1.9994959E4,1.9037144E1,8.953446E0,1.0469326E3,4.0795796E3,9.9999917E-1,5.886848E-1,5.346478E2,1.684465E1,9.7842926E2,1.1427401E1,9.999998E-1,3.0262175E1,1.2549075E3,9.1170154E2,9.9999845E-1,4.0518074E0,-2.1294999E-1,6.2635266E2,4.358506E0,6.5481925E-1,4.7388142E-1,6.4336556E-1,8.018076E2,1.6718288E-1,7.284764E-1,1.11814655E-1,7.8089243E-1,1.0715994E0,3.328559E-2,9.429582E-1,1.3003606E3,7.736591E-1,4.0460376E2,1.2018946E0,4.564633E4,1.791049E0,6.423832E2,1.5941522E3,7.0550215E-1,-1.1965E-1,2.6353462E1,3.798483E0,2.13414E3,-9.280448E-1,6.3588887E3,-6.507742E-1,2.0815103E-1,3.411107E-1,-4.46607E-2,-8.781933E-2,-5.038527E-1,-2.0771946E-1,2.817237E-1,-3.506756E-1,3.2300356E-1,7.763043E-1,-1.5186664E-1,-4.5493105E-1,1.6120982E-1,-2.2207776E-2,-4.1219825E-1,5.902122E-1,9.663144E-3,4.4056207E-1,-3.9286184E-1,-1.5763628E-1,-4.897575E-1,1.946282E-2,-3.389689E-1,4.127387E-1,1.1325247E0,-1.8608876E-1,6.197093E-1,8.65396E-2,-2.2633271E-1,-1.7900296E-1,4.4064644E-1,-1.7592554E-1,6.3719153E-1,4.9779393E-2,4.31733E-1,4.3260783E-1,-3.4942386E-1,-2.9038118E-2,5.305962E-1,4.5978805E-1,-3.393064E-1,4.1723648E-1,-2.263408E-1,-3.3476135E-1,2.3220292E-1,-4.002076E-2,8.722576E-1,1.8846723E-1,-3.4797648E-1],"split_indices":[12,3,9,6,4,15,2,3,36,16,27,3,3,10,40,15,4,20,6,13,2,17,5,36,9,4,9,18,5,3,44,2,5,18,8,9,22,18,0,0,2,0,0,35,21,0,0,21,1,18,3,18,30,6,15,17,0,8,13,18,15,39,17,0,0,0,0,0,0,0,0,0,0,0,0,0,0,0,0,0,0,0,0,0,0,0,0,0,0,0,0,0,0,0,0,0,0,0,0,0,0,0,0,0,0,0,0,0,0,0,0,0,0],"split_type":[0,0,0,0,0,0,0,0,0,0,0,0,0,0,0,0,0,0,0,0,0,0,0,0,0,0,0,0,0,0,0,0,0,0,0,0,0,0,0,0,0,0,0,0,0,0,0,0,0,0,0,0,0,0,0,0,0,0,0,0,0,0,0,0,0,0,0,0,0,0,0,0,0,0,0,0,0,0,0,0,0,0,0,0,0,0,0,0,0,0,0,0,0,0,0,0,0,0,0,0,0,0,0,0,0,0,0,0,0,0,0,0,0],"sum_hessian":[2.5835417E3,1.1749235E3,1.4086182E3,9.0410583E2,2.7081766E2,1.01754694E3,3.9107126E2,8.7317633E2,3.0929543E1,2.5458249E2,1.6235182E1,4.6658258E2,5.5096436E2,3.514326E2,3.9638664E1,1.4016469E2,7.330116E2,2.1213604E1,9.715939E0,2.5233917E2,2.2433114E0,1.3344728E1,2.8904538E0,4.1760483E2,4.8977737E1,2.3592657E2,3.1503778E2,1.1280858E2,2.3862401E2,2.6560408E1,1.3078256E1,1.5075305E1,1.25089386E2,6.663715E2,6.6640114E1,4.9286017E0,1.6285002E1,5.2681093E0,4.447829E0,1.978254E0,2.5036092E2,1.0333433E0,1.2099681E0,3.0175378E0,1.0327191E1,1.7670113E0,1.1234425E0,7.8452576E1,3.3915225E2,1.966261E1,2.9315128E1,2.0726001E2,2.8666573E1,1.2613671E2,1.8890106E2,1.1154934E2,1.2592392E0,1.8986598E2,4.8758022E1,1.299634E1,1.3564069E1,1.0795544E1,2.2827117E0,7.7917433E0,7.283561E0,8.545797E1,3.963142E1,6.1876105E2,4.7610466E1,7.1393857E0,5.9500732E1,1.062601E0,3.8660007E0,1.5274064E1,1.0109378E0,2.846595E0,2.4215145E0,9.276111E0,2.4108481E2,1.857127E0,1.1604109E0,2.1785784E0,8.148613E0,3.877031E1,3.9682266E1,3.015645E2,3.758774E1,8.039449E0,1.1623161E1,2.287351E1,6.4416184E0,1.5248253E2,5.477748E1,2.636601E0,2.6029972E1,1.2558775E1,1.1357794E2,1.3092093E2,5.7980137E1,3.148449E0,1.08400894E2,1.7923799E2,1.0628005E1,1.5816234E0,4.7176395E1,1.1479548E1,1.5167918E0,9.873165E0,3.690904E0,2.5181193E0,8.277425E0,1.193887E0,1.0888246E0],"tree_param":{"num_deleted":"0","num_feature":"48","num_nodes":"113","size_leaf_vector":"0"}},{"base_weights":[-3.3666056E-2,-2.4933043E-1,5.059915E-2,-2.8820187E-1,1.9167453E0,1.7537183E-1,-1.2398721E-1,-3.799112E-1,1.354877E-1,2.2037063E0,7.9306155E-1,5.8492905E-1,1.0983581E-1,-3.7258643E-1,-1.4884416E-2,-4.488959E-1,1.5997851E-1,-2.1803197E-1,3.726273E-1,5.1952946E-1,2.4508743E0,1.6241192E0,4.9621007E-1,-1.3312821E-1,2.1920656E-1,-4.3425113E-1,5.1310664E-1,2.970345E-1,-1.3489263E-1,-2.2516988E-1,-6.161568E-1,1.1026136E0,-7.802108E-2,1.0468763E0,-3.5935223E-1,-5.4437107E-1,5.1091146E-1,2.9554603E0,1.3121816E0,-3.73369E-1,2.0012953E0,-1.06453955E-1,6.167107E-1,-3.8059315E-1,1.7257597E-1,3.176717E-1,-1.3319945E-1,6.061628E-1,-4.8959133E-1,-8.625528E-1,8.4935486E-1,3.7707442E-1,-1.053654E0,-1.9082068E-1,5.610584E-1,-9.6331865E-1,-1.6450605E-1,-1.5444303E-1,-7.067971E-1,1.453255E0,-4.8270738E-1,1.6435624E0,-1.8018824E-1,4.603115E-2,1.5492017E0,-5.465316E-1,6.5737206E-1,-8.891145E-1,6.9673085E-1,7.392071E-2,7.9723316E-1,2.3419356E0,-1.4701912E-1,-6.5345293E-1,4.4533795E-1,7.026193E-1,-3.6734605E-1,9.518625E-2,-5.5463254E-1,5.5927914E-1,-1.0944074E-1,-7.6289564E-1,3.5767615E-1,-4.912702E-1,1.2976296E-1,-8.165785E-1,8.4000623E-1,-1.3381773E-1,-6.385379E-1,-3.1647652E-2,-1.3649557E0,1.2962437E0,-3.954418E-1,6.6061455E-1,-9.690734E-3,5.8863956E-1,-1.4525206E0,-2.404446E-1,4.3166366E-1,-1.36968065E-2,8.5423046E-1],"categories":[],"categories_nodes":[],"categories_segments":[],"categories_sizes":[],"default_left":[1,1,1,1,1,1,1,1,1,1,0,1,1,1,1,1,1,1,1,0,1,1,1,1,1,1,1,1,1,1,1,1,1,1,1,1,1,0,0,0,1,1,1,1,1,1,1,1,1,1,1,1,1,1,1,0,0,0,0,0,0,0,0,0,0,0,0,0,0,0,0,0,0,0,0,0,0,0,0,0,0,0,0,0,0,0,0,0,0,0,0,0,0,0,0,0,0,0,0,0,0],"id":12,"left_children":[1,3,5,7,9,11,13,15,17,19,-1,21,23,25,27,29,31,33,35,-1,37,39,41,43,45,47,49,51,53,55,57,59,61,63,65,67,69,-1,-1,-1,71,73,75,77,79,81,83,85,87,89,91,93,95,97,99,-1,-1,-1,-1,-1,-1,-1,-1,-1,-1,-1,-1,-1,-1,-1,-1,-1,-1,-1,-1,-1,-1,-1,-1,-1,-1,-1,-1,-1,-1,-1,-1,-1,-1,-1,-1,-1,-1,-1,-1,-1,-1,-1,-1,-1,-1],"loss_changes":[4.4298027E1,5.8212357E1,3.8209915E1,2.6225311E1,2.1873398E0,2.7388609E1,1.9828434E1,2.070539E1,1.0191369E1,2.5392227E0,0E0,1.218063E1,2.349187E1,1.2402264E1,1.9103209E1,1.8253609E1,1.4333338E1,9.144016E0,9.477787E0,0E0,5.5617905E-1,8.763203E0,9.594921E0,2.0847336E1,2.1182869E1,1.2331898E1,7.65895E0,1.5727992E1,1.4448504E1,9.327352E0,1.1636681E1,7.8545275E0,9.378686E0,2.535318E0,8.897337E0,4.8942184E0,7.8934307E0,0E0,0E0,0E0,7.0088043E0,7.1478734E0,9.5151825E0,1.2649387E1,1.3538355E1,2.0870201E1,1.2658132E1,4.3468103E0,1.0461082E1,1.3916845E0,7.486498E0,1.4768293E1,6.2243547E0,1.0661841E1,4.6726513E0,0E0,0E0,0E0,0E0,0E0,0E0,0E0,0E0,0E0,0E0,0E0,0E0,0E0,0E0,0E0,0E0,0E0,0E0,0E0,0E0,0E0,0E0,0E0,0E0,0E0,0E0,0E0,0E0,0E0,0E0,0E0,0E0,0E0,0E0,0E0,0E0,0E0,0E0,0E0,0E0,0E0,0E0,0E0,0E0,0E0,0E0],"parents":[2147483647,0,0,1,1,2,2,3,3,4,4,5,5,6,6,7,7,8,8,9,9,11,11,12,12,13,13,14,14,15,15,16,16,17,17,18,18,20,20,21,21,22,22,23,23,24,24,25,25,26,26,27,27,28,28,29,29,30,30,31,31,32,32,33,33,34,34,35,35,36,36,40,40,41,41,42,42,43,43,44,44,45,45,46,46,47,47,48,48,49,49,50,50,51,51,52,52,53,53,54,54],"right_children":[2,4,6,8,10,12,14,16,18,20,-1,22,24,26,28,30,32,34,36,-1,38,40,42,44,46,48,50,52,54,56,58,60,62,64,66,68,70,-1,-1,-1,72,74,76,78,80,82,84,86,88,90,92,94,96,98,100,-1,-1,-1,-1,-1,-1,-1,-1,-1,-1,-1,-1,-1,-1,-1,-1,-1,-1,-1,-1,-1,-1,-1,-1,-1,-1,-1,-1,-1,-1,-1,-1,-1,-1,-1,-1,-1,-1,-1,-1,-1,-1,-1,-1,-1,-1],"split_conditions":[4.2930517E0,3.6764507E0,1.0331621E0,9.988739E2,1.1300003E1,8.424829E2,3.1495797E-6,-1.2805E-1,3.7986256E-2,-5.340457E-1,3.9653078E-1,4.7739787E0,4.030075E-1,6.9081798E0,7.545389E1,1.5474747E1,8.4633606E2,9.999627E-1,9.889285E-5,2.5976473E-1,8.197094E0,7.238839E-1,1.3997478E-2,9.201644E2,8.58605E-1,2.2409404E3,8.176438E-7,9.990876E-1,1.1019312E1,1.7733448E-5,8.4857605E2,1.1259971E0,1.2919526E3,3.0316856E-2,4.0776353E0,1.5502699E1,5.285922E-1,1.4777302E0,6.560908E-1,-1.866845E-1,3.5869877E-3,3.0645292E0,1.354038E-2,8.7274634E2,5.3416383E-2,9.034622E-1,9.190731E2,1.5398088E4,-2.4968205E-1,1.372581E3,3.2761135E1,3.350848E-1,9.9995947E-1,1.039685E3,1.433652E2,-4.8165932E-1,-8.2253024E-2,-7.722151E-2,-3.5339856E-1,7.266275E-1,-2.4135369E-1,8.217812E-1,-9.009412E-2,2.3015575E-2,7.7460086E-1,-2.732658E-1,3.2868603E-1,-4.4455725E-1,3.4836543E-1,3.6960356E-2,3.9861658E-1,1.1709678E0,-7.350956E-2,-3.2672647E-1,2.2266898E-1,3.5130966E-1,-1.8367302E-1,4.7593124E-2,-2.7731627E-1,2.7963957E-1,-5.472037E-2,-3.8144782E-1,1.7883807E-1,-2.456351E-1,6.488148E-2,-4.0828925E-1,4.2000312E-1,-6.6908866E-2,-3.1926894E-1,-1.5823826E-2,-6.8247783E-1,6.4812183E-1,-1.977209E-1,3.3030728E-1,-4.845367E-3,2.9431978E-1,-7.262603E-1,-1.202223E-1,2.1583183E-1,-6.8484033E-3,4.2711523E-1],"split_indices":[4,18,18,2,0,2,38,8,32,10,0,4,10,7,13,3,2,5,41,0,18,11,10,2,10,17,40,11,0,37,2,36,17,35,22,6,10,0,0,0,38,31,38,2,14,6,2,20,14,47,3,14,5,2,15,0,0,0,0,0,0,0,0,0,0,0,0,0,0,0,0,0,0,0,0,0,0,0,0,0,0,0,0,0,0,0,0,0,0,0,0,0,0,0,0,0,0,0,0,0,0],"split_type":[0,0,0,0,0,0,0,0,0,0,0,0,0,0,0,0,0,0,0,0,0,0,0,0,0,0,0,0,0,0,0,0,0,0,0,0,0,0,0,0,0,0,0,0,0,0,0,0,0,0,0,0,0,0,0,0,0,0,0,0,0,0,0,0,0,0,0,0,0,0,0,0,0,0,0,0,0,0,0,0,0,0,0,0,0,0,0,0,0,0,0,0,0,0,0,0,0,0,0,0,0],"sum_hessian":[2.435879E3,6.8380975E2,1.7520692E3,6.726064E2,1.1203352E1,1.0218052E3,7.302641E2,5.530087E2,1.1959765E2,8.158682E0,3.0446699E0,1.3985811E2,8.81947E2,2.2200145E2,5.0826263E2,4.90503E2,6.2505753E1,4.804876E1,7.154889E1,1.4411011E0,6.7175813E0,9.639667E0,1.3021844E2,2.73704E2,6.0824304E2,2.0802763E2,1.3973822E1,1.408077E2,3.6745493E2,2.1083673E2,2.7966626E2,1.1867963E1,5.063779E1,4.1847444E0,4.3864014E1,8.990951E0,6.2557938E1,3.5493033E0,3.1682777E0,1.5327051E0,8.106961E0,2.1717672E1,1.0850077E2,1.511248E2,1.22579216E2,4.754867E2,1.3275633E2,1.0003588E1,1.9802405E2,2.4372623E0,1.153656E1,1.3361092E2,7.1967688E0,3.4079385E2,2.6661081E1,1.4881477E1,1.9595525E2,4.6336437E1,2.3332983E2,9.786655E0,2.081308E0,1.9915683E0,4.864622E1,1.7632462E0,2.4214983E0,3.7434723E1,6.4292903E0,7.2583833E0,1.7325674E0,2.5261469E1,3.729647E1,6.9196444E0,1.1873173E0,1.0813682E1,1.0903991E1,1.0005217E2,8.448602E0,4.0596733E1,1.1052807E2,5.1280254E1,7.1298965E1,1.6329782E1,4.5915692E2,5.5845036E1,7.691129E1,1.0603371E0,8.943251E0,5.8998554E1,1.390255E2,1.3189284E0,1.1183338E0,8.458561E0,3.0779986E0,7.668476E1,5.692616E1,1.3133602E0,5.8834085E0,3.1620038E2,2.4593494E1,9.327693E0,1.733339E1],"tree_param":{"num_deleted":"0","num_feature":"48","num_nodes":"101","size_leaf_vector":"0"}},{"base_weights":[-2.5167571E-2,-4.0088493E-2,1.2514964E0,5.9541888E-3,-3.9074376E-1,3.7951846E-2,-5.217246E-1,-4.8591632E-1,1.6264033E-1,1.8316232E-1,-8.4077105E-2,-6.75005E-1,1.4764476E-1,-7.69679E-1,-3.3730885E-1,-7.058608E-2,8.1541747E-1,1.6851874E-1,1.8170816E0,-2.9842275E-1,2.878467E-2,-8.1582326E-1,-1.7917795E-1,-3.6418018E-1,5.321521E-1,-9.1217417E-1,5.031327E-1,-8.436423E-2,-5.8285E-1,-6.309172E-1,3.1239077E-1,1.0665296E0,-5.826798E-1,-3.3557346E-1,2.0961486E-1,5.97239E-1,2.1725302E0,-4.82095E-1,-5.53175E-2,7.1459514E-1,-1.1114524E-1,-4.9752515E-2,-8.86059E-1,-8.0811715E-1,4.6011013E-1,4.2220697E-1,-7.9566115E-1,7.704685E-1,-5.4683816E-1,1.618752E-1,-9.524637E-1,-1.03660695E-1,1.7149421E0,-3.6828643E-1,3.2967776E-1,-6.3259286E-1,6.030639E-1,-1.0682158E0,-2.8775432E-4,-7.127345E-1,6.3716936E-1,1.4306945E-1,1.4859989E0],"categories":[],"categories_nodes":[],"categories_segments":[],"categories_sizes":[],"default_left":[1,1,0,1,1,1,1,1,1,1,1,1,1,1,1,1,1,1,1,1,1,1,1,1,1,1,1,1,1,1,1,1,0,0,0,0,0,0,0,0,0,0,0,0,0,0,0,0,0,0,0,0,0,0,0,0,0,0,0,0,0,0,0],"id":13,"left_children":[1,3,-1,5,7,9,11,13,15,17,19,21,23,25,27,29,31,33,35,37,39,41,43,45,47,49,51,53,55,57,59,61,-1,-1,-1,-1,-1,-1,-1,-1,-1,-1,-1,-1,-1,-1,-1,-1,-1,-1,-1,-1,-1,-1,-1,-1,-1,-1,-1,-1,-1,-1,-1],"loss_changes":[4.4052097E1,3.6881256E1,0E0,3.4127884E1,1.4042744E1,3.3781075E1,1.1956203E1,9.29071E0,6.094995E0,2.0520061E1,2.5073204E1,6.4315186E0,4.5927176E0,1.4435402E1,9.292879E0,6.6644344E0,4.3142743E0,1.7965038E1,2.010559E0,1.5934614E1,6.530063E1,3.8884773E0,9.265266E0,3.7909021E0,3.8078363E0,3.1684685E0,6.356715E0,8.9686575E0,4.8739586E0,3.4652905E0,6.6370583E0,3.3783503E0,0E0,0E0,0E0,0E0,0E0,0E0,0E0,0E0,0E0,0E0,0E0,0E0,0E0,0E0,0E0,0E0,0E0,0E0,0E0,0E0,0E0,0E0,0E0,0E0,0E0,0E0,0E0,0E0,0E0,0E0,0E0],"parents":[2147483647,0,0,1,1,3,3,4,4,5,5,6,6,7,7,8,8,9,9,10,10,11,11,12,12,13,13,14,14,15,15,16,16,17,17,18,18,19,19,20,20,21,21,22,22,23,23,24,24,25,25,26,26,27,27,28,28,29,29,30,30,31,31],"right_children":[2,4,-1,6,8,10,12,14,16,18,20,22,24,26,28,30,32,34,36,38,40,42,44,46,48,50,52,54,56,58,60,62,-1,-1,-1,-1,-1,-1,-1,-1,-1,-1,-1,-1,-1,-1,-1,-1,-1,-1,-1,-1,-1,-1,-1,-1,-1,-1,-1,-1,-1,-1,-1],"split_conditions":[1.9190329E1,7.53482E-1,6.257482E-1,9.1920996E-1,-1.3575E-1,9.430063E-1,3.978153E0,2.205199E-4,4.454231E2,8.695352E-1,9.167927E0,1.5095755E1,-1.6032337E1,3.681262E0,9.9999547E-1,1.814009E0,9.999997E-1,1.7752804E0,1.4824742E-1,6.9515574E-1,9.774824E0,1.1511028E0,9.5492834E2,-3.1966996E-1,3.8559277E3,9.999347E-1,3.9238414E4,9.220306E0,1.78978E1,6.1401514E2,1.1059659E-4,9.290108E0,-2.913399E-1,-1.6778673E-1,1.0480743E-1,2.986195E-1,1.0862651E0,-2.410475E-1,-2.765875E-2,3.5729757E-1,-5.557262E-2,-2.4876257E-2,-4.430295E-1,-4.0405858E-1,2.3005506E-1,2.1110348E-1,-3.9783058E-1,3.8523424E-1,-2.7341908E-1,8.09376E-2,-4.7623184E-1,-5.1830348E-2,8.5747105E-1,-1.8414322E-1,1.6483888E-1,-3.1629643E-1,3.0153194E-1,-5.341079E-1,-1.4387716E-4,-3.5636726E-1,3.1858468E-1,7.153472E-2,7.4299943E-1],"split_indices":[6,14,0,10,8,21,22,23,15,16,6,6,26,31,5,0,5,6,37,10,6,6,2,14,25,5,20,4,6,42,41,6,0,0,0,0,0,0,0,0,0,0,0,0,0,0,0,0,0,0,0,0,0,0,0,0,0,0,0,0,0,0,0],"split_type":[0,0,0,0,0,0,0,0,0,0,0,0,0,0,0,0,0,0,0,0,0,0,0,0,0,0,0,0,0,0,0,0,0,0,0,0,0,0,0,0,0,0,0,0,0,0,0,0,0,0,0,0,0,0,0,0,0,0,0,0,0,0,0],"sum_hessian":[2.308933E3,2.2832166E3,2.5716341E1,2.0190845E3,2.6413223E2,1.9045249E3,1.1455949E2,2.2547614E2,3.86561E1,8.694303E2,1.0350946E3,9.320731E1,2.1352177E1,7.606068E1,1.4941545E2,2.9137592E1,9.518509E0,8.6280084E2,6.6294866E0,3.5646213E2,6.786325E2,7.2088356E1,2.1118958E1,9.182304E0,1.2169872E1,6.865759E1,7.4030895E0,7.425999E1,7.515547E1,1.156683E1,1.7570763E1,8.270247E0,1.248262E0,6.44975E1,7.9830334E2,2.1006463E0,4.5288405E0,2.0249153E2,1.5397061E2,1.1430508E2,5.643274E2,6.197689E0,6.589066E1,1.0512524E1,1.0606435E1,3.2608323E0,5.921472E0,1.0202405E1,1.9674675E0,2.3732405E0,6.628435E1,5.542322E0,1.8607674E0,4.4117603E1,3.0142382E1,7.25778E1,2.5776794E0,6.4206543E0,5.1461754E0,3.940022E0,1.363074E1,3.0021334E0,5.268114E0],"tree_param":{"num_deleted":"0","num_feature":"48","num_nodes":"63","size_leaf_vector":"0"}},{"base_weights":[-1.7800393E-2,-4.971701E-1,7.577747E-3,5.3265864E-1,-5.669235E-1,6.8944015E-2,-1.8241131E-1,1.1171529E0,-1.1925559E0,4.3132472E-1,-6.161245E-1,-1.2422296E-1,1.6643555E-1,1.8506844E-1,-2.967043E-1,-2.2409208E-1,1.7365469E0,-5.46678E-1,1.527997E0,-6.697474E-1,1.7751712E-1,-2.4319857E-1,1.14994265E-1,6.991743E-2,3.601431E-1,3.490526E-2,8.1340224E-1,-3.712494E-1,1.2426714E-1,2.2402947E0,6.379138E-2,-2.8816767E-2,-7.31587E-1,7.814356E-1,-6.970939E-1,-4.140279E-1,6.3958406E-1,-5.7794785E-1,-1.02121234E-1,1.32384775E-2,5.930803E-1,1.0562183E0,4.885568E-2,2.1066622E-1,9.0467024E-1,-1.0632591E0,1.6283019E-1,-3.9398363E-1,1.025246E0,3.586184E-1,-4.203344E-1,-3.4022176E-1,3.7001097E-1,5.425457E-1,-7.3120606E-1,-8.3858967E-1,3.7290534E-1,-2.8727752E-1,1.097079E0,-6.7356527E-1,2.9438263E-1,-4.8687667E-1,3.7892997E-2,-6.934932E-1,9.750647E-2,9.7318006E-1,9.721722E-2,5.895967E-2,1.2936779E0,1.21021256E-1,-2.4358787E-1,-3.1443635E-1,3.0725306E-1,5.111494E-1,1.4030832E0,5.3505105E-1,-1.3494065E0,-2.4582335E-1,4.40293E-1,-8.623458E-1,2.3536493E-1,-2.8819045E-1,1.2305975E0,-7.2237146E-1,7.481079E-1,6.7629445E-1,-4.4769427E-1,-1.4717373E0,-1.7555197E-1,9.220428E-1,1.1716545E-1],"categories":[],"categories_nodes":[],"categories_segments":[],"categories_sizes":[],"default_left":[1,1,1,1,1,1,1,1,0,1,1,1,1,1,1,0,1,1,0,1,1,1,1,1,1,1,1,1,1,0,0,0,0,0,1,1,1,1,1,1,1,1,1,1,1,1,1,1,1,1,1,1,1,0,0,0,0,0,0,0,0,0,0,0,0,0,0,0,0,0,0,0,0,0,0,0,0,0,0,0,0,0,0,0,0,0,0,0,0,0,0],"id":14,"left_children":[1,3,5,7,9,11,13,15,-1,17,19,21,23,25,27,-1,29,31,-1,33,35,37,39,41,43,45,47,49,51,-1,-1,-1,-1,-1,53,55,57,59,61,63,65,67,69,71,73,75,77,79,81,83,85,87,89,-1,-1,-1,-1,-1,-1,-1,-1,-1,-1,-1,-1,-1,-1,-1,-1,-1,-1,-1,-1,-1,-1,-1,-1,-1,-1,-1,-1,-1,-1,-1,-1,-1,-1,-1,-1,-1,-1],"loss_changes":[2.7124374E1,8.354706E0,2.4708511E1,9.023071E0,5.446129E0,3.0185741E1,2.178653E1,5.550791E0,0E0,6.7800317E0,4.414303E0,1.5335369E1,1.9885406E1,1.1611362E1,1.2443363E1,0E0,3.5349312E0,3.2999408E-1,0E0,4.3050156E0,2.22691E0,1.691917E1,8.715929E0,1.4739511E1,2.8616531E1,1.43076E1,6.478833E0,1.2183483E1,6.995187E0,0E0,0E0,0E0,0E0,0E0,4.3517838E0,1.5673258E0,2.1907778E0,9.071186E0,1.3709065E1,8.934019E0,5.832367E0,3.4375973E0,1.4764317E1,1.4246719E1,1.4174442E1,5.5838394E0,1.0424478E1,1.4608951E0,5.879282E0,9.678611E0,9.758896E0,3.718518E0,5.4523225E0,0E0,0E0,0E0,0E0,0E0,0E0,0E0,0E0,0E0,0E0,0E0,0E0,0E0,0E0,0E0,0E0,0E0,0E0,0E0,0E0,0E0,0E0,0E0,0E0,0E0,0E0,0E0,0E0,0E0,0E0,0E0,0E0,0E0,0E0,0E0,0E0,0E0,0E0],"parents":[2147483647,0,0,1,1,2,2,3,3,4,4,5,5,6,6,7,7,9,9,10,10,11,11,12,12,13,13,14,14,16,16,17,17,19,19,20,20,21,21,22,22,23,23,24,24,25,25,26,26,27,27,28,28,34,34,35,35,36,36,37,37,38,38,39,39,40,40,41,41,42,42,43,43,44,44,45,45,46,46,47,47,48,48,49,49,50,50,51,51,52,52],"right_children":[2,4,6,8,10,12,14,16,-1,18,20,22,24,26,28,-1,30,32,-1,34,36,38,40,42,44,46,48,50,52,-1,-1,-1,-1,-1,54,56,58,60,62,64,66,68,70,72,74,76,78,80,82,84,86,88,90,-1,-1,-1,-1,-1,-1,-1,-1,-1,-1,-1,-1,-1,-1,-1,-1,-1,-1,-1,-1,-1,-1,-1,-1,-1,-1,-1,-1,-1,-1,-1,-1,-1,-1,-1,-1,-1,-1],"split_conditions":[8.550476E-6,6.543836E3,1.1341794E0,9.9895626E-1,6.0778633E3,5.7157034E-1,7.7121704E1,4.0538985E-2,-5.9627795E-1,7.735387E0,6.850691E0,3.980322E0,2.0223698E2,3.587669E3,1.00017505E3,-1.1204604E-1,9.172778E2,9.742402E-1,7.639985E-1,-1.2837737E0,3.0492352E-2,8.161413E4,9.980637E2,7.673305E2,1.3552962E1,4.6168193E-1,-5.419694E-1,7.998168E2,8.817319E4,1.1201473E0,3.189569E-2,-1.44083835E-2,-3.657935E-1,3.907178E-1,7.6151215E2,3.4090447E0,1.9597906E-6,-1.2994999E-1,9.965554E-2,3.3258255E1,3.5913582E4,2.8915372E0,8.608328E-2,-6.893264E-1,9.721184E-4,5.9254883E1,1.7421682E4,-1.8435001E-1,3.198547E0,2.3769617E-6,3.928982E-1,2.329484E-3,1.5023334E3,2.7127284E-1,-3.6560303E-1,-4.1929483E-1,1.8645267E-1,-1.4363876E-1,5.485395E-1,-3.3678263E-1,1.4719132E-1,-2.4343833E-1,1.8946499E-2,-3.467466E-1,4.8753235E-2,4.8659003E-1,4.860861E-2,2.9479835E-2,6.4683896E-1,6.0510628E-2,-1.2179393E-1,-1.5721817E-1,1.5362653E-1,2.555747E-1,7.015416E-1,2.6752552E-1,-6.7470324E-1,-1.2291168E-1,2.201465E-1,-4.311729E-1,1.17682464E-1,-1.4409523E-1,6.1529875E-1,-3.6118573E-1,3.7405396E-1,3.3814722E-1,-2.2384714E-1,-7.3586863E-1,-8.777598E-2,4.610214E-1,5.8582723E-2],"split_indices":[37,27,36,11,43,36,26,32,0,4,7,0,15,25,2,0,45,21,0,36,32,30,2,2,6,0,10,2,30,0,0,0,0,0,2,22,38,8,36,15,27,22,39,39,41,19,28,8,22,38,33,35,9,0,0,0,0,0,0,0,0,0,0,0,0,0,0,0,0,0,0,0,0,0,0,0,0,0,0,0,0,0,0,0,0,0,0,0,0,0,0],"split_type":[0,0,0,0,0,0,0,0,0,0,0,0,0,0,0,0,0,0,0,0,0,0,0,0,0,0,0,0,0,0,0,0,0,0,0,0,0,0,0,0,0,0,0,0,0,0,0,0,0,0,0,0,0,0,0,0,0,0,0,0,0,0,0,0,0,0,0,0,0,0,0,0,0,0,0,0,0,0,0,0,0,0,0,0,0,0,0,0,0,0,0],"sum_hessian":[2.228303E3,1.1110179E2,2.1172012E3,6.6269054E0,1.0447489E2,1.600786E3,5.1641504E2,5.213166E0,1.4137396E0,4.542602E0,9.993229E1,5.368374E2,1.0639486E3,1.2236442E2,3.9405066E2,1.848533E0,3.364633E0,2.6663163E0,1.8762856E0,9.375386E1,6.1784286E0,3.5851294E2,1.7832446E2,7.110277E2,3.5292087E2,9.961366E1,2.2750751E1,3.3487033E2,5.918033E1,2.3251376E0,1.0394953E0,1.0056653E0,1.6606511E0,1.2240196E0,9.252984E1,2.7551763E0,3.4232523E0,1.0537701E2,2.5313594E2,1.4787784E2,3.0446617E1,1.3838446E1,6.971893E2,2.779958E2,7.492509E1,9.630404E0,8.998326E1,3.2675939E0,1.9483158E1,2.0704172E1,3.1416614E2,2.0343645E1,3.883668E1,2.0788655E0,9.045097E1,1.7470014E0,1.008175E0,1.2542565E0,2.1689959E0,9.517284E1,1.0204176E1,6.6878426E1,1.862575E2,1.4983753E1,1.3289409E2,1.6690247E1,1.3756371E1,2.9014642E0,1.0936981E1,5.5966766E2,1.3752164E2,4.283953E1,2.3515625E2,4.300005E1,3.192504E1,1.3302563E0,8.300149E0,3.6434998E1,5.354826E1,1.6611464E0,1.6064475E0,2.5797253E0,1.6903433E1,5.257589E0,1.5446584E1,7.0700026E0,3.0709613E2,1.576099E0,1.8767546E1,1.13687935E1,2.7467888E1],"tree_param":{"num_deleted":"0","num_feature":"48","num_nodes":"91","size_leaf_vector":"0"}},{"base_weights":[-1.4307028E-2,-2.4521045E-2,1.1014721E0,-3.5728157E-2,9.913464E-1,3.7588644E-1,1.1560079E0,-3.7879488E-1,-4.728707E-3,-7.018596E-1,-9.158482E-2,3.1313527E-1,-4.034028E-2,-7.8443366E-1,1.755982E-1,3.685729E-1,-3.5128048E-1,2.1239357E-1,1.5585352E0,-1.3596147E-1,8.798022E-2,8.1753594E-1,-8.2732797E-1,6.2084204E-1,-5.7460344E-1,8.7653744E-1,-2.3408853E-1,-1.4180315E-1,-9.2628026E-1,3.4936916E-2,6.6081536E-1,3.6947397E-3,1.7873924E0,7.9953074E-2,-2.999378E-1,-1.486695E-1,1.8317628E-1],"categories":[],"categories_nodes":[],"categories_segments":[],"categories_sizes":[],"default_left":[1,1,1,1,0,0,0,1,1,1,1,1,1,1,1,1,1,1,1,1,1,0,0,0,0,0,0,0,0,0,0,0,0,0,0,0,0],"id":15,"left_children":[1,3,5,7,-1,-1,-1,9,11,13,15,17,19,21,23,25,27,29,31,33,35,-1,-1,-1,-1,-1,-1,-1,-1,-1,-1,-1,-1,-1,-1,-1,-1],"loss_changes":[2.4626905E1,2.4398386E1,3.4113503E-1,2.251804E1,0E0,0E0,0E0,1.621728E1,2.2007513E1,6.110317E0,1.13674E1,2.4243896E1,2.1462656E1,5.866024E0,2.9979024E0,1.0740433E1,7.171051E0,1.4489236E1,5.1533127E0,3.550415E1,1.6857399E1,0E0,0E0,0E0,0E0,0E0,0E0,0E0,0E0,0E0,0E0,0E0,0E0,0E0,0E0,0E0,0E0],"parents":[2147483647,0,0,1,1,2,2,3,3,7,7,8,8,9,9,10,10,11,11,12,12,13,13,14,14,15,15,16,16,17,17,18,18,19,19,20,20],"right_children":[2,4,6,8,-1,-1,-1,10,12,14,16,18,20,22,24,26,28,30,32,34,36,-1,-1,-1,-1,-1,-1,-1,-1,-1,-1,-1,-1,-1,-1,-1,-1],"split_conditions":[1.9138714E1,1.5996937E1,1.9202713E1,1.7750134E1,4.956732E-1,1.8794322E-1,5.7800394E-1,2.4959627E4,3.552785E2,2.0607601E1,1.0194389E1,1.03508965E2,9.199719E2,9.404014E1,3.8532126E0,3.428189E4,1.0629642E0,8.5434326E1,2.2720852E0,8.7221106E2,1.3325488E4,4.0876797E-1,-4.1366398E-1,3.1042102E-1,-2.8730172E-1,4.3826872E-1,-1.1704426E-1,-7.090157E-2,-4.6314013E-1,1.7468458E-2,3.3040768E-1,1.8473698E-3,8.936962E-1,3.9976537E-2,-1.499689E-1,-7.433475E-2,9.158814E-2],"split_indices":[6,0,6,15,0,0,0,28,9,4,3,3,2,9,0,43,36,15,22,2,28,0,0,0,0,0,0,0,0,0,0,0,0,0,0,0,0],"split_type":[0,0,0,0,0,0,0,0,0,0,0,0,0,0,0,0,0,0,0,0,0,0,0,0,0,0,0,0,0,0,0,0,0,0,0,0,0],"sum_hessian":[2.1575317E3,2.1389297E3,1.8602076E1,2.1165447E3,2.2385017E1,1.8521473E0,1.6749928E1,1.744716E2,1.942073E3,8.143111E1,9.304049E1,1.9487274E2,1.7472003E3,7.4523964E1,6.907141E0,3.3414215E1,5.9626278E1,