{"learner":{"attributes":{"best_iteration":"199","best_ntree_limit":"200","scikit_learn":"{\"use_label_encoder\": null, \"n_estimators\": 200, \"objective\": \"binary:logistic\", \"max_depth\": null, \"max_leaves\": null, \"max_bin\": null, \"grow_policy\": null, \"learning_rate\": 0.3, \"verbosity\": null, \"booster\": null, \"tree_method\": null, \"gamma\": null, \"min_child_weight\": null, \"max_delta_step\": null, \"subsample\": null, \"sampling_method\": null, \"colsample_bytree\": null, \"colsample_bylevel\": null, \"colsample_bynode\": null, \"reg_alpha\": null, \"reg_lambda\": null, \"scale_pos_weight\": null, \"base_score\": null, \"missing\": NaN, \"num_parallel_tree\": null, \"random_state\": null, \"n_jobs\": null, \"monotone_constraints\": null, \"interaction_constraints\": null, \"importance_type\": null, \"gpu_id\": null, \"validate_parameters\": null, \"predictor\": null, \"enable_categorical\": false, \"feature_types\": null, \"max_cat_to_onehot\": null, \"max_cat_threshold\": null, \"eval_metric\": null, \"early_stopping_rounds\": null, \"callbacks\": null, \"classes_\": [0, 1], \"n_classes_\": 2, \"_estimator_type\": \"classifier\"}"},"feature_names":["J_psi_M","costhetak","Pi_IPCHI2_OWNPV","Pi_PT","B0_IPCHI2_OWNPV","B0_ENDVERTEX_CHI2","Kstar_M","Pi_ProbNNmu","Kstar_ENDVERTEX_CHI2","B0_ENDVERTEX_Y","mu_minus_PX","mu_plus_PX","B0_PT","B0_ENDVERTEX_Z","mu_minus_ETA","mu_plus_ProbNNmu","B0_FD_OWNPV","mu_minus_PY","costhetal","mu_plus_PY","mu_minus_ProbNNp","J_psi_PZ","J_psi_FDCHI2_OWNPV","mu_plus_ETA","K_ETA","K_PT","B0_ENDVERTEX_X","Pi_PHI","mu_plus_ProbNNe","mu_plus_ProbNNk","mu_plus_PT","K_PE","Pi_ProbNNk","Pi_ProbNNp","Pi_PZ","Pi_P","mu_plus_IPCHI2_OWNPV","Pi_PY","mu_plus_ProbNNp"],"feature_types":["float","float","float","float","float","float","float","float","float","float","float","float","float","float","float","float","float","float","float","float","float","float","float","float","float","float","float","float","float","float","float","float","float","float","float","float","float","float","float"],"gradient_booster":{"model":{"gbtree_model_param":{"num_parallel_tree":"1","num_trees":"200","size_leaf_vector":"0"},"tree_info":[0,0,0,0,0,0,0,0,0,0,0,0,0,0,0,0,0,0,0,0,0,0,0,0,0,0,0,0,0,0,0,0,0,0,0,0,0,0,0,0,0,0,0,0,0,0,0,0,0,0,0,0,0,0,0,0,0,0,0,0,0,0,0,0,0,0,0,0,0,0,0,0,0,0,0,0,0,0,0,0,0,0,0,0,0,0,0,0,0,0,0,0,0,0,0,0,0,0,0,0,0,0,0,0,0,0,0,0,0,0,0,0,0,0,0,0,0,0,0,0,0,0,0,0,0,0,0,0,0,0,0,0,0,0,0,0,0,0,0,0,0,0,0,0,0,0,0,0,0,0,0,0,0,0,0,0,0,0,0,0,0,0,0,0,0,0,0,0,0,0,0,0,0,0,0,0,0,0,0,0,0,0,0,0,0,0,0,0,0,0,0,0,0,0,0,0,0,0,0,0],"trees":[{"base_weights":[1.9921405E0,-1.7028182E0,1.9975988E0,8.7603307E-1,-1.9924098E0,1.9989923E0,1.152439E0,1.8554217E0,-1.1428572E0,1.9996699E0,1.7515981E0,1.9153439E0,-8.032345E-1,5E-1,1.8987342E0,-1.5675676E0,1.1111112E0,1.8284383E0,-1.755102E0,-7.5E-1,1.9528403E0,-1.2704402E0,1.8596492E0,-1.7575758E0,-0E0,-1.1333333E0,1.9100047E0,-1.8222222E0,-5E-1,-1.3333334E0,5E-1,1.969795E0,-4E-1,-1.902439E0,-8.5427135E-1,-1.5471698E0,1.2727273E0,1.9710594E0,1.113924E0,1.9782135E0,7.692308E-1,4.1758242E-1,-1.8571428E0],"categories":[],"categories_nodes":[],"categories_segments":[],"categories_sizes":[],"default_left":[1,1,1,1,0,1,1,1,1,0,1,1,1,0,0,1,0,1,1,1,1,1,0,0,0,1,1,0,0,0,0,1,0,0,1,0,0,0,0,0,0,0,0],"id":0,"left_children":[1,3,5,7,-1,9,11,13,15,-1,17,19,21,-1,-1,23,-1,25,27,29,31,33,-1,-1,-1,35,37,-1,-1,-1,-1,39,-1,-1,41,-1,-1,-1,-1,-1,-1,-1,-1],"loss_changes":[3.9988125E3,2.2037518E2,2.30625E2,6.193315E1,0E0,2.96875E1,4.909121E2,2.687912E-1,1.1793221E1,0E0,1.5073584E2,2.5075623E1,1.17754196E2,0E0,0E0,2.7551174E0,0E0,1.3171277E2,1.2086105E-1,3.5833335E0,1.0092712E1,1.9284744E1,0E0,0E0,0E0,1.6904861E1,2.318811E1,0E0,0E0,0E0,0E0,8.206177E-1,0E0,0E0,6.4231926E1,0E0,0E0,0E0,0E0,0E0,0E0,0E0,0E0],"parents":[2147483647,0,0,1,1,2,2,3,3,5,5,6,6,7,7,8,8,10,10,11,11,12,12,15,15,17,17,18,18,19,19,20,20,21,21,25,25,26,26,31,31,34,34],"right_children":[2,4,6,8,-1,10,12,14,16,-1,18,20,22,-1,-1,24,-1,26,28,30,32,34,-1,-1,-1,36,38,-1,-1,-1,-1,40,-1,-1,42,-1,-1,-1,-1,-1,-1,-1,-1],"split_conditions":[2.8965264E3,2.217687E-3,9.7472864E-1,7.8611815E-1,-5.9772295E-1,8.11103E-1,8.0377245E-1,1.9031001E3,3.1306934E-2,5.99901E-1,3.1576306E3,3.0197114E3,-3.644446E-1,1.5E-1,5.696203E-1,1.118509E4,3.3333337E-1,3.0194785E3,3.510439E3,2.3806912E3,3.1423232E3,3.0724185E3,5.5789477E-1,-5.2727276E-1,-0E0,-2.8301376E-1,9.6772957E-1,-5.466667E-1,-1.5E-1,-4.0000004E-1,1.5E-1,1.0719373E3,-1.20000005E-1,-5.707317E-1,3.1201064E3,-4.6415097E-1,3.818182E-1,5.9131783E-1,3.3417723E-1,5.934641E-1,2.3076925E-1,1.2527473E-1,-5.5714285E-1],"split_indices":[0,7,7,18,0,7,18,0,1,0,0,0,1,0,0,30,0,0,3,3,0,0,0,0,0,1,18,0,0,0,0,6,0,0,0,0,0,0,0,0,0,0,0],"split_type":[0,0,0,0,0,0,0,0,0,0,0,0,0,0,0,0,0,0,0,0,0,0,0,0,0,0,0,0,0,0,0,0,0,0,0,0,0,0,0,0,0,0,0],"sum_hessian":[1.98104E5,2.9175E2,1.9781225E5,2.925E1,2.625E2,1.9748525E5,3.27E2,1.975E1,9.5E0,1.9693875E5,5.465E2,2.3525E2,9.175E1,1E0,1.875E1,8.25E0,1.25E0,5.3525E2,1.125E1,3E0,2.3225E2,7.85E1,1.325E1,7.25E0,1E0,1.4E1,5.2125E2,1.025E1,1E0,2E0,1E0,2.3075E2,1.5E0,2.975E1,4.875E1,1.225E1,1.75E0,4.8275E2,3.85E1,2.285E2,2.25E0,2.175E1,2.7E1],"tree_param":{"num_deleted":"0","num_feature":"39","num_nodes":"43","size_leaf_vector":"0"}},{"base_weights":[1.5426073E0,-1.2997037E0,1.5468642E0,7.215115E-1,-1.5410396E0,1.5479598E0,8.879074E-1,1.4547071E0,-8.6897916E-1,1.5481598E0,9.987472E-1,1.4862685E0,-5.876639E-1,1.4957557E0,4.1522378E-1,-1.2275046E0,9.4189215E-1,1.5485469E0,1.3786731E0,1.50383E0,-1.2695022E0,-1.0384051E0,1.5081953E0,-9.675527E-1,1.3766823E0,-1.3855139E0,-0E0,-5.426924E-1,1.45986E0,1.5208187E0,4.7463936E-1,-1.6640116E0,9.5350003E-1,1.5226423E0,-3.287948E-1,-1.4728878E0,-6.56574E-1,1.716044E-1,1.4669405E0,1.2545402E0,-1.2757747E0,1.5004078E0,-1.8758266E-1,-1.7431812E0,-5.154619E-1,1.532934E0,4.5707765E-1,-1.5067545E0,-3.739698E-1,2.0217927E-1,-1.5077318E0],"categories":[],"categories_nodes":[],"categories_segments":[],"categories_sizes":[],"default_left":[1,1,1,1,0,1,1,1,1,1,1,1,1,0,0,1,0,0,1,1,1,0,1,1,1,0,0,1,1,0,0,1,0,1,0,1,1,0,0,0,0,0,0,0,0,0,0,0,0,0,0],"id":1,"left_children":[1,3,5,7,-1,9,11,13,15,17,19,21,23,-1,-1,25,-1,-1,27,29,31,-1,33,35,37,-1,-1,39,41,-1,-1,43,-1,45,-1,47,49,-1,-1,-1,-1,-1,-1,-1,-1,-1,-1,-1,-1,-1,-1],"loss_changes":[2.1956562E3,1.3363208E2,1.293125E2,3.585102E1,0E0,1.83125E1,2.682594E2,2.6110458E-1,7.638526E0,9.71875E0,8.054569E1,1.3509674E1,6.706841E1,0E0,0E0,1.7007246E0,0E0,0E0,6.642084E1,2.677307E-1,1.3025179E1,0E0,6.1879272E0,1.0725235E1,1.3458633E0,0E0,0E0,2.503372E1,2.7264587E1,0E0,0E0,1.4182091E-1,0E0,1.6330261E0,0E0,4.6146774E-1,3.5289597E1,0E0,0E0,0E0,0E0,0E0,0E0,0E0,0E0,0E0,0E0,0E0,0E0,0E0,0E0],"parents":[2147483647,0,0,1,1,2,2,3,3,5,5,6,6,7,7,8,8,9,9,10,10,11,11,12,12,15,15,18,18,19,19,20,20,22,22,23,23,24,24,27,27,28,28,31,31,33,33,35,35,36,36],"right_children":[2,4,6,8,-1,10,12,14,16,18,20,22,24,-1,-1,26,-1,-1,28,30,32,-1,34,36,38,-1,-1,40,42,-1,-1,44,-1,46,-1,48,50,-1,-1,-1,-1,-1,-1,-1,-1,-1,-1,-1,-1,-1,-1],"split_conditions":[2.8999783E3,2.2434231E-3,9.7472864E-1,7.8611815E-1,-4.623119E-1,3.1978481E3,7.9737246E-1,6.657415E-5,3.1306934E-2,8.475944E-1,8.7002015E-1,2.9868208E3,-3.8328242E-1,4.487267E-1,1.24567136E-1,1.118509E4,2.8256765E-1,4.6456409E-1,3.0375771E3,4.6411734E0,-4.4238302E-1,-3.1152153E-1,3.1423232E3,3.0724185E3,3.0718916E3,-4.1565418E-1,-0E0,7.499136E-1,3.133136E3,4.5624563E-1,1.4239182E-1,1.4808179E3,2.8605002E-1,1.0719373E3,-9.8638445E-2,1.6783339E1,3.1334973E3,5.148132E-2,4.4008216E-1,3.763621E-1,-3.8273242E-1,4.5012236E-1,-5.6274798E-2,-5.229544E-1,-1.5463859E-1,4.598802E-1,1.371233E-1,-4.5202637E-1,-1.1219094E-1,6.0653783E-2,-4.5231956E-1],"split_indices":[0,7,7,18,0,0,18,28,1,7,18,0,1,0,0,30,0,0,0,14,1,0,0,0,0,0,0,18,0,0,0,37,0,6,0,5,0,0,0,0,0,0,0,0,0,0,0,0,0,0,0],"split_type":[0,0,0,0,0,0,0,0,0,0,0,0,0,0,0,0,0,0,0,0,0,0,0,0,0,0,0,0,0,0,0,0,0,0,0,0,0,0,0,0,0,0,0,0,0,0,0,0,0,0,0],"sum_hessian":[1.813055E5,2.7067374E2,1.8103481E5,2.865929E1,2.4201445E2,1.8073298E5,3.0184128E2,1.9674822E1,8.9844675E0,1.8066534E5,6.763905E1,2.1475032E2,8.7090965E1,1.8505125E1,1.169697E0,7.7685566E0,1.2159108E0,1.8024561E5,4.1972363E2,5.5596176E1,1.2042877E1,1.4499028E0,2.1330042E2,7.340288E1,1.3688087E1,6.7685566E0,1E0,1.6785854E1,4.0293777E2,5.422343E1,1.372745E0,1.0441341E1,1.6015359E0,2.118058E2,1.4946129E0,2.6539822E1,4.686306E1,1.1559361E0,1.2532151E1,4.6571097E0,1.2128743E1,3.9334576E2,9.592016E0,9.283692E0,1.1576493E0,2.0934525E2,2.460569E0,2.5386332E1,1.1534895E0,2.3706984E1,2.3156075E1],"tree_param":{"num_deleted":"0","num_feature":"39","num_nodes":"51","size_leaf_vector":"0"}},{"base_weights":[1.3392227E0,-1.0693039E0,1.3430196E0,7.4680245E-1,-1.3395377E0,1.3442512E0,9.0104985E-1,1.2680752E0,-5.122651E-1,-2.4738854E-2,-1.3458546E0,1.3443725E0,9.300688E-1,1.2821884E0,-2.484439E-1,1.3057567E0,2.3707399E-1,-1.0354927E0,9.8184144E-1,1.3447168E0,1.2478684E0,1.292337E0,-8.748333E-1,-6.406099E-1,1.3161637E0,-7.063696E-1,1.3321667E0,-1.2047944E0,-2.8149422E-2,-2.8300997E-2,1.2874491E0,1.3129822E0,2.927228E-1,-1.3436896E0,8.3515596E-1,4.7320446E-1,-1.1519028E0,1.3249668E0,-5.124207E-1,-3.8436073E-1,-1.3699753E0,9.877583E-1,-1.3118155E0,1.3113939E0,-7.147458E-1,2.943068E-1,1.3273963E0,-1.1828872E0,4.2411423E-1,-3.37073E-1,-1.3972746E0],"categories":[],"categories_nodes":[],"categories_segments":[],"categories_sizes":[],"default_left":[1,1,1,1,1,1,1,1,1,0,0,1,1,1,1,0,0,1,0,0,1,1,1,1,1,1,0,0,0,1,1,0,0,0,0,0,0,1,0,1,1,0,0,0,0,0,0,0,0,0,0],"id":2,"left_children":[1,3,5,7,9,11,13,15,17,-1,-1,19,21,23,25,-1,-1,27,-1,-1,29,31,33,35,37,39,-1,-1,-1,41,43,-1,-1,-1,-1,-1,-1,45,-1,47,49,-1,-1,-1,-1,-1,-1,-1,-1,-1,-1],"loss_changes":[1.3834688E3,1.1801318E2,8.09375E1,2.1339457E1,1.6933899E0,6.3125E0,1.8535931E2,5.6773376E-1,8.789197E0,0E0,0E0,3.34375E0,3.2068203E1,2.1574768E1,7.7669266E1,0E0,0E0,1.304923E0,0E0,0E0,2.7747192E1,4.372177E-1,7.9415154E0,4.0660496E0,5.7039795E0,1.717693E1,0E0,0E0,0E0,2.4093992E1,2.6448181E1,0E0,0E0,0E0,0E0,0E0,0E0,3.8787842E-1,0E0,3.741044E1,2.8124237E-1,0E0,0E0,0E0,0E0,0E0,0E0,0E0,0E0,0E0,0E0],"parents":[2147483647,0,0,1,1,2,2,3,3,4,4,5,5,6,6,7,7,8,8,11,11,12,12,13,13,14,14,17,17,20,20,21,21,22,22,23,23,24,24,25,25,29,29,30,30,37,37,39,39,40,40],"right_children":[2,4,6,8,10,12,14,16,18,-1,-1,20,22,24,26,-1,-1,28,-1,-1,30,32,34,36,38,40,-1,-1,-1,42,44,-1,-1,-1,-1,-1,-1,46,-1,48,50,-1,-1,-1,-1,-1,-1,-1,-1,-1,-1],"split_conditions":[2.9178071E3,2.2434231E-3,9.328388E-1,7.8611815E-1,3.159399E-1,3.2046887E3,8.40933E-1,6.150179E4,2.9020365E-2,-7.4216565E-3,-4.037564E-1,6.198037E-1,8.7002015E-1,3.0197114E3,-3.6469826E-1,3.9172703E-1,7.11222E-2,2.8058564E3,2.9455245E-1,4.0341505E-1,3.0403547E3,4.6411734E0,-4.773485E-1,6.796085E-1,3.1554739E3,3.1290806E3,3.9965E-1,-3.6143833E-1,-8.444827E-3,9.205855E-1,3.1453745E3,3.9389467E-1,8.781684E-2,-4.031069E-1,2.505468E-1,1.4196135E-1,-3.4557086E-1,1.4875151E4,-1.5372622E-1,3.0833936E3,-7.281477E3,2.963275E-1,-3.9354467E-1,3.9341816E-1,-2.1442376E-1,8.829205E-2,3.982189E-1,-3.5486618E-1,1.2723428E-1,-1.011219E-1,-4.191824E-1],"split_indices":[0,7,7,18,18,0,18,34,1,0,0,7,18,0,1,0,0,0,0,0,0,14,1,18,0,0,0,0,0,18,0,0,0,0,0,0,0,21,0,0,11,0,0,0,0,0,0,0,0,0,0],"split_type":[0,0,0,0,0,0,0,0,0,0,0,0,0,0,0,0,0,0,0,0,0,0,0,0,0,0,0,0,0,0,0,0,0,0,0,0,0,0,0,0,0,0,0,0,0,0,0,0,0,0,0],"sum_hessian":[1.5112652E5,2.3742537E2,1.508891E5,3.0524166E1,2.069012E2,1.5046773E5,4.213554E2,2.1581818E1,8.942349E0,1.0128016E0,2.058884E2,1.5042142E5,4.6315464E1,3.1634818E2,1.05007225E2,2.0563751E1,1.0180664E0,6.850346E0,2.092003E0,1.4987383E5,5.4760114E2,3.88098E1,7.505665E0,5.1827126E0,3.1116547E2,8.184783E1,2.3159395E1,5.696874E0,1.1534722E0,1.648161E1,5.311195E2,3.7717327E1,1.092474E0,6.05867E0,1.4469949E0,1.6540276E0,3.528685E0,3.0994873E2,1.2167317E0,5.61707E1,2.5677135E1,9.327877E0,7.1537323E0,5.251837E2,5.9357824E0,1.0161079E0,3.0893262E2,2.802623E1,2.8144468E1,1.0048448E0,2.467229E1],"tree_param":{"num_deleted":"0","num_feature":"39","num_nodes":"51","size_leaf_vector":"0"}},{"base_weights":[1.2249196E0,-9.692351E-1,1.2284081E0,6.6179234E-1,-1.222175E0,1.2297361E0,8.1744725E-1,1.183495E0,-3.712105E-1,-2.1019854E-2,-1.2293844E0,1.230153E0,1.1161815E0,1.1954548E0,-1.02163024E-1,-8.588373E-1,9.040081E-1,1.148896E0,-1.1119107E0,-4.8018286E-1,1.2051597E0,-5.5118835E-1,1.1445628E0,-1.062749E0,5.9934847E-2,-3.3653125E-1,1.1803448E0,5.856447E-1,-1.554858E0,1.2133615E0,-2.1865895E-1,-1.8065074E-1,-1.1406894E0,-6.77273E-1,1.2324079E0,-1.7049482E0,4.090073E-1,1.2133276E0,7.028844E-1,1.2211453E0,4.6124867E-1,-9.841893E-1,6.991917E-1,3.4288812E-1,-1.2040099E0],"categories":[],"categories_nodes":[],"categories_segments":[],"categories_sizes":[],"default_left":[1,1,1,1,1,1,1,0,1,0,0,0,1,1,1,1,0,1,1,0,1,1,1,0,0,1,1,0,0,1,0,1,1,0,0,0,0,0,0,0,0,0,0,0,0],"id":3,"left_children":[1,3,5,7,9,11,13,-1,15,-1,-1,-1,17,19,21,23,-1,25,27,-1,29,31,33,-1,-1,35,37,-1,-1,39,-1,41,43,-1,-1,-1,-1,-1,-1,-1,-1,-1,-1,-1,-1],"loss_changes":[9.24625E2,8.004526E1,6.471875E1,1.4685735E1,1.4170837E0,4.328125E0,1.3603024E2,0E0,6.7658014E0,0E0,0E0,0E0,3.40791E1,5.0856934E0,6.490487E1,1.4651341E0,0E0,2.1138184E1,6.189086E0,0E0,3.4865417E0,1.8379599E1,5.752201E0,0E0,0E0,1.0882318E1,5.9976807E0,0E0,0E0,1.0432739E0,0E0,3.8465755E1,3.4801903E0,0E0,0E0,0E0,0E0,0E0,0E0,0E0,0E0,0E0,0E0,0E0,0E0],"parents":[2147483647,0,0,1,1,2,2,3,3,4,4,5,5,6,6,8,8,12,12,13,13,14,14,15,15,17,17,18,18,20,20,21,21,22,22,25,25,26,26,29,29,31,31,32,32],"right_children":[2,4,6,8,10,12,14,-1,16,-1,-1,-1,18,20,22,24,-1,26,28,-1,30,32,34,-1,-1,36,38,-1,-1,40,-1,42,44,-1,-1,-1,-1,-1,-1,-1,-1,-1,-1,-1,-1],"split_conditions":[2.9178071E3,2.2434231E-3,9.1338325E-1,7.5443006E-1,3.159399E-1,5.81864E-1,7.9764915E-1,3.5504854E-1,2.9020365E-2,-6.3059563E-3,-3.6881533E-1,3.690459E-1,3.1580132E3,2.9845293E3,-4.196368E-1,2.8058564E3,2.7120245E-1,3.0199053E3,8.7963456E-1,-1.4405486E-1,3.1554739E3,3.1095923E3,3.0004727E3,-3.188247E-1,1.7980454E-2,1.1260862E3,9.732343E-1,1.7569342E-1,-4.664574E-1,1.0719373E3,-6.559769E-2,3.084794E3,4.8006463E-5,-2.0318191E-1,3.697224E-1,-5.114845E-1,1.22702196E-1,3.639983E-1,2.1086532E-1,3.663436E-1,1.3837461E-1,-2.952568E-1,2.0975752E-1,1.0286644E-1,-3.6120299E-1],"split_indices":[0,7,7,18,18,7,18,0,1,0,0,0,0,0,1,0,0,0,18,0,0,0,0,0,0,3,18,0,0,6,0,0,29,0,0,0,0,0,0,0,0,0,0,0,0],"split_type":[0,0,0,0,0,0,0,0,0,0,0,0,0,0,0,0,0,0,0,0,0,0,0,0,0,0,0,0,0,0,0,0,0,0,0,0,0,0,0,0,0,0,0,0,0],"sum_hessian":[1.2064331E5,1.910641E2,1.2045224E5,2.5435091E1,1.6562901E2,1.2006228E5,3.8996777E2,1.6803202E1,8.631889E0,1.0115461E0,1.6461746E2,1.19613266E5,4.490107E2,2.761541E2,1.13813644E2,6.480391E0,2.1514986E0,4.4299078E2,6.019947E0,1.311033E0,2.7484308E2,8.40866E1,2.9727043E1,5.1751223E0,1.3052691E0,8.983244E0,4.3400754E2,1.1790787E0,4.8408685E0,2.7341592E2,1.4271784E0,5.243465E1,3.1651953E1,1.0587863E0,2.8668257E1,2.7143168E0,6.268927E0,4.0452203E2,2.9485489E1,2.6999802E2,3.4178972E0,2.7343712E1,2.5090939E1,1.1149096E0,3.0537043E1],"tree_param":{"num_deleted":"0","num_feature":"39","num_nodes":"45","size_leaf_vector":"0"}},{"base_weights":[1.1537657E0,-9.025454E-1,1.1570703E0,5.762487E-1,-1.1531807E0,1.1585155E0,7.518463E-1,1.1096575E0,-3.520145E-1,1.1589655E0,1.0315053E0,1.1226261E0,-4.7557827E-2,-7.650457E-1,8.100039E-1,1.1590576E0,1.0068065E0,1.0710875E0,-6.646291E-1,-1.0870356E-2,1.1358008E0,-4.4092563E-1,1.0656404E0,-9.512146E-1,-9.582958E-3,1.0928739E0,-1.7406019E0,1.0132872E-1,1.121462E0,9.6907467E-1,-1.3819106E0,-7.729248E-1,8.383081E-1,1.144842E0,-1.814566E-1,-2.0081794E-1,-1.1516614E0,-3.9234543E-1,1.1427623E0,1.1157076E0,-9.9417426E-2,9.8158133E-1,-1.0326855E0,1.1325961E0,5.0218666E-1,-1.5728046E0,-2.067455E-1,2.1623519E-1,1.1483592E0,-1.0428373E0,2.188158E-1,-1.191009E0,-2.0862933E-1],"categories":[],"categories_nodes":[],"categories_segments":[],"categories_sizes":[],"default_left":[1,1,1,1,0,1,1,0,1,1,1,1,1,1,0,0,1,1,1,1,1,1,1,0,0,1,0,1,1,0,1,0,0,1,0,1,1,0,0,0,0,0,0,0,0,0,0,0,0,0,0,0,0],"id":4,"left_children":[1,3,5,7,-1,9,11,-1,13,15,17,19,21,23,-1,-1,25,27,29,31,33,35,37,-1,-1,39,-1,41,43,-1,45,-1,-1,47,-1,49,51,-1,-1,-1,-1,-1,-1,-1,-1,-1,-1,-1,-1,-1,-1,-1,-1],"loss_changes":[6.396719E2,5.6760986E1,5.4078125E1,1.1581442E1,0E0,4.15625E0,9.9731415E1,0E0,4.9426107E0,1.40625E-1,2.3481781E1,3.443756E0,4.7550568E1,9.978013E-1,0E0,0E0,1.7046143E1,1.6095398E1,1.1125551E1,2.9973652E0,2.9129333E0,1.3446636E1,3.6378136E0,0E0,0E0,1.8182297E0,0E0,1.8466501E1,1.6053772E0,0E0,1.0691862E0,0E0,0E0,4.8895264E-1,0E0,2.1825E1,4.9469566E-1,0E0,0E0,0E0,0E0,0E0,0E0,0E0,0E0,0E0,0E0,0E0,0E0,0E0,0E0,0E0,0E0],"parents":[2147483647,0,0,1,1,2,2,3,3,5,5,6,6,8,8,9,9,10,10,11,11,12,12,13,13,16,16,17,17,18,18,19,19,20,20,21,21,22,22,25,25,27,27,28,28,30,30,33,33,35,35,36,36],"right_children":[2,4,6,8,-1,10,12,-1,14,16,18,20,22,24,-1,-1,26,28,30,32,34,36,38,-1,-1,40,-1,42,44,-1,46,-1,-1,48,-1,50,52,-1,-1,-1,-1,-1,-1,-1,-1,-1,-1,-1,-1,-1,-1,-1,-1],"split_conditions":[2.9178071E3,9.232157E-2,9.0088344E-1,7.5443006E-1,-3.4595424E-1,5.819744E-1,7.848842E-1,3.3289728E-1,2.9020365E-2,3.1733867E3,3.145371E3,3.0197114E3,-4.196368E-1,2.8058564E3,2.4300118E-1,3.477173E-1,1.1031735E-1,3.0537334E3,6.725832E-1,-6.767745E-1,3.1554739E3,3.1333965E3,3.0153438E3,-2.853644E-1,-2.8748875E-3,6.5696764E-1,-5.221806E-1,8.9574504E-1,9.9360853E-1,2.907224E-1,1.1846757E4,-2.3187745E-1,2.5149244E-1,1.5471128E4,-5.443698E-2,3.0626963E3,1.1888003E4,-1.1770363E-1,3.428287E-1,3.347123E-1,-2.982523E-2,2.9447442E-1,-3.0980566E-1,3.3977884E-1,1.50656E-1,-4.718414E-1,-6.2023655E-2,6.487056E-2,3.4450775E-1,-3.128512E-1,6.564474E-2,-3.5730273E-1,-6.25888E-2],"split_indices":[0,7,7,18,0,7,18,0,1,0,0,0,1,0,0,0,7,0,18,1,0,0,0,0,0,32,0,18,18,0,12,0,0,21,0,0,30,0,0,0,0,0,0,0,0,0,0,0,0,0,0,0,0],"split_type":[0,0,0,0,0,0,0,0,0,0,0,0,0,0,0,0,0,0,0,0,0,0,0,0,0,0,0,0,0,0,0,0,0,0,0,0,0,0,0,0,0,0,0,0,0,0,0,0,0,0,0,0,0],"sum_hessian":[9.398036E4,1.5035107E2,9.383001E4,2.1601158E1,1.2874992E2,9.349471E4,3.352924E2,1.3594133E1,8.007025E0,9.3156555E4,3.3815677E2,2.2877678E2,1.0651562E2,6.1593504E0,1.847674E0,9.3093516E4,6.3043465E1,3.3080536E2,7.3513937E0,2.6305714E0,2.2614621E2,7.9150375E1,2.7365236E1,4.733707E0,1.4256438E0,6.171243E1,1.3310353E0,1.6483976E1,3.1432138E2,2.1357963E0,5.215597E0,1.4337333E0,1.1968381E0,2.247346E2,1.4116037E0,6.012195E1,1.902843E1,1.1694499E0,2.6195787E1,6.06158E1,1.0966288E0,9.356009E0,7.1279683E0,3.0795563E2,6.3657684E0,4.1956816E0,1.0199158E0,1.0837497E0,2.2365085E2,1.950298E1,4.061897E1,1.8013855E1,1.0145761E0],"tree_param":{"num_deleted":"0","num_feature":"39","num_nodes":"53","size_leaf_vector":"0"}},{"base_weights":[1.1067679E0,-8.529932E-1,1.1099606E0,5.263106E-1,-1.1015198E0,1.1116322E0,7.034961E-1,9.9746615E-1,-3.710369E-1,-1.1072192E0,-2.860163E-1,1.1121496E0,9.866333E-1,1.0902206E0,1.7846562E-2,1.0467788E0,2.1680461E-1,-7.4013126E-1,6.933681E-1,1.1122639E0,9.289413E-1,1.0238684E0,-5.349696E-1,2.7798298E-1,1.0978119E0,-3.6031988E-1,1.0306644E0,5.153542E-2,-9.3385583E-1,1.0279458E0,-1.4127736E0,4.323068E-2,1.0743501E0,8.1980467E-1,-1.4118414E0,-3.3394969E-1,7.415817E-1,1.8645343E-1,1.1019111E0,-8.280665E-2,-9.294311E-1,-3.5913068E-1,1.0966781E0,1.0753232E0,5.731833E-2,-8.0525476E-1,1.0915323E0,1.0875635E0,5.640082E-1,-1.6155238E0,-2.8749496E-1,1.1046516E0,3.480127E-1,-9.134295E-1,4.8246926E-1,-1.1107689E0,1.2785968E-1],"categories":[],"categories_nodes":[],"categories_segments":[],"categories_sizes":[],"default_left":[1,1,1,1,1,1,1,1,1,0,0,1,1,1,1,0,0,1,0,0,1,1,1,1,1,1,1,0,0,1,0,1,1,0,1,0,0,0,1,1,1,0,0,0,0,0,0,0,0,0,0,0,0,0,0,0,0],"id":5,"left_children":[1,3,5,7,9,11,13,15,17,-1,-1,19,21,23,25,-1,-1,27,-1,-1,29,31,33,35,37,39,41,-1,-1,43,-1,45,47,-1,49,-1,-1,-1,51,53,55,-1,-1,-1,-1,-1,-1,-1,-1,-1,-1,-1,-1,-1,-1,-1,-1],"loss_changes":[4.5208594E2,4.0974403E1,4.8132812E1,8.2626E0,1.489029E-1,3.546875E0,7.888097E1,2.5471306E-1,3.3244822E0,0E0,0E0,4.53125E-1,1.7790741E1,8.6782837E-1,4.1861084E1,0E0,0E0,9.3719816E-1,0E0,0E0,1.3183033E1,1.4676849E1,1.057373E1,1.1272715E0,4.9739075E-1,1.2497134E1,3.119526E0,0E0,0E0,2.197422E0,0E0,1.4757129E1,1.2936401E0,0E0,7.216501E-1,0E0,0E0,0E0,2.090454E-3,2.6084663E1,5.126747E0,0E0,0E0,0E0,0E0,0E0,0E0,0E0,0E0,0E0,0E0,0E0,0E0,0E0,0E0,0E0,0E0],"parents":[2147483647,0,0,1,1,2,2,3,3,4,4,5,5,6,6,7,7,8,8,11,11,12,12,13,13,14,14,17,17,20,20,21,21,22,22,23,23,24,24,25,25,26,26,29,29,31,31,32,32,34,34,38,38,39,39,40,40],"right_children":[2,4,6,8,10,12,14,16,18,-1,-1,20,22,24,26,-1,-1,28,-1,-1,30,32,34,36,38,40,42,-1,-1,44,-1,46,48,-1,50,-1,-1,-1,52,54,56,-1,-1,-1,-1,-1,-1,-1,-1,-1,-1,-1,-1,-1,-1,-1,-1],"split_conditions":[2.9178071E3,9.232157E-2,8.796717E-1,7.8611815E-1,3.375321E0,4.949708E-1,7.406991E-1,2.577901E0,2.9020365E-2,-3.3216578E-1,-8.580489E-2,3.1734087E3,3.145371E3,3.0194263E3,-4.2130044E-1,3.1403366E-1,6.5041386E-2,-6.011183E3,2.0801044E-1,3.336792E-1,1.1031735E-1,3.051792E3,8.964956E-1,-6.5869045E-1,1.5471128E4,3.1115032E3,3.0004727E3,1.5460626E-2,-2.8015676E-1,1.5888989E-1,-4.238321E-1,-3.9600033E-1,3.12382E3,2.4594142E-1,8.3533067E-1,-1.0018491E-1,2.2247452E-1,5.593603E-2,4.5113707E0,3.076128E3,1.9519871E4,-1.0773921E-1,3.2900345E-1,3.2259697E-1,1.71955E-2,-2.4157643E-1,3.2745972E-1,3.2626906E-1,1.6920246E-1,-4.8465717E-1,-8.624849E-2,3.3139548E-1,1.0440381E-1,-2.7402887E-1,1.4474079E-1,-3.3323067E-1,3.8357906E-2],"split_indices":[0,7,7,18,9,7,18,27,1,0,0,0,0,0,1,0,0,19,0,0,7,0,18,1,21,0,0,0,0,33,0,1,0,0,7,0,0,0,24,0,12,0,0,0,0,0,0,0,0,0,0,0,0,0,0,0,0],"split_type":[0,0,0,0,0,0,0,0,0,0,0,0,0,0,0,0,0,0,0,0,0,0,0,0,0,0,0,0,0,0,0,0,0,0,0,0,0,0,0,0,0,0,0,0,0,0,0,0,0,0,0,0,0,0,0,0,0],"sum_hessian":[7.2101164E4,1.1683957E2,7.198433E4,1.7667658E1,9.9171906E1,7.1687766E4,2.9656067E2,1.1511784E1,6.1558743E0,9.8128395E1,1.0435144E0,7.138442E4,3.033401E2,1.8923633E2,1.0732434E2,1.0507181E1,1.0046029E0,4.797084E0,1.3587902E0,7.133483E4,4.959858E1,2.964137E2,6.92642E0,2.1006267E0,1.871357E2,7.8615204E1,2.870914E1,1.0873878E0,3.7096963E0,4.8124954E1,1.4736266E0,1.4602761E1,2.818109E2,2.7471423E0,4.179278E0,1.0260016E0,1.0746251E0,1.0460815E0,1.8608961E2,5.361611E1,2.4999092E1,1.1004729E0,2.760867E1,4.57824E1,2.3425558E0,8.198677E0,6.4040837E0,2.735962E2,8.214745E0,3.168439E0,1.010839E0,1.8495204E2,1.1375688E0,2.146269E1,3.215342E1,2.1295996E1,3.7030954E0],"tree_param":{"num_deleted":"0","num_feature":"39","num_nodes":"57","size_leaf_vector":"0"}},{"base_weights":[1.0744764E0,-8.784507E-1,1.0775048E0,3.6049765E-1,-1.0674415E0,1.0796701E0,6.685976E-1,9.3955696E-1,-3.57269E-1,1.0798818E0,7.803512E-1,1.0634396E0,4.6119407E-2,6.076716E-1,-6.859164E-1,1.0802531E0,9.667971E-1,1.0333666E0,-7.363126E-1,1.0841821E0,5.747316E-1,-3.1896868E-1,1.0468607E0,3.1174479E-2,-8.990906E-1,-6.927167E-2,1.0126415E0,1.0588577E0,7.96427E-2,-1.2723964E0,6.5672076E-1,9.091968E-1,-9.4027424E-1,-1.0430119E-1,-1.2115313E0,1.0781654E0,7.907018E-2,-1.2211189E0,6.5836334E-1,1.0334781E0,-3.825866E-1,-1.5051062E0,-1.6703328E-1,-8.5632175E-1,1.9659762E-1,4.181574E-1,-1.3500572E0],"categories":[],"categories_nodes":[],"categories_segments":[],"categories_sizes":[],"default_left":[1,1,1,1,0,1,1,0,1,1,1,1,1,0,1,0,1,1,1,0,1,1,1,0,0,1,1,0,0,1,0,0,0,1,1,0,0,0,0,0,0,0,0,0,0,0,0],"id":6,"left_children":[1,3,5,7,-1,9,11,-1,13,15,17,19,21,-1,23,-1,25,27,29,-1,31,33,35,-1,-1,37,39,-1,-1,41,-1,-1,-1,43,45,-1,-1,-1,-1,-1,-1,-1,-1,-1,-1,-1,-1],"loss_changes":[3.2483594E2,2.0367935E1,4.7695312E1,5.3410635E0,0E0,2.6015625E0,7.138887E1,0E0,2.3518825E0,1.2421875E0,1.6900414E1,1.1792603E0,4.193189E1,0E0,7.9562974E-1,0E0,8.970886E0,8.0210114E-1,5.762245E0,0E0,5.6015167E0,1.6004404E1,8.438568E-1,0E0,0E0,8.243497E0,5.614212E0,0E0,0E0,1.0615673E0,0E0,0E0,0E0,1.5772761E1,4.228075E0,0E0,0E0,0E0,0E0,0E0,0E0,0E0,0E0,0E0,0E0,0E0,0E0],"parents":[2147483647,0,0,1,1,2,2,3,3,5,5,6,6,8,8,9,9,10,10,11,11,12,12,14,14,16,16,17,17,18,18,20,20,21,21,22,22,25,25,26,26,29,29,33,33,34,34],"right_children":[2,4,6,8,-1,10,12,-1,14,16,18,20,22,-1,24,-1,26,28,30,-1,32,34,36,-1,-1,38,40,-1,-1,42,-1,-1,-1,44,46,-1,-1,-1,-1,-1,-1,-1,-1,-1,-1,-1,-1],"split_conditions":[2.8965264E3,2.217687E-3,8.147879E-1,7.499064E-1,-3.2023245E-1,3.1734087E3,7.208576E-1,2.818671E-1,5.007174E1,4.951995E-1,8.7116724E-1,1.01919507E3,-3.855298E-1,1.8230149E-1,-5.0622285E3,3.2407594E-1,3.0403098E3,4.6222334E0,-5.362563E-1,3.2525465E-1,5.587799E-1,9.9240454E2,1.0292825E3,9.352344E-3,-2.697272E-1,1.1287708E3,3.145371E3,3.1765732E-1,2.389281E-2,1.3749138E3,1.9701624E-1,2.7275905E-1,-2.820823E-1,8.6557E2,-8.425612E-1,3.2344964E-1,2.3721056E-2,-3.663357E-1,1.97509E-1,3.1004345E-1,-1.14775985E-1,-4.515319E-1,-5.0109986E-2,-2.5689653E-1,5.8979288E-2,1.2544723E-1,-4.050172E-1],"split_indices":[0,7,7,18,0,0,18,0,2,7,18,6,1,0,11,0,0,14,1,0,18,6,6,0,0,3,0,0,0,37,0,0,0,6,1,0,0,0,0,0,0,0,0,0,0,0,0],"split_type":[0,0,0,0,0,0,0,0,0,0,0,0,0,0,0,0,0,0,0,0,0,0,0,0,0,0,0,0,0,0,0,0,0,0,0,0,0,0,0,0,0,0,0,0,0,0,0],"sum_hessian":[5.4764613E4,8.434336E1,5.468027E4,1.10429125E1,7.330045E1,5.4390613E4,2.8965726E2,5.941001E0,5.101912E0,5.4349555E4,4.1058582E1,1.768021E2,1.1285515E2,1.080488E0,4.0214243E0,5.416316E4,1.8639217E2,3.5461433E1,5.597148E0,1.684347E2,8.367409E0,8.318797E1,2.9667175E1,1.1171689E0,2.9042554E0,7.876434E0,1.7851573E2,3.443093E1,1.0305008E0,4.104287E0,1.4928607E0,7.1817737E0,1.1856351E0,6.7959984E1,1.522799E1,2.8627138E1,1.0400378E0,2.78677E0,5.0896635E0,1.7614445E2,2.3712869E0,3.0917482E0,1.0125391E0,1.8893808E1,4.9066177E1,1.0348521E0,1.4193138E1],"tree_param":{"num_deleted":"0","num_feature":"39","num_nodes":"47","size_leaf_vector":"0"}},{"base_weights":[1.0515186E0,-7.326848E-1,1.0547409E0,5.682663E-1,-1.0687695E0,1.0571904E0,6.241978E-1,9.6773344E-1,-1.0050322E-1,-1.0772488E0,-2.929549E-1,1.0574332E0,7.281439E-1,8.535197E-1,-4.0211025E-1,-5.006202E-1,7.42684E-1,1.057868E0,9.2800856E-1,9.945486E-1,-5.9530413E-1,9.335722E-1,-1.8036275E-1,-6.2253964E-1,9.2469376E-1,2.1695557E-1,-7.4752235E-1,1.0385231E0,4.496164E-1,1.0264705E0,6.826703E-2,2.4680193E-1,-1.2840348E0,9.6213543E-1,-7.984973E-1,9.143412E-1,-9.545109E-1,-9.21347E-1,1.1961951E-1,-1.8974476E-1,-8.7487364E-1,3.5147154E-1,1.0551171E0,-6.7852134E-1,8.89494E-1,-4.630384E-1,7.082124E-1,-4.1238025E-1,9.828871E-1,-1.2271081E0,5.6059754E-1,-1.1846117E0,-3.574313E-1,5.9653205E-1,-8.510737E-1],"categories":[],"categories_nodes":[],"categories_segments":[],"categories_sizes":[],"default_left":[1,1,1,1,1,1,1,0,1,0,0,1,1,1,1,1,0,0,1,1,1,1,1,1,0,0,1,1,1,0,0,1,0,1,0,0,1,1,1,0,0,0,0,0,0,0,0,0,0,0,0,0,0,0,0],"id":7,"left_children":[1,3,5,7,9,11,13,-1,15,-1,-1,17,19,21,23,25,-1,-1,27,29,31,33,35,37,-1,-1,39,41,43,-1,-1,45,-1,47,-1,-1,49,51,53,-1,-1,-1,-1,-1,-1,-1,-1,-1,-1,-1,-1,-1,-1,-1,-1],"loss_changes":[2.3833594E2,3.343516E1,4.284375E1,4.3896174E0,7.9216E-2,2.5078125E0,5.583538E1,0E0,2.7044775E0,0E0,0E0,1.3242188E0,1.2387764E1,1.6145233E1,1.3368604E1,1.098785E0,0E0,0E0,7.2166595E0,7.644806E-1,3.9311619E0,9.640274E0,1.333959E1,8.561026E0,0E0,0E0,1.2936187E-1,9.6643066E-1,1.5012717E1,0E0,0E0,1.520926E0,0E0,5.450348E0,0E0,0E0,4.4489384E0,3.627098E0,5.9813356E0,0E0,0E0,0E0,0E0,0E0,0E0,0E0,0E0,0E0,0E0,0E0,0E0,0E0,0E0,0E0,0E0],"parents":[2147483647,0,0,1,1,2,2,3,3,4,4,5,5,6,6,8,8,11,11,12,12,13,13,14,14,15,15,18,18,19,19,20,20,21,21,22,22,23,23,26,26,27,27,28,28,31,31,33,33,36,36,37,37,38,38],"right_children":[2,4,6,8,10,12,14,-1,16,-1,-1,18,20,22,24,26,-1,-1,28,30,32,34,36,38,-1,-1,40,42,44,-1,-1,46,-1,48,-1,-1,50,52,54,-1,-1,-1,-1,-1,-1,-1,-1,-1,-1,-1,-1,-1,-1,-1,-1],"split_conditions":[2.9301416E3,9.232157E-2,8.147879E-1,7.5443006E-1,1.1015022E1,3.1734087E3,9.6753764E-1,2.9032004E-1,2.858154E3,-3.2317466E-1,-8.788647E-2,4.951995E-1,8.7116724E-1,1.01614465E3,-4.1957998E-1,6.296052E2,2.2280522E-1,3.173604E-1,8.732383E-1,4.6222334E0,7.861618E-2,3.1815518E3,4.3010315E-1,3.506516E3,2.7740815E-1,6.508668E-2,6.13329E-5,6.909303E2,-5.620599E-1,3.0794117E-1,2.0480111E-2,3.110704E0,-3.8521048E-1,2.9845178E3,-2.395492E-1,2.7430236E-1,-3.3550256E-1,9.6985034E2,9.9049914E-1,-5.692343E-2,-2.624621E-1,1.05441466E-1,3.1653515E-1,-2.035564E-1,2.668482E-1,-1.3891153E-1,2.1246372E-1,-1.2371408E-1,2.9486614E-1,-3.6813244E-1,1.6817927E-1,-3.5538352E-1,-1.0722939E-1,1.7895962E-1,-2.5532213E-1],"split_indices":[0,7,7,18,4,0,18,0,0,0,0,7,18,6,1,3,0,0,18,14,7,0,18,3,0,0,20,25,1,0,0,5,0,0,0,0,1,10,7,0,0,0,0,0,0,0,0,0,0,0,0,0,0,0,0],"split_type":[0,0,0,0,0,0,0,0,0,0,0,0,0,0,0,0,0,0,0,0,0,0,0,0,0,0,0,0,0,0,0,0,0,0,0,0,0,0,0,0,0,0,0,0,0,0,0,0,0,0,0,0,0,0,0],"sum_hessian":[4.1319105E4,7.40814E1,4.1245023E4,1.5067132E1,5.9014263E1,4.1010242E4,2.3478078E2,9.152911E0,5.914222E0,5.7991894E1,1.0223706E0,4.0977785E4,3.2456078E1,1.9203922E2,4.2741558E1,4.286452E0,1.62777E0,4.0833453E4,1.44332E2,2.7224428E1,5.231651E0,1.7832845E2,1.3710777E1,3.710748E1,5.634077E0,1.1283628E0,3.158089E0,1.1629544E2,2.803656E1,2.6212908E1,1.0115211E0,2.6424289E0,2.589222E0,1.7587268E2,2.4557695E0,5.6044993E0,8.106278E0,2.6283716E1,1.0823765E1,1.0498502E0,2.1082387E0,3.2656627E0,1.1302978E2,7.712942E0,2.0323618E1,1.0395863E0,1.6028426E0,2.3350475E0,1.7353763E2,7.031298E0,1.0749801E0,1.7168087E1,9.115629E0,7.516353E0,3.3074114E0],"tree_param":{"num_deleted":"0","num_feature":"39","num_nodes":"55","size_leaf_vector":"0"}},{"base_weights":[1.0347879E0,-7.046617E-1,1.0380061E0,5.191947E-1,-1.0487795E0,1.041019E0,5.5603176E-1,9.249034E-1,-8.4949926E-2,-2.6529756E-1,-1.0605074E0,1.041673E0,8.583205E-1,1.010949E0,2.1927988E-2,-4.3819842E-1,6.794776E-1,1.0418798E0,7.512329E-1,1.0136513E0,3.1597462E-1,1.0408679E0,4.4704694E-1,-3.020555E-1,8.9014393E-1,6.552812E-2,-7.877569E-1,9.571111E-1,-3.5675803E-1,2.9418105E-1,1.0350635E0,5.894429E-1,-1.3834951E0,-6.490754E-1,8.1772727E-1,-1.2702881E0,-9.2623964E-2,1.023858E0,-8.331223E-2,9.9739593E-1,7.812849E-2,-8.0352265E-1,5.657226E-1,7.002194E-1,-4.4569495E-1,-4.3849355E-1,8.851522E-1,-1.7792597E0,-1.3562886E-1,-1.7217207E0,-5.545196E-1,1.4090441E-1,-1.0846106E0,2.9974025E-1,1.0442314E0,-5.7221794E-1,5.7927465E-1],"categories":[],"categories_nodes":[],"categories_segments":[],"categories_sizes":[],"default_left":[1,1,1,1,1,1,1,0,1,0,0,1,1,1,1,1,0,0,1,1,1,0,1,1,1,0,0,1,1,1,0,1,1,0,0,1,1,1,1,0,0,0,0,0,0,0,0,0,0,0,0,0,0,0,0,0,0],"id":8,"left_children":[1,3,5,7,9,11,13,-1,15,-1,-1,17,19,21,23,25,-1,-1,27,29,31,-1,33,35,37,-1,-1,39,41,43,-1,45,47,-1,-1,49,51,53,55,-1,-1,-1,-1,-1,-1,-1,-1,-1,-1,-1,-1,-1,-1,-1,-1,-1,-1],"loss_changes":[1.744375E2,2.4929142E1,4.439453E1,3.3571136E0,1.3695145E-1,2.7851562E0,4.7251656E1,0E0,1.9961665E0,0E0,0E0,1.0585938E0,9.406937E0,1.3069916E0,2.5729696E1,9.16134E-1,0E0,0E0,6.137846E0,1.0713043E0,1.3438268E1,0E0,3.3934617E0,1.340039E1,3.3200417E0,0E0,0E0,6.9046974E-1,2.395782E0,1.5071757E0,0E0,7.712862E0,1.7654576E0,0E0,0E0,2.8505611E0,1.3099552E1,1.0457993E-2,1.6032856E0,0E0,0E0,0E0,0E0,0E0,0E0,0E0,0E0,0E0,0E0,0E0,0E0,0E0,0E0,0E0,0E0,0E0,0E0],"parents":[2147483647,0,0,1,1,2,2,3,3,4,4,5,5,6,6,8,8,11,11,12,12,13,13,14,14,15,15,18,18,19,19,20,20,22,22,23,23,24,24,27,27,28,28,29,29,31,31,32,32,35,35,36,36,37,37,38,38],"right_children":[2,4,6,8,10,12,14,-1,16,-1,-1,18,20,22,24,26,-1,-1,28,30,32,-1,34,36,38,-1,-1,40,42,44,-1,46,48,-1,-1,50,52,54,56,-1,-1,-1,-1,-1,-1,-1,-1,-1,-1,-1,-1,-1,-1,-1,-1,-1,-1],"split_conditions":[2.9301416E3,9.232157E-2,8.147879E-1,7.5443006E-1,7.025749E-7,4.951995E-1,7.208576E-1,2.7747104E-1,2.858154E3,-7.958927E-2,-3.1815225E-1,3.1734087E3,8.732383E-1,1.01919507E3,-4.7097975E-1,2.6877075E2,2.0384328E-1,3.1256396E-1,8.7116724E-1,6.909303E2,3.1231401E3,3.122604E-1,9.61409E3,1.5134143E3,9.93793E2,1.9658435E-2,-2.3632708E-1,4.607997E0,-5.362563E-1,9.14218E2,3.1051907E-1,1.1084773E3,2.2661755E3,-1.9472262E-1,2.4531819E-1,-6.535139E-1,3.1333965E3,3.0259302E3,3.0868774E3,2.992188E-1,2.3438547E-2,-2.410568E-1,1.6971678E-1,2.1006583E-1,-1.3370849E-1,-1.3154808E-1,2.6554567E-1,-5.3377795E-1,-4.068866E-2,-5.165162E-1,-1.6635588E-1,4.2271324E-2,-3.253832E-1,8.992208E-2,3.1326944E-1,-1.7166539E-1,1.7378241E-1],"split_indices":[0,7,7,18,20,7,18,0,0,0,0,0,18,6,1,2,0,0,18,25,0,0,31,3,6,0,0,14,1,6,0,3,25,0,0,1,0,0,0,0,0,0,0,0,0,0,0,0,0,0,0,0,0,0,0,0,0],"split_type":[0,0,0,0,0,0,0,0,0,0,0,0,0,0,0,0,0,0,0,0,0,0,0,0,0,0,0,0,0,0,0,0,0,0,0,0,0,0,0,0,0,0,0,0,0,0,0,0,0,0,0,0,0,0,0,0,0],"sum_hessian":[3.1029812E4,5.6899982E1,3.0972912E4,1.2375981E1,4.4524002E1,3.077935E4,1.9356407E2,7.086301E0,5.2896805E0,1.0050148E0,4.3518986E1,3.0664883E4,1.14466125E2,1.0404881E2,8.951526E1,3.9097254E0,1.3799552E0,3.0640473E4,2.4410366E1,8.830583E1,2.616029E1,9.8003235E1,6.0455775E0,6.566413E1,2.3851133E1,1.9345331E0,1.9751924E0,2.0700191E1,3.7101727E0,2.9780953E0,8.5327736E1,2.3096848E1,3.0634434E0,1.3379998E0,4.7075777E0,1.0776658E1,5.488747E1,2.0925085E1,2.9260483E0,1.9664242E1,1.0359513E0,2.5864763E0,1.1236964E0,1.9574568E0,1.0206385E0,5.0520825E0,1.8044764E1,2.0025022E0,1.0609412E0,5.7467737E0,5.029885E0,4.512284E1,9.764629E0,1.0026059E0,1.992248E1,1.7621739E0,1.1638745E0],"tree_param":{"num_deleted":"0","num_feature":"39","num_nodes":"57","size_leaf_vector":"0"}},{"base_weights":[1.0223092E0,-6.7567855E-1,1.0255493E0,4.7293982E-1,-1.0310471E0,1.0292239E0,4.9504796E-1,7.846829E-1,-2.1637382E-1,-1.047075E0,-2.483179E-1,1.0300518E0,8.085243E-1,9.865298E-1,1.3477723E-2,-1.6391724E-2,9.046901E-1,-6.9278467E-1,5.060806E-1,1.0303016E0,7.0063376E-1,9.911375E-1,2.5503686E-1,1.0243868E0,3.7866306E-1,-2.4418163E-1,8.3795065E-1,8.420603E-1,-8.185918E-1,2.4978545E-1,1.0187808E0,-3.9179212E-1,9.6349645E-1,-4.7520843E-1,8.386439E-1,-9.1348124E-1,-4.1863613E-2,9.7999054E-1,-6.0698647E-2,9.2191184E-1,-1.1147616E-1,6.713588E-1,-4.4757792E-1,1.1706648E-1,-1.6863816E0,6.408031E-1,-1.0881437E0,3.7696204E-1,-7.069759E-1,2.7027115E-1,1.008216E0,-4.8507935E-1,5.3267866E-1],"categories":[],"categories_nodes":[],"categories_segments":[],"categories_sizes":[],"default_left":[1,1,1,1,1,1,1,1,1,0,0,1,1,1,1,0,0,0,0,0,1,1,1,0,1,1,1,1,0,1,0,1,0,0,0,1,1,1,1,0,0,0,0,0,0,0,0,0,0,0,0,0,0],"id":9,"left_children":[1,3,5,7,9,11,13,15,17,-1,-1,19,21,23,25,-1,-1,-1,-1,-1,27,29,31,-1,33,35,37,39,-1,41,-1,43,-1,-1,-1,45,47,49,51,-1,-1,-1,-1,-1,-1,-1,-1,-1,-1,-1,-1,-1,-1],"loss_changes":[1.2848633E2,1.8791697E1,4.46875E1,2.5939884E0,1.7359161E-1,3.3730469E0,3.8190914E1,7.823911E-1,1.8295611E0,0E0,0E0,1.1660156E0,8.913334E0,1.4501114E0,1.7739588E1,0E0,0E0,0E0,0E0,0E0,5.0950155E0,1.135849E0,1.130418E1,0E0,2.8607972E0,8.582583E0,2.5969906E0,1.5686302E0,0E0,1.4069419E0,0E0,8.876752E0,0E0,0E0,0E0,4.695982E0,1.4176548E1,7.2553635E-2,1.1787758E0,0E0,0E0,0E0,0E0,0E0,0E0,0E0,0E0,0E0,0E0,0E0,0E0,0E0,0E0],"parents":[2147483647,0,0,1,1,2,2,3,3,4,4,5,5,6,6,7,7,8,8,11,11,12,12,13,13,14,14,20,20,21,21,22,22,24,24,25,25,26,26,27,27,29,29,31,31,35,35,36,36,37,37,38,38],"right_children":[2,4,6,8,10,12,14,16,18,-1,-1,20,22,24,26,-1,-1,-1,-1,-1,28,30,32,-1,34,36,38,40,-1,42,-1,44,-1,-1,-1,46,48,50,52,-1,-1,-1,-1,-1,-1,-1,-1,-1,-1,-1,-1,-1,-1],"split_conditions":[2.9301416E3,9.232157E-2,8.147879E-1,8.311198E-1,1.5372136E-1,4.951995E-1,7.208576E-1,2.3939414E3,-1.4162594E-1,-3.1412253E-1,-7.4495375E-2,3.1734087E3,8.732383E-1,1.01919507E3,-4.7097975E-1,-4.9175173E-3,2.7140704E-1,-2.078354E-1,1.5182419E-1,3.090905E-1,1.3648872E-1,6.909303E2,-3.9072758E-1,3.0731604E-1,-8.073312E-1,3.0724185E3,9.93793E2,1.5888989E-1,-2.4557754E-1,1.514054E3,3.0563426E-1,9.558717E2,2.8904894E-1,-1.4256254E-1,2.5159317E-1,-3.208129E3,3.1098535E3,3.0312158E3,3.0868774E3,2.7657357E-1,-3.344285E-2,2.0140766E-1,-1.3427338E-1,3.5119947E-2,-5.059145E-1,1.9224094E-1,-3.2644314E-1,1.13088615E-1,-2.1209277E-1,8.1081346E-2,3.024648E-1,-1.4552382E-1,1.598036E-1],"split_indices":[0,7,7,18,32,7,18,0,1,0,0,0,18,6,1,0,0,0,0,0,7,25,1,0,1,0,6,33,0,19,0,6,0,0,0,17,0,0,0,0,0,0,0,0,0,0,0,0,0,0,0,0,0],"split_type":[0,0,0,0,0,0,0,0,0,0,0,0,0,0,0,0,0,0,0,0,0,0,0,0,0,0,0,0,0,0,0,0,0,0,0,0,0,0,0,0,0,0,0,0,0,0,0,0,0,0,0,0,0],"sum_hessian":[2.3227086E4,4.384283E1,2.3183244E4,1.0281202E1,3.356163E1,2.3022828E4,1.604151E2,6.984223E0,3.296979E0,3.255723E1,1.0043969E0,2.2933143E4,8.968701E1,7.8871605E1,8.15435E1,1.0224633E0,5.9617596E0,2.0115578E0,1.2854211E0,2.2913637E4,1.950515E1,6.684274E1,2.284427E1,7.360254E1,5.269066E0,6.2663963E1,1.8879536E1,1.8251799E1,1.2533514E0,2.7635882E0,6.4079155E1,1.21752E1,1.066907E1,1.8331146E0,3.4359515E0,1.3729513E1,4.8934452E1,1.6224575E1,2.6549609E0,1.6872055E1,1.3797424E0,1.7456123E0,1.0179759E0,9.39279E0,2.7824104E0,1.1173797E0,1.2612134E1,3.0292376E1,1.8642075E1,1.0250676E0,1.5199508E1,1.6543142E0,1.0006467E0],"tree_param":{"num_deleted":"0","num_feature":"39","num_nodes":"53","size_leaf_vector":"0"}},{"base_weights":[1.0127468E0,-6.443845E-1,1.0160427E0,3.7671483E-1,-1.034635E0,1.0211636E0,5.198012E-1,8.6845344E-1,-1.6517136E-1,1.0215075E0,6.151776E-1,9.3255085E-1,4.023798E-3,-4.4943815E-1,5.491993E-1,1.0219686E0,8.6861396E-1,9.4918835E-1,-2.1914499E-1,9.760334E-1,1.7916618E-1,-2.4119817E-1,9.480459E-1,1.14731446E-1,-6.3918495E-1,-6.5965736E-1,9.436709E-1,-7.7565783E-1,6.5961516E-1,1.10817924E-1,9.866897E-1,6.6391224E-1,-8.3876854E-1,-8.8633513E-1,4.516746E-2,9.8178273E-1,2.2063382E-1,-1.8618318E-1,-7.404308E-1,5.4850936E-1,-1.5409123E0,9.885013E-1,-7.47682E-1,5.4498985E-2,-1.0984817E0,1.3080615E-1,9.949714E-1,7.387321E-2,7.915841E-1,4.5492792E-1,-1.0162983E0,6.1039746E-1,-3.649155E-1],"categories":[],"categories_nodes":[],"categories_segments":[],"categories_sizes":[],"default_left":[1,1,1,1,0,1,1,0,1,1,1,1,1,1,0,0,1,0,1,1,1,1,1,0,1,1,1,1,0,0,1,1,0,1,1,0,0,0,0,0,0,0,0,0,0,0,0,0,0,0,0,0,0],"id":10,"left_children":[1,3,5,7,-1,9,11,-1,13,15,17,19,21,23,-1,-1,25,-1,27,29,31,33,35,-1,37,39,41,43,-1,-1,45,47,-1,49,51,-1,-1,-1,-1,-1,-1,-1,-1,-1,-1,-1,-1,-1,-1,-1,-1,-1,-1],"loss_changes":[9.540625E1,1.4355725E1,4.3470703E1,2.9211087E0,0E0,1.7636719E0,3.8078693E1,0E0,1.4245201E0,3.2226562E-1,4.95069E0,3.0801697E0,1.8869286E1,5.763062E-1,0E0,0E0,7.292244E0,0E0,3.2883534E0,7.5471497E-1,3.8366475E0,1.1996029E1,1.9582939E-1,0E0,3.0382514E-2,4.3699656E0,4.9727325E0,1.1146686E0,0E0,0E0,5.251465E-1,3.227589E-1,0E0,3.9388351E0,1.083239E1,0E0,0E0,0E0,0E0,0E0,0E0,0E0,0E0,0E0,0E0,0E0,0E0,0E0,0E0,0E0,0E0,0E0,0E0],"parents":[2147483647,0,0,1,1,2,2,3,3,5,5,6,6,8,8,9,9,10,10,11,11,12,12,13,13,16,16,18,18,19,19,20,20,21,21,22,22,24,24,25,25,26,26,27,27,30,30,31,31,33,33,34,34],"right_children":[2,4,6,8,-1,10,12,-1,14,16,18,20,22,24,-1,-1,26,-1,28,30,32,34,36,-1,38,40,42,44,-1,-1,46,48,-1,50,52,-1,-1,-1,-1,-1,-1,-1,-1,-1,-1,-1,-1,-1,-1,-1,-1,-1,-1],"split_conditions":[2.9301416E3,3.5440958E-1,6.198037E-1,7.5443006E-1,-3.103905E-1,3.1734087E3,8.1246865E-1,2.6053604E-1,2.858154E3,3.4223425E-1,6.6398495E-1,9.967704E-1,-4.2259806E-1,6.3841833E2,1.6475978E-1,3.065906E-1,3.0502373E3,2.847565E-1,-5.3149915E-1,-9.921526E-1,6.8001366E-1,1.8427971E3,1.0248962E3,3.4419436E-2,5.510915E0,6.9274294E-1,3.1361877E3,7.002017E-1,1.9788456E-1,3.3245377E-2,2.9964277E3,-9.057231E-1,-2.5163057E-1,9.685335E-7,9.644089E-1,2.9453483E-1,6.6190146E-2,-5.5854958E-2,-2.2212924E-1,1.6455281E-1,-4.622737E-1,2.965504E-1,-2.243046E-1,1.6349696E-2,-3.295445E-1,3.9241847E-2,2.9849142E-1,2.2161962E-2,2.3747523E-1,1.3647838E-1,-3.048895E-1,1.8311924E-1,-1.0947465E-1],"split_indices":[0,7,7,18,0,0,18,0,0,7,18,7,1,3,0,0,0,0,1,1,18,3,6,0,5,18,0,26,0,0,0,1,0,33,7,0,0,0,0,0,0,0,0,0,0,0,0,0,0,0,0,0,0],"split_type":[0,0,0,0,0,0,0,0,0,0,0,0,0,0,0,0,0,0,0,0,0,0,0,0,0,0,0,0,0,0,0,0,0,0,0,0,0,0,0,0,0,0,0,0,0,0,0,0,0,0,0,0,0],"sum_hessian":[1.7347547E4,3.4047703E1,1.73135E4,9.424074E0,2.4623629E1,1.7135613E4,1.7788576E2,4.624704E0,4.799371E0,1.7119596E4,1.6018816E1,9.836297E1,7.952279E1,3.6985016E0,1.1008693E0,1.706245E4,5.714571E1,1.1340936E1,4.6778803E0,9.27162E1,5.6467648E0,6.3716183E1,1.5806604E1,1.0303452E0,2.6681564E0,2.3105583E0,5.483515E1,2.9359133E0,1.7419668E0,1.266721E0,9.1449486E1,4.060783E0,1.5859818E0,1.8943752E1,4.477243E1,1.4771806E1,1.034799E0,1.005992E0,1.6621643E0,1.1337761E0,1.1767821E0,5.3824066E1,1.0110865E0,1.0547512E0,1.8811622E0,1.0373514E0,9.041213E1,1.0031793E0,3.0576036E0,1.4525472E0,1.7491205E1,1.8619764E1,2.6152666E1],"tree_param":{"num_deleted":"0","num_feature":"39","num_nodes":"53","size_leaf_vector":"0"}},{"base_weights":[1.0049175E0,1.0140095E0,3.0961633E-1,8.603201E-2,1.0146664E0,9.4581246E-1,-1.2470168E-1,6.9808084E-1,-6.288538E-1,1.0150768E0,5.6693304E-1,9.9626404E-1,2.5735465E-1,-8.023862E-1,2.183159E-1,5.4536797E-2,8.470993E-1,-1.0056043E0,3.4052813E-1,1.0156696E0,8.258201E-1,9.1891795E-1,-1.8367852E-1,2.6005515E-1,1.00392E0,6.6078615E-1,-6.3516974E-1,1.2484831E-1,-8.9924586E-1,4.502163E-1,-7.556768E-1,7.571512E-1,1.0159047E0,-7.7682483E-1,8.999132E-1,-6.420387E-1,6.1017567E-1,1.8381776E-1,7.457022E-1,8.0690134E-1,-5.879634E-1,-9.5668465E-1,4.0337822E-1,7.501545E-1,-1.5356629E-1,-9.798987E-1,6.174939E-1,9.4648445E-1,-9.8572904E-1,-1.9385257E-1,9.503363E-1,-1.0394657E0,7.657763E-2,-1.0733252E0,-2.6680982E-1,-3.1849694E-1,9.172055E-1,8.183467E-1,-4.2549115E-1,2.3385404E-1,-1.1754258E0],"categories":[],"categories_nodes":[],"categories_segments":[],"categories_sizes":[],"default_left":[1,1,1,1,1,1,1,1,1,1,1,1,1,1,1,0,0,0,0,1,1,0,1,0,0,1,0,1,1,1,1,1,0,0,1,1,0,0,0,0,0,1,0,1,1,1,0,0,0,0,0,0,0,0,0,0,0,0,0,0,0],"id":11,"left_children":[1,3,5,7,9,11,13,15,17,19,21,23,25,27,29,-1,-1,-1,-1,31,33,-1,35,-1,-1,37,-1,39,41,43,45,47,-1,-1,49,51,-1,-1,-1,-1,-1,53,-1,55,57,59,-1,-1,-1,-1,-1,-1,-1,-1,-1,-1,-1,-1,-1,-1,-1],"loss_changes":[8.149609E1,7.6992188E0,4.666973E1,4.871097E0,1.7705078E0,2.1217842E0,2.3655039E1,5.2260065E-1,2.2409384E0,5.908203E-1,3.8551822E0,9.6530914E-2,2.5885098E0,3.180088E0,1.5665154E1,0E0,0E0,0E0,0E0,2.9296875E-3,6.061735E0,0E0,2.3157678E0,0E0,0E0,5.078888E-2,0E0,2.4720328E0,2.7090683E0,1.0153001E1,4.7373548E0,6.038394E0,0E0,0E0,2.590397E0,1.1761281E0,0E0,0E0,0E0,0E0,0E0,2.1304474E0,0E0,6.933321E0,5.429411E0,3.1046371E0,0E0,0E0,0E0,0E0,0E0,0E0,0E0,0E0,0E0,0E0,0E0,0E0,0E0,0E0,0E0],"parents":[2147483647,0,0,1,1,2,2,3,3,4,4,5,5,6,6,7,7,8,8,9,9,10,10,11,11,12,12,13,13,14,14,19,19,20,20,22,22,25,25,27,27,28,28,29,29,30,30,31,31,34,34,35,35,41,41,43,43,44,44,45,45],"right_children":[2,4,6,8,10,12,14,16,18,20,22,24,26,28,30,-1,-1,-1,-1,32,34,-1,36,-1,-1,38,-1,40,42,44,46,48,-1,-1,50,52,-1,-1,-1,-1,-1,54,-1,56,58,60,-1,-1,-1,-1,-1,-1,-1,-1,-1,-1,-1,-1,-1,-1,-1],"split_conditions":[6.198037E-1,2.9301416E3,7.208576E-1,8.3104235E-1,3.1734087E3,1.01919507E3,3.0724185E3,2.702105E3,-1.4162594E-1,3.4223425E-1,6.6398495E-1,3.0031895E3,5.544971E-1,-2.5469827E3,3.1225513E3,1.636104E-2,2.541298E-1,-3.0168128E-1,1.0215844E-1,2.97379E3,2.059889E0,2.756754E-1,-5.3149915E-1,7.801655E-2,3.01176E-1,3.0824233E3,-1.9055094E-1,9.643531E-1,-1.0952476E-2,9.235044E2,-5.3969157E-1,9.084002E-1,3.0477142E-1,-2.3304746E-1,3.0400261E3,4.74664E-6,1.830527E-1,5.514533E-2,2.2371067E-1,2.420704E-1,-1.7638902E-1,1.6453762E0,1.2101347E-1,8.399793E2,-7.740959E-1,-2.0371437E0,1.8524818E-1,2.8394535E-1,-2.9571873E-1,-5.8155775E-2,2.851009E-1,-3.118397E-1,2.2973292E-2,-3.2199755E-1,-8.004295E-2,-9.5549084E-2,2.7516165E-1,2.45504E-1,-1.2764736E-1,7.015622E-2,-3.5262775E-1],"split_indices":[7,0,18,18,0,6,0,0,1,7,18,0,18,17,0,0,0,0,0,0,23,0,1,0,0,0,0,7,1,6,1,18,0,0,0,28,0,0,0,0,0,26,0,6,1,27,0,0,0,0,0,0,0,0,0,0,0,0,0,0,0],"split_type":[0,0,0,0,0,0,0,0,0,0,0,0,0,0,0,0,0,0,0,0,0,0,0,0,0,0,0,0,0,0,0,0,0,0,0,0,0,0,0,0,0,0,0,0,0,0,0,0,0,0,0,0,0,0,0,0,0,0,0,0,0],"sum_hessian":[1.2939913E4,1.2772437E4,1.674758E2,9.129485E0,1.2763308E4,6.746876E1,1.0000704E2,4.9311733E0,4.1983123E0,1.27503545E4,1.2952846E1,6.244553E1,5.023228E0,3.3158356E1,6.684869E1,1.1839962E0,3.7471771E0,2.996396E0,1.2019161E0,1.2706193E4,4.4161114E1,8.665228E0,4.287618E0,1.0025873E0,6.1442944E1,3.6383119E0,1.384916E0,3.108814E0,3.0049541E1,5.442763E1,1.2421052E1,1.4471654E1,1.2691722E4,1.5323222E0,4.2628788E1,2.8394172E0,1.4482007E0,1.0281208E0,2.6101913E0,1.5212295E0,1.5875845E0,2.9034832E1,1.014711E0,3.620154E1,1.8226091E1,1.0923737E1,1.497315E0,1.3465776E1,1.0058773E0,1.7532471E0,4.087554E1,1.5408022E0,1.2986149E0,2.4360294E1,4.6745367E0,4.7714224E0,3.1430119E1,3.5452416E0,1.468085E1,1.4883907E0,9.435347E0],"tree_param":{"num_deleted":"0","num_feature":"39","num_nodes":"61","size_leaf_vector":"0"}},{"base_weights":[9.9834555E-1,1.0094849E0,3.192823E-1,-1.0169849E-1,1.0099902E0,9.505293E-1,-8.05589E-2,-4.162106E-1,5.5574816E-1,1.010447E0,5.391984E-1,-9.1478065E-2,9.6956414E-1,-7.512546E-1,1.9610843E-1,9.5419906E-2,-6.86356E-1,6.1839706E-1,1.0109931E0,8.8498646E-1,-1.3009359E-1,9.9770087E-1,4.6145594E-1,-7.999296E-2,-8.690682E-1,-9.165808E-2,9.4783926E-1,8.830361E-1,-1.6360266E0,3.5771257E-1,1.0110984E0,-5.308348E-1,5.636518E-1,7.7058566E-1,-3.8676804E-1,-7.06793E-1,7.160776E-1,-2.4867682E-1,-1.0173475E0,1.4819293E-1,-8.1178635E-1,1.4888725E-1,9.844277E-1,9.463035E-1,6.8994733E-3,5.2136075E-1,1.2034565E-2,1.0112038E0,4.942244E-1,-9.132738E-1,1.1439875E-1,3.925283E-1,-7.324022E-1,-1.078441E0,-1.4397225E-1,-1.2161036E0,2.9358298E-1,-9.702937E-1,3.3895248E-1],"categories":[],"categories_nodes":[],"categories_segments":[],"categories_sizes":[],"default_left":[1,1,1,1,1,1,1,1,0,1,1,0,1,1,1,0,0,1,1,0,1,0,1,1,1,1,1,1,0,1,1,1,0,0,0,0,0,1,1,1,1,0,0,0,0,0,0,0,0,0,0,0,0,0,0,0,0,0,0],"id":12,"left_children":[1,3,5,7,9,11,13,15,-1,17,19,-1,21,23,25,-1,-1,27,29,-1,31,-1,33,35,37,39,41,43,-1,45,47,49,-1,-1,-1,-1,-1,51,53,55,57,-1,-1,-1,-1,-1,-1,-1,-1,-1,-1,-1,-1,-1,-1,-1,-1,-1,-1],"loss_changes":[7.263086E1,5.428711E0,3.973147E1,1.3108071E0,1.4960938E0,1.2986755E0,1.8166693E1,6.326007E-1,0E0,1.4023438E0,2.738944E0,0E0,3.9733887E-1,2.189621E0,1.5130365E1,0E0,0E0,1.0842646E1,2.890625E-1,0E0,1.6152836E0,0E0,1.6113263E0,3.1838863E0,1.9731865E0,8.964124E0,4.1877365E-1,8.109064E-1,0E0,1.6754857E-1,1.46484375E-2,9.719917E-1,0E0,0E0,0E0,0E0,0E0,2.1459374E0,8.6963654E-1,8.143449E0,2.6904688E0,0E0,0E0,0E0,0E0,0E0,0E0,0E0,0E0,0E0,0E0,0E0,0E0,0E0,0E0,0E0,0E0,0E0,0E0],"parents":[2147483647,0,0,1,1,2,2,3,3,4,4,5,5,6,6,7,7,9,9,10,10,12,12,13,13,14,14,17,17,18,18,20,20,22,22,23,23,24,24,25,25,26,26,27,27,29,29,30,30,31,31,37,37,38,38,39,39,40,40],"right_children":[2,4,6,8,10,12,14,16,-1,18,20,-1,22,24,26,-1,-1,28,30,-1,32,-1,34,36,38,40,42,44,-1,46,48,50,-1,-1,-1,-1,-1,52,54,56,58,-1,-1,-1,-1,-1,-1,-1,-1,-1,-1,-1,-1,-1,-1,-1,-1,-1,-1],"split_conditions":[4.951995E-1,2.858154E3,6.8066144E-1,3.0633867E-2,3.1734087E3,2.989234E3,3.063688E3,8.3104235E-1,1.6672446E-1,2.97379E3,6.6398495E-1,-2.744342E-2,1.01919507E3,2.9574685E-6,-4.7917402E-1,2.8625973E-2,-2.0590681E-1,4.4732904E-3,7.800214E-6,2.6549596E-1,-5.3149915E-1,2.9931027E-1,5.6050897E-1,2.9769517E3,-1.2889067E3,3.1194958E3,-3.2006123E3,2.9721272E3,-4.90808E-1,3.0980356E3,1.2186064E4,4.74664E-6,1.6909555E-1,2.311757E-1,-1.1603042E-1,-2.120379E-1,2.1482329E-1,9.299153E-1,1.8425656E4,1.2272874E3,9.9967813E-1,4.4666175E-2,2.9532832E-1,2.8389105E-1,2.069842E-3,1.5640824E-1,3.6103697E-3,3.0336115E-1,1.4826733E-1,-2.7398217E-1,3.4319624E-2,1.1775849E-1,-2.1972068E-1,-3.235323E-1,-4.3191675E-2,-3.648311E-1,8.807489E-2,-2.9108813E-1,1.0168575E-1],"split_indices":[7,0,18,1,0,0,0,18,0,0,18,0,6,20,1,0,0,7,29,0,1,0,18,0,17,0,37,0,0,0,3,28,0,0,0,0,0,7,12,3,15,0,0,0,0,0,0,0,0,0,0,0,0,0,0,0,0,0,0],"split_type":[0,0,0,0,0,0,0,0,0,0,0,0,0,0,0,0,0,0,0,0,0,0,0,0,0,0,0,0,0,0,0,0,0,0,0,0,0,0,0,0,0,0,0,0,0,0,0,0,0,0,0,0,0,0,0,0,0,0,0],"sum_hessian":[9.643125E3,9.487013E3,1.5611223E2,4.220647E0,9.482792E3,6.0003998E1,9.610824E1,3.1031013E0,1.1175458E0,9.472454E3,1.0337238E1,1.0081816E0,5.8995815E1,2.7566435E1,6.85418E1,1.2957858E0,1.8073153E0,1.475233E1,9.457702E3,6.603357E0,3.7338812E0,5.49873E1,4.0085135E0,4.366514E0,2.319992E1,5.0202206E1,1.8339596E1,1.3746934E1,1.0053955E0,2.0727282E0,9.45563E3,2.5155845E0,1.2182968E0,3.00492E0,1.0035932E0,2.5057309E0,1.8607831E0,4.9917645E0,1.8208157E1,3.825495E1,1.1947251E1,1.0250762E0,1.731452E1,1.2746407E1,1.0005277E0,1.061822E0,1.010906E0,9.452746E3,2.8838124E0,1.31861E0,1.1969745E0,2.2275512E0,2.7642133E0,1.6798302E1,1.4098556E0,2.9749064E0,3.5280045E1,1.0638649E1,1.3086021E0],"tree_param":{"num_deleted":"0","num_feature":"39","num_nodes":"59","size_leaf_vector":"0"}},{"base_weights":[9.9223566E-1,1.0054339E0,2.8065774E-1,4.0214956E-1,1.0067265E0,9.2882043E-1,-7.056746E-2,6.6973823E-1,-1.5057869E0,1.0070174E0,1.4827766E-1,5.8034882E-2,9.6136934E-1,-9.260468E-1,9.969811E-2,7.696029E-1,-3.4560063E-1,3.225777E-1,1.0071582E0,6.164222E-1,-5.1992947E-1,9.879782E-1,3.3511177E-1,-2.0747788E-1,-9.6396476E-1,-1.3073286E-1,8.584167E-1,9.38067E-2,9.2816186E-1,1.0074239E0,5.9526753E-1,-1.6264547E-1,6.192776E-1,8.41821E-2,-7.4013394E-1,9.673167E-1,1.4206785E-1,4.2979392E-1,-3.9464954E-1,1.007565E0,4.353346E-1,8.2054013E-1,-3.5796303E-2,-6.149895E-1,3.6605737E-1,5.2063775E-1,-9.4212514E-1,-3.8702035E-1,5.786652E-1],"categories":[],"categories_nodes":[],"categories_segments":[],"categories_sizes":[],"default_left":[1,1,1,1,1,1,1,1,0,1,1,0,1,1,1,1,0,0,1,0,0,0,1,0,0,1,1,1,0,1,1,0,0,1,1,0,1,0,0,0,0,0,0,0,0,0,0,0,0],"id":13,"left_children":[1,3,5,7,9,11,13,15,-1,17,19,-1,21,23,25,27,-1,-1,29,-1,-1,-1,31,-1,-1,33,35,37,-1,39,41,-1,-1,43,45,-1,47,-1,-1,-1,-1,-1,-1,-1,-1,-1,-1,-1,-1],"loss_changes":[6.71958E1,5.0961914E0,3.0167007E1,9.558305E0,1.6079102E0,1.2633018E0,1.2718901E1,1.8253388E0,0E0,3.5351562E-1,1.432952E0,0E0,4.1544724E-1,1.9470501E-1,1.29098835E1,1.446475E0,0E0,0E0,1.6992188E-1,0E0,0E0,0E0,5.730333E-1,0E0,0E0,7.529526E0,1.2031584E0,7.985364E-1,0E0,1.2841797E-1,1.0213847E0,0E0,0E0,8.708981E0,4.302081E0,0E0,1.018554E0,0E0,0E0,0E0,0E0,0E0,0E0,0E0,0E0,0E0,0E0,0E0,0E0],"parents":[2147483647,0,0,1,1,2,2,3,3,4,4,5,5,6,6,7,7,9,9,10,10,12,12,13,13,14,14,15,15,18,18,22,22,25,25,26,26,27,27,29,29,30,30,33,33,34,34,36,36],"right_children":[2,4,6,8,10,12,14,16,-1,18,20,-1,22,24,26,28,-1,-1,30,-1,-1,-1,32,-1,-1,34,36,38,-1,40,42,-1,-1,44,46,-1,48,-1,-1,-1,-1,-1,-1,-1,-1,-1,-1,-1,-1],"split_conditions":[4.951995E-1,2.97379E3,6.8066144E-1,7.300007E-2,3.221225E3,3.018815E3,2.9772634E3,4.205676E0,-4.517361E-1,7.800214E-6,6.181715E-1,1.7410465E-2,6.1806655E-1,-6.4248687E3,-4.701597E-1,2.858154E3,-1.0368019E-1,9.677331E-2,3.1734087E3,1.8492666E-1,-1.5597884E-1,2.9639348E-1,6.456368E-1,-6.224337E-2,-2.8918943E-1,9.551007E2,9.951401E2,8.539637E-1,2.7844858E-1,1.2186064E4,8.7116724E-1,-4.8793644E-2,1.8578328E-1,8.614075E2,1.0338005E-6,2.9019502E-1,-3.789659E-1,1.2893818E-1,-1.1839487E-1,3.0226952E-1,1.3060038E-1,2.4616204E-1,-1.0738892E-2,-1.8449686E-1,1.09817214E-1,1.5619133E-1,-2.8263757E-1,-1.1610611E-1,1.7359957E-1],"split_indices":[7,0,18,7,0,0,0,24,0,29,18,0,18,19,1,0,0,0,0,0,0,0,18,0,0,6,6,18,0,3,18,0,0,6,33,0,1,0,0,0,0,0,0,0,0,0,0,0,0],"split_type":[0,0,0,0,0,0,0,0,0,0,0,0,0,0,0,0,0,0,0,0,0,0,0,0,0,0,0,0,0,0,0,0,0,0,0,0,0,0,0,0,0,0,0,0,0,0,0,0,0],"sum_hessian":[7.1839805E3,7.0527544E3,1.3122632E2,1.5746553E1,7.037008E3,4.554027E1,8.568605E1,1.4378883E1,1.3676703E0,7.034451E3,2.5562463E0,1.7411833E0,4.379909E1,1.3486398E1,7.219965E1,1.3311628E1,1.0672545E0,1.9186553E0,7.0325327E3,1.5487169E0,1.0075294E0,4.1459923E1,2.339167E0,1.0003779E0,1.248602E1,5.601499E1,1.6184662E1,2.8321803E0,1.0479448E1,7.0265547E3,5.9780726E0,1.0055104E0,1.3336565E0,4.204797E1,1.3967023E1,1.3744819E1,2.4398437E0,1.7491295E0,1.0830507E0,7.02406E3,2.494812E0,4.184184E0,1.7938884E0,1.1741711E1,3.030626E1,1.7108512E0,1.2256171E1,1.1544195E0,1.2854241E0],"tree_param":{"num_deleted":"0","num_feature":"39","num_nodes":"49","size_leaf_vector":"0"}},{"base_weights":[9.860784E-1,1.0026003E0,2.702842E-1,-4.4880092E-2,1.0032762E0,9.1588366E-1,-6.584482E-2,2.728864E-1,-5.073264E-1,1.0039008E0,4.4650477E-1,9.7316265E-1,2.0107108E-1,-9.634407E-1,9.498938E-2,-7.9092585E-2,4.7309282E-1,6.887402E-1,1.0048299E0,7.984789E-1,-9.4460145E-2,-4.2610714E-1,5.8459115E-1,-1.0192268E0,-2.0290516E-1,-9.121216E-2,8.990985E-1,8.995642E-1,-1.501255E0,1.0050201E0,3.804547E-1,-4.7898355E-1,4.2866585E-1,-8.2561874E-1,1.03642926E-1,9.3948436E-1,2.05367E-1,9.618059E-1,-6.462703E-2,4.5696703E-1,1.0052115E0,5.4929215E-1,5.21936E-3,-1.2814636E0,-1.7192433E-2,4.8504743E-1,-2.849208E-1],"categories":[],"categories_nodes":[],"categories_segments":[],"categories_sizes":[],"default_left":[1,1,1,1,1,1,1,1,0,1,1,0,1,1,1,0,0,1,1,0,1,0,0,0,0,1,1,1,0,1,1,0,0,1,1,0,0,0,0,0,0,0,0,0,0,0,0],"id":14,"left_children":[1,3,5,7,9,11,13,15,-1,17,19,-1,21,23,25,-1,-1,27,29,-1,31,-1,-1,-1,-1,33,35,37,-1,39,41,-1,-1,43,45,-1,-1,-1,-1,-1,-1,-1,-1,-1,-1,-1,-1],"loss_changes":[6.3053223E1,3.7504883E0,2.657251E1,7.7505153E-1,1.3706055E0,1.5197678E0,1.1824857E1,2.6418456E-1,0E0,8.378906E-1,1.5340594E0,0E0,1.2999154E0,3.2099342E-1,1.0538288E1,0E0,0E0,9.90715E0,2.3583984E-1,0E0,9.9261284E-1,0E0,0E0,0E0,0E0,8.330159E0,1.7752457E-1,1.1142263E0,0E0,8.59375E-2,1.9954988E-1,0E0,0E0,4.471039E0,7.0177517E0,0E0,0E0,0E0,0E0,0E0,0E0,0E0,0E0,0E0,0E0,0E0,0E0],"parents":[2147483647,0,0,1,1,2,2,3,3,4,4,5,5,6,6,7,7,9,9,10,10,12,12,13,13,14,14,17,17,18,18,20,20,25,25,26,26,27,27,29,29,30,30,33,33,34,34],"right_children":[2,4,6,8,10,12,14,16,-1,18,20,-1,22,24,26,-1,-1,28,30,-1,32,-1,-1,-1,-1,34,36,38,-1,40,42,-1,-1,44,46,-1,-1,-1,-1,-1,-1,-1,-1,-1,-1,-1,-1],"split_conditions":[3.7123242E-1,2.858154E3,6.8066144E-1,2.7118936E2,3.176122E3,1.01919507E3,2.9879463E3,2.5308064E3,-1.5219793E-1,2.9937922E3,6.6398495E-1,2.919488E-1,-8.123106E-1,-1.3941938E-1,-4.3931395E-1,-2.3727776E-2,1.4192785E-1,9.450072E-1,1.2186064E4,2.3954368E-1,6.8312764E-1,-1.2783214E-1,1.7537735E-1,-3.0576804E-1,-6.0871553E-2,1.5039563E3,1.0260956E3,1.01054236E3,-4.5037654E-1,1.8628463E-5,3.0978208E3,-1.4369507E-1,1.2859976E-1,-6.191299E-1,9.731685E-1,2.8184533E-1,6.1610103E-2,2.8854176E-1,-1.938811E-2,1.3709012E-1,3.0156344E-1,1.6478765E-1,1.5658081E-3,-3.844391E-1,-5.15773E-3,1.4551423E-1,-8.547625E-2],"split_indices":[7,0,18,2,0,6,0,0,0,0,18,0,1,1,1,0,0,18,3,0,8,0,0,0,0,3,6,6,0,32,0,0,0,1,18,0,0,0,0,0,0,0,0,0,0,0,0],"split_type":[0,0,0,0,0,0,0,0,0,0,0,0,0,0,0,0,0,0,0,0,0,0,0,0,0,0,0,0,0,0,0,0,0,0,0,0,0,0,0,0,0,0,0,0,0,0,0],"sum_hessian":[5.3535327E3,5.2323594E3,1.2117341E2,3.3321497E0,5.2290273E3,4.0897404E1,8.027601E1,2.217985E0,1.1141647E0,5.2223667E3,6.66067E0,3.7528748E1,3.3686569E0,1.1440076E1,6.883593E1,1.0235125E0,1.1944726E0,1.7532831E1,5.2048335E3,3.7468119E0,2.9138577E0,1.236136E0,2.132521E0,1.0341381E1,1.0986948E0,5.6613037E1,1.2222891E1,1.653071E1,1.0021207E0,5.2026387E3,2.195023E0,1.728043E0,1.1858147E0,1.11923E1,4.542074E1,1.1215716E1,1.0071746E0,1.5530631E1,1.0000787E0,2.6500833E0,5.199989E3,1.1939455E0,1.0010774E0,6.7826524E0,4.4096475E0,2.2796223E1,2.2624516E1],"tree_param":{"num_deleted":"0","num_feature":"39","num_nodes":"47","size_leaf_vector":"0"}},{"base_weights":[9.790701E-1,9.9976337E-1,2.3566118E-1,-3.8296793E-2,1.0006038E0,9.3215877E-1,-4.8975896E-2,3.9138046E-1,-3.2659116E-1,1.0014035E0,3.9466396E-1,9.329705E-2,9.734045E-1,-9.469964E-1,9.254082E-2,-8.592302E-2,-4.0429997E-1,5.4756606E-1,1.0021526E0,7.5063795E-1,-6.89322E-2,-1.0819106E0,-1.3685907E-1,2.108171E-1,-9.692331E-1,8.797857E-1,-9.865826E-1,1.0024078E0,3.4240732E-1,2.8965238E-1,-4.858687E-1,-1.1438909E0,-2.9962927E-1,4.6983433E-1,-2.1999605E-1,-1.1093823E0,-1.4256594E-1,4.0162796E-1,1.0026644E0,5.080284E-1,4.3874863E-3,1.6310462E-1,1.022988E0,-6.164827E-1,3.438523E-1],"categories":[],"categories_nodes":[],"categories_segments":[],"categories_sizes":[],"default_left":[1,1,1,1,1,1,1,0,1,1,1,0,0,1,1,0,0,1,1,0,1,1,0,1,1,0,0,1,1,0,0,0,0,1,1,0,0,0,0,0,0,0,0,0,0],"id":15,"left_children":[1,3,5,7,9,11,13,-1,15,17,19,-1,-1,21,23,-1,-1,25,27,-1,29,31,-1,33,35,-1,-1,37,39,-1,-1,-1,-1,41,43,-1,-1,-1,-1,-1,-1,-1,-1,-1,-1],"loss_changes":[6.1216064E1,3.4284668E0,2.175198E1,6.365337E-1,1.4863281E0,1.0099354E0,1.0086177E1,0E0,2.1420151E-2,7.6953125E-1,1.1687492E0,0E0,0E0,1.0323095E0,8.85403E0,0E0,0E0,5.2481194E0,3.083496E-1,0E0,7.171979E-1,9.9108696E-2,0E0,7.110463E0,6.6235256E-1,0E0,0E0,1.9360352E-1,1.665572E-1,0E0,0E0,0E0,0E0,6.541045E0,5.635302E0,0E0,0E0,0E0,0E0,0E0,0E0,0E0,0E0,0E0,0E0],"parents":[2147483647,0,0,1,1,2,2,3,3,4,4,5,5,6,6,8,8,9,9,10,10,13,13,14,14,17,17,18,18,20,20,21,21,23,23,24,24,27,27,28,28,33,33,34,34],"right_children":[2,4,6,8,10,12,14,-1,16,18,20,-1,-1,22,24,-1,-1,26,28,-1,30,32,-1,34,36,-1,-1,38,40,-1,-1,-1,-1,42,44,-1,-1,-1,-1,-1,-1,-1,-1,-1,-1],"split_conditions":[3.4223425E-1,2.858154E3,6.1806655E-1,4.493104E1,3.176122E3,3.018353E3,2.991061E3,1.1741414E-1,-2.7716092E2,2.97379E3,6.6398495E-1,2.7989116E-2,2.9202136E-1,1.7318219E4,3.133959E3,-2.5776908E-2,-1.2129E-1,9.519066E-1,1.2186064E4,2.251914E-1,1.4698379E3,1.7309443E0,-4.1057725E-2,9.235044E2,1.895786E4,2.6393571E-1,-2.959748E-1,1.8628463E-5,5.8534863E4,8.689572E-2,-1.4576061E-1,-3.4316728E-1,-8.988878E-2,-5.770889E-1,1.2905344E1,-3.328147E-1,-4.2769782E-2,1.2048839E-1,3.0079934E-1,1.5240853E-1,1.3162459E-3,4.893139E-2,3.068964E-1,-1.8494481E-1,1.03155695E-1],"split_indices":[7,0,18,2,0,0,0,0,37,0,18,0,0,12,0,0,0,18,3,0,11,26,0,6,12,0,0,32,31,0,0,0,0,1,16,0,0,0,0,0,0,0,0,0,0],"split_type":[0,0,0,0,0,0,0,0,0,0,0,0,0,0,0,0,0,0,0,0,0,0,0,0,0,0,0,0,0,0,0,0,0,0,0,0,0,0,0,0,0,0,0,0,0],"sum_hessian":[3.9936345E3,3.8851443E3,1.0849019E2,3.1067061E0,3.8820376E3,3.0814125E1,7.767606E1,1.1038874E0,2.0028188E0,3.876269E3,5.768578E0,1.5969579E0,2.9217169E1,9.799536E0,6.7876526E1,1.0028002E0,1.0000186E0,7.593994E0,3.868675E3,2.912806E0,2.855772E0,8.112992E0,1.6865431E0,6.1794388E1,6.082136E0,6.592846E0,1.0011481E0,3.86666E3,2.0149434E0,1.6994505E0,1.1563214E0,7.0890746E0,1.0239179E0,3.853529E1,2.3259098E1,4.9080544E0,1.1740822E0,2.3195987E0,3.8643403E3,1.014775E0,1.0001682E0,2.5622307E1,1.2912985E1,1.3601473E1,9.657625E0],"tree_param":{"num_deleted":"0","num_feature":"39","num_nodes":"45","size_leaf_vector":"0"}},{"base_weights":[9.71301E-1,9.967443E-1,1.970808E-1,3.2587096E-1,9.988101E-1,9.254925E-1,-3.9971385E-2,6.404345E-1,-9.080218E-1,9.9987036E-1,3.4228992E-1,7.887989E-2,9.6091366E-1,-5.7973456E-1,1.4855167E-1,-1.1676239E-2,8.605614E-1,1.0002134E0,3.0894995E-1,-9.0942256E-2,7.162917E-1,-8.0644184E-1,1.779961E-1,2.6972756E-1,-8.908593E-1,-2.9048216E-1,2.9322034E-1,3.497058E-1,1.0005584E0,2.6633596E-1,-5.334089E-1,-9.934752E-1,2.5130408E-2,6.4553237E-1,-5.5972195E-1,4.246094E-1,-4.9203977E-1,-1.0531596E0,-1.1698148E-1,2.9863128E-3,5.168351E-1,1.8306832E-1,-1.1143736E0,6.540213E-1,-6.135249E-1,1.4783229E-1,7.91343E-1,1.9319089E-1,1.0892122E0,5.171805E-1,-7.7756363E-1],"categories":[],"categories_nodes":[],"categories_segments":[],"categories_sizes":[],"default_left":[1,1,1,1,1,1,1,1,0,1,1,0,0,1,1,1,0,1,0,1,0,1,1,1,1,0,0,1,0,0,0,1,1,1,0,1,1,0,0,0,0,0,0,0,0,0,0,0,0,0,0],"id":16,"left_children":[1,3,5,7,9,11,13,15,-1,17,19,-1,-1,21,23,25,-1,27,-1,29,-1,31,33,35,37,-1,-1,39,-1,-1,-1,41,43,45,-1,47,49,-1,-1,-1,-1,-1,-1,-1,-1,-1,-1,-1,-1,-1,-1],"loss_changes":[5.85542E1,3.6760254E0,1.6637728E1,4.597965E0,1.6611328E0,6.333275E-1,7.5646625E0,1.2778873E0,0E0,3.7182617E-1,1.0633932E0,0E0,0E0,3.4466562E0,7.2010202E0,3.58524E-1,0E0,2.944336E-1,0E0,7.335796E-1,0E0,2.3549995E0,2.1711714E0,6.1390967E0,6.307287E-1,0E0,0E0,1.757175E-1,0E0,0E0,0E0,1.9471807E0,1.8978302E0,1.4979601E-1,0E0,6.2964053E0,2.982824E0,0E0,0E0,0E0,0E0,0E0,0E0,0E0,0E0,0E0,0E0,0E0,0E0,0E0,0E0],"parents":[2147483647,0,0,1,1,2,2,3,3,4,4,5,5,6,6,7,7,9,9,10,10,13,13,14,14,15,15,17,17,19,19,21,21,22,22,23,23,24,24,27,27,31,31,32,32,33,33,35,35,36,36],"right_children":[2,4,6,8,10,12,14,16,-1,18,20,-1,-1,22,24,26,-1,28,-1,30,-1,32,34,36,38,-1,-1,40,-1,-1,-1,42,44,46,-1,48,50,-1,-1,-1,-1,-1,-1,-1,-1,-1,-1,-1,-1,-1,-1],"split_conditions":[3.4223425E-1,2.97379E3,5.693259E-1,9.853482E-3,3.176122E3,2.996164E3,3.0724102E3,2.8524414E3,-2.7240655E-1,1.2186064E4,-5.3149915E-1,2.366397E-2,2.882741E-1,1.590967E4,3.133959E3,3.3867164E0,2.5816843E-1,1.8628463E-5,9.2684984E-2,1.3608354E3,2.1488753E-1,1.1319325E1,9.800744E-1,9.921446E-1,1.895786E4,-8.714465E-2,8.796611E-2,-4.7591543E-1,3.0016753E-1,7.9900794E-2,-1.6002268E-1,1.1140369E-2,6.1099627E-4,3.0036226E3,-1.679166E-1,1.383052E4,-1.8358374E3,-3.159479E-1,-3.5094444E-2,8.958939E-4,1.5505053E-1,5.49205E-2,-3.3431208E-1,1.962064E-1,-1.8405747E-1,4.434969E-2,2.374029E-1,5.795727E-2,3.2676366E-1,1.5515415E-1,-2.332691E-1],"split_indices":[7,0,18,20,0,0,0,0,0,3,1,0,0,12,0,4,0,32,0,11,0,5,7,7,12,0,0,1,0,0,0,8,32,0,0,12,10,0,0,0,0,0,0,0,0,0,0,0,0,0,0],"split_type":[0,0,0,0,0,0,0,0,0,0,0,0,0,0,0,0,0,0,0,0,0,0,0,0,0,0,0,0,0,0,0,0,0,0,0,0,0,0,0,0,0,0,0,0,0,0,0,0,0,0,0],"sum_hessian":[2.9814558E3,2.8863152E3,9.51405E1,9.347968E0,2.8769673E3,2.2646963E1,7.2493546E1,7.832219E0,1.5157492E0,2.8718064E3,5.1609225E0,1.0390546E0,2.1607908E1,1.8228401E1,5.4265144E1,2.2156034E0,5.616616E0,2.869934E3,1.8723246E0,2.7417748E0,2.4191475E0,1.3981081E1,4.2473197E0,4.926255E1,5.0025926E0,1.1820136E0,1.0335898E0,2.0590196E0,2.867875E3,1.7371472E0,1.0046277E0,1.1254971E1,2.7261102E0,2.6762068E0,1.5711128E0,4.130671E1,7.955842E0,3.8369982E0,1.1655945E0,1.0007579E0,1.0582618E0,1.0008445E0,1.0254127E1,1.3614327E0,1.3646777E0,1.062705E0,1.6135018E0,3.1595617E1,9.71109E0,1.5755438E0,6.3802986E0],"tree_param":{"num_deleted":"0","num_feature":"39","num_nodes":"51","size_leaf_vector":"0"}},{"base_weights":[9.624069E-1,9.935454E-1,1.6610098E-1,2.7489188E-1,9.9619067E-1,7.4902123E-1,-9.6596E-2,5.447013E-1,-9.7336954E-1,9.9758536E-1,2.943335E-1,9.1221094E-1,6.933905E-2,2.1163287E-2,-9.17623E-1,1.3111512E-2,8.2573134E-1,9.9804676E-1,2.663543E-1,6.736015E-1,-1.0286099E-1,9.458426E-1,1.1571398E-1,-6.513938E-1,4.4728863E-1,2.7776003E-1,-4.4089276E-1,-1.6193242E0,-3.9239162E-1,2.8759363E-1,-3.695153E-1,3.1530735E-1,9.985103E-1,-4.5773607E-1,2.5790098E-1,6.602801E-1,-1.3117471E-1,4.8804688E-1,-6.5192175E-1,-7.8495376E-2,-9.4957024E-1,3.1178293E-1,-7.1123636E-1,7.7296746E-1,1.0003653E0,-1.2326598E-1,6.719214E-1,5.379051E-1,-9.7264504E-1,-7.61344E-1,2.5979936E-1,1.6300738E-2,-1.1308217E0,-8.983544E-2,-9.915477E-1],"categories":[],"categories_nodes":[],"categories_segments":[],"categories_sizes":[],"default_left":[1,1,1,1,1,1,1,1,0,1,1,1,1,1,1,1,0,1,0,0,1,0,0,0,1,1,1,0,1,0,0,0,1,0,0,0,0,1,1,1,1,0,1,0,0,0,0,0,0,0,0,0,0,0,0],"id":17,"left_children":[1,3,5,7,9,11,13,15,-1,17,19,21,23,25,27,29,-1,31,-1,-1,33,-1,-1,-1,35,37,39,-1,41,-1,-1,-1,43,-1,-1,-1,-1,45,47,49,51,-1,53,-1,-1,-1,-1,-1,-1,-1,-1,-1,-1,-1,-1],"loss_changes":[5.512915E1,3.8051758E0,1.3106831E1,3.6457608E0,1.7990723E0,2.8824005E0,5.7781186E0,1.2213252E0,0E0,4.5361328E-1,9.2161036E-1,4.6201515E-1,1.9867966E0,6.414366E0,2.1265135E0,5.125531E-1,0E0,3.5961914E-1,0E0,0E0,5.8293146E-1,0E0,0E0,0E0,6.6271293E-1,7.1086044E0,3.4896898E0,0E0,1.4803557E0,0E0,0E0,0E0,1.1767578E-1,0E0,0E0,0E0,0E0,3.331142E0,3.131598E0,3.057839E0,1.4108691E0,0E0,6.361177E-1,0E0,0E0,0E0,0E0,0E0,0E0,0E0,0E0,0E0,0E0,0E0,0E0],"parents":[2147483647,0,0,1,1,2,2,3,3,4,4,5,5,6,6,7,7,9,9,10,10,11,11,12,12,13,13,14,14,15,15,17,17,20,20,24,24,25,25,26,26,28,28,32,32,37,37,38,38,39,39,40,40,42,42],"right_children":[2,4,6,8,10,12,14,16,-1,18,20,22,24,26,28,30,-1,32,-1,-1,34,-1,-1,-1,36,38,40,-1,42,-1,-1,-1,44,-1,-1,-1,-1,46,48,50,52,-1,54,-1,-1,-1,-1,-1,-1,-1,-1,-1,-1,-1,-1],"split_conditions":[3.4223425E-1,2.97379E3,7.936208E-1,2.9706445E3,3.176122E3,9.822134E-1,5.377563E-3,2.858154E3,-2.9201087E-1,1.2186064E4,6.6398495E-1,4.2159204E0,-9.159087E-1,3.3078525E0,1.2431795E4,8.539637E-1,2.477194E-1,1.8628463E-5,7.990629E-2,2.0208046E-1,2.823232E-6,2.837528E-1,3.4714196E-2,-1.9541813E-1,1.0459233E3,9.924264E2,9.6336854E-1,-4.857973E-1,5.055193E-1,8.6278096E-2,-1.10854596E-1,9.4592206E-2,3.0284565E3,-1.3732083E-1,7.73703E-2,1.9808404E-1,-3.9352417E-2,9.344704E-5,2.3431349E0,-5.9139633E0,1.7251524E-4,9.353488E-2,9.7216845E-1,2.3189025E-1,3.001096E-1,-3.6979795E-2,2.0157643E-1,1.6137153E-1,-2.9179353E-1,-2.2840321E-1,7.793981E-2,4.8902216E-3,-3.392465E-1,-2.6950633E-2,-2.974643E-1],"split_indices":[7,0,18,0,0,7,33,0,0,3,18,24,1,24,35,18,0,32,0,0,28,0,0,0,6,6,7,0,26,0,0,0,0,0,0,0,0,29,24,13,29,0,18,0,0,0,0,0,0,0,0,0,0,0,0],"split_type":[0,0,0,0,0,0,0,0,0,0,0,0,0,0,0,0,0,0,0,0,0,0,0,0,0,0,0,0,0,0,0,0,0,0,0,0,0,0,0,0,0,0,0,0,0,0,0,0,0,0,0,0,0,0,0],"sum_hessian":[2.2289749E3,2.1448552E3,8.4119576E1,8.250692E0,2.1366047E3,2.555723E1,5.8562344E1,7.247739E0,1.0029533E0,2.1319468E3,4.657894E0,2.033318E1,5.224051E0,5.206843E1,6.493913E0,2.8684683E0,4.3792706E0,2.1302378E3,1.70901E0,2.0267339E0,2.6311605E0,1.9329498E1,1.0036819E0,1.5482032E0,3.6758478E0,3.3733715E1,1.8334715E1,1.888216E0,4.605697E0,1.8148987E0,1.0535697E0,1.9074913E0,2.1283303E3,1.1908948E0,1.4402655E0,2.583251E0,1.0925968E0,2.7898361E1,5.8353558E0,1.1380916E1,6.9537992E0,1.442362E0,3.163335E0,2.0769012E1,2.1075613E3,6.527274E0,2.1371086E1,1.0951988E0,4.7401567E0,3.3560953E0,8.02482E0,1.2425327E0,5.7112665E0,1.3938652E0,1.7694699E0],"tree_param":{"num_deleted":"0","num_feature":"39","num_nodes":"55","size_leaf_vector":"0"}},{"base_weights":[9.499509E-1,9.9242705E-1,1.6281402E-1,3.0607453E-1,9.95184E-1,9.0911776E-1,-6.699637E-2,7.715119E-1,-1.9630903E-1,9.9618506E-1,-3.449576E-2,4.708304E-2,9.5142686E-1,6.731203E-2,-9.1820896E-1,-9.101788E-1,3.1170014E-1,9.968084E-1,2.2881581E-1,3.734293E-1,-2.9326043E-1,-1.6661578E0,-3.5217893E-1,-2.044854E-1,6.238236E-1,2.6987025E-1,9.9743474E-1,-1.093325E-1,7.5517875E-1,-6.3173074E-1,3.8183698E-1,-2.081727E0,-5.1403666E-1,-8.6632633E-1,3.0829865E-1,-9.22729E-1,3.767166E-1,-6.777998E-1,9.801043E-1,-8.6261874E-1,2.7452335E-1,5.900504E-1,-4.6039277E-1,-1.05376E0,-1.666491E-1,6.223797E-1,-2.479815E-1],"categories":[],"categories_nodes":[],"categories_segments":[],"categories_sizes":[],"default_left":[1,1,1,1,1,1,1,0,1,1,0,0,0,1,1,0,1,1,0,1,1,1,1,0,0,0,0,1,1,1,1,0,0,1,1,0,0,0,0,0,0,0,0,0,0,0,0],"id":18,"left_children":[1,3,5,7,9,11,13,-1,15,17,-1,-1,-1,19,21,-1,23,25,-1,27,29,31,33,-1,-1,-1,-1,35,37,39,41,-1,-1,43,45,-1,-1,-1,-1,-1,-1,-1,-1,-1,-1,-1,-1],"loss_changes":[5.577661E1,2.6989746E0,1.4957672E1,1.973982E0,1.6634521E0,7.0352745E-1,7.7604027E0,0E0,1.9321553E0,5.2697754E-1,0E0,0E0,0E0,6.63217E0,3.3273792E0,0E0,6.7544353E-1,4.489746E-1,0E0,6.0537553E0,6.5692596E0,7.08457E-1,2.4848208E0,0E0,0E0,0E0,0E0,6.3493547E0,6.5367107E0,4.1752796E0,2.0027246E0,0E0,0E0,3.403921E-1,7.826432E-1,0E0,0E0,0E0,0E0,0E0,0E0,0E0,0E0,0E0,0E0,0E0,0E0],"parents":[2147483647,0,0,1,1,2,2,3,3,4,4,5,5,6,6,8,8,9,9,13,13,14,14,16,16,17,17,19,19,20,20,21,21,22,22,27,27,28,28,29,29,30,30,33,33,34,34],"right_children":[2,4,6,8,10,12,14,-1,16,18,-1,-1,-1,20,22,-1,24,26,-1,28,30,32,34,-1,-1,-1,-1,36,38,40,42,-1,-1,44,46,-1,-1,-1,-1,-1,-1,-1,-1,-1,-1,-1,-1],"split_conditions":[1.4229281E-1,2.9726626E3,5.693259E-1,7.580983E-1,3.221225E3,2.9982856E3,1.01667175E3,2.3145358E-1,-4.573412E-1,1.2186064E4,-1.0348728E-2,1.4124912E-2,2.8542808E-1,9.6591806E-1,3.0696147E3,-2.7305365E-1,2.7560264E3,1.8628463E-5,6.864475E-2,-7.0092547E-1,9.9005E-1,8.527589E-1,-1.1979777E2,-6.1345622E-2,1.8714708E-1,8.096108E-2,2.9923043E-1,1.6041523E3,2.9536323E3,1.9777458E1,9.7064856E2,-6.2451816E-1,-1.54211E-1,-5.368233E-1,3.1083916E3,-2.7681872E-1,1.1301499E-1,-2.0333995E-1,2.9403132E-1,-2.5878564E-1,8.2357004E-2,1.7701513E-1,-1.3811783E-1,-3.1612802E-1,-4.9994733E-2,1.8671392E-1,-7.439446E-2],"split_indices":[7,0,18,18,0,0,6,0,1,3,0,0,0,18,0,0,0,32,0,1,18,7,19,0,0,0,0,3,0,16,6,0,0,1,0,0,0,0,0,0,0,0,0,0,0,0,0],"split_type":[0,0,0,0,0,0,0,0,0,0,0,0,0,0,0,0,0,0,0,0,0,0,0,0,0,0,0,0,0,0,0,0,0,0,0,0,0,0,0,0,0,0,0,0,0,0,0],"sum_hessian":[1.6720704E3,1.5862131E3,8.5857376E1,6.794304E0,1.5794188E3,1.9517809E1,6.633956E1,3.2487602E0,3.5455437E0,1.5779172E3,1.5014879E0,1.0119742E0,1.8505835E1,5.809412E1,8.245446E0,1.1449572E0,2.4005864E0,1.5763378E3,1.5795323E0,3.1400337E1,2.669378E1,2.714688E0,5.5307584E0,1.0345384E0,1.3660481E0,1.7287759E0,1.574609E3,1.41808195E1,1.7219517E1,1.7822458E1,8.871323E0,1.4020904E0,1.3125975E0,2.934633E0,2.5961256E0,4.9681916E0,9.212628E0,2.0629873E0,1.5156529E1,1.4242118E1,3.5803406E0,7.3529644E0,1.5183581E0,1.9154459E0,1.0191871E0,1.5833352E0,1.0127904E0],"tree_param":{"num_deleted":"0","num_feature":"39","num_nodes":"47","size_leaf_vector":"0"}},{"base_weights":[9.3622714E-1,9.887871E-1,1.2902433E-1,2.676119E-1,9.9220335E-1,8.806802E-1,-6.3039325E-2,-4.320577E-1,5.483712E-1,9.9385583E-1,2.1813571E-2,3.9965805E-2,9.350169E-1,-6.366381E-1,1.18763305E-1,-1.11187726E-1,7.6355803E-1,9.9469423E-1,1.9603927E-1,3.4644523E-1,-3.1130025E-1,-2.1502411E0,-3.7926295E-1,-5.321665E-2,8.2259804E-1,2.3191833E-1,9.955367E-1,-7.5645334E-1,-1.08480744E-1,7.6443225E-2,-9.541745E-1,9.030433E-1,7.180071E-2,7.0522654E-1,9.98063E-1,-2.3343522E-2,-9.230251E-1,-6.753681E-1,2.315086E-1,-2.4635917E-1,3.4811577E-1],"categories":[],"categories_nodes":[],"categories_segments":[],"categories_sizes":[],"default_left":[1,1,1,1,1,1,1,0,1,1,1,0,0,1,1,0,0,1,0,0,0,0,1,1,1,0,1,1,1,1,0,0,0,0,0,0,0,0,0,0,0],"id":19,"left_children":[1,3,5,7,9,11,13,-1,15,17,19,-1,-1,21,23,-1,-1,25,-1,-1,-1,-1,27,29,31,-1,33,35,37,39,-1,-1,-1,-1,-1,-1,-1,-1,-1,-1,-1],"loss_changes":[5.3212524E1,2.642212E0,1.1317315E1,1.5989889E0,1.8613281E0,6.909323E-1,6.652224E0,0E0,8.4973204E-1,5.892334E-1,4.3429416E-1,0E0,0E0,5.1585646E0,5.9423857E0,0E0,0E0,5.2160645E-1,0E0,0E0,0E0,0E0,1.3806119E0,4.7574344E0,5.167799E-1,0E0,1.5356445E-1,6.8881154E-1,1.9880471E0,3.2412233E0,0E0,0E0,0E0,0E0,0E0,0E0,0E0,0E0,0E0,0E0,0E0],"parents":[2147483647,0,0,1,1,2,2,3,3,4,4,5,5,6,6,8,8,9,9,10,10,13,13,14,14,17,17,22,22,23,23,24,24,26,26,27,27,28,28,29,29],"right_children":[2,4,6,8,10,12,14,-1,16,18,20,-1,-1,22,24,-1,-1,26,-1,-1,-1,-1,28,30,32,-1,34,36,38,40,-1,-1,-1,-1,-1,-1,-1,-1,-1,-1,-1],"split_conditions":[1.4229281E-1,2.9726626E3,5.693259E-1,-5.159605E-1,3.2073882E3,2.9982856E3,3.0701978E3,-1.2961732E-1,2.6467961E3,1.2186064E4,1.686956E-3,1.1989742E-2,2.8050506E-1,3.9900893E-1,-4.9205226E-1,-3.335632E-2,2.2906741E-1,1.8628463E-5,5.8811784E-2,1.0393357E-1,-9.339008E-2,-6.4507234E-1,1.5984982E3,3.1333965E3,1.4091231E1,6.95755E-2,3.0284565E3,4.26883E-6,2.9573882E3,7.7452135E0,-2.8625238E-1,2.70913E-1,2.1540213E-2,2.1156797E-1,2.9941893E-1,-7.003057E-3,-2.7690753E-1,-2.0261043E-1,6.9452584E-2,-7.3907755E-2,1.04434736E-1],"split_indices":[7,0,18,1,0,0,0,0,0,3,38,0,0,7,1,0,0,32,0,0,0,0,25,0,5,0,0,20,0,13,0,0,0,0,0,0,0,0,0,0,0],"split_type":[0,0,0,0,0,0,0,0,0,0,0,0,0,0,0,0,0,0,0,0,0,0,0,0,0,0,0,0,0,0,0,0,0,0,0,0,0,0,0,0,0],"sum_hessian":[1.2562351E3,1.1792263E3,7.700877E1,5.933768E0,1.1732926E3,1.4942966E1,6.2065807E1,1.5448977E0,4.3888702E0,1.1712738E3,2.0187519E0,1.012516E0,1.393045E1,1.433528E1,4.773053E1,1.1985495E0,3.1903207E0,1.1697977E3,1.4760654E0,1.0021242E0,1.0166277E0,1.0145125E0,1.3320768E1,3.910076E1,8.6297655E0,1.5954247E0,1.1682023E3,4.8171105E0,8.503657E0,3.4981598E1,4.1191654E0,7.6114473E0,1.0183188E0,1.2495062E1,1.1557073E3,1.1029565E0,3.7141542E0,2.8182158E0,5.6854415E0,1.6029024E1,1.8952572E1],"tree_param":{"num_deleted":"0","num_feature":"39","num_nodes":"41","size_leaf_vector":"0"}},{"base_weights":[9.189212E-1,9.864448E-1,1.17994495E-1,2.4980305E-2,9.88815E-1,8.731661E-1,-7.2395936E-2,2.944649E-1,-2.357808E-1,9.9084246E-1,4.511238E-2,5.347169E-2,9.305741E-1,-1.923067E-1,6.659876E-1,9.9196357E-1,8.001808E-3,-1.6475039E0,-6.982067E-2,-5.0271046E-1,8.837003E-1,9.930927E-1,1.6999649E-1,-2.5457587E0,6.6325404E-2,-9.7416645E-1,2.0466156E-2,1.9761956E-1,9.94228E-1,-1.1421058E0,-1.929698E-1,2.686296E-1,-3.2583523E-1],"categories":[],"categories_nodes":[],"categories_segments":[],"categories_sizes":[],"default_left":[1,1,1,1,1,1,1,0,0,1,0,0,0,1,1,1,0,1,1,0,0,1,0,0,0,1,1,0,0,0,0,0,0],"id":20,"left_children":[1,3,5,7,9,11,13,-1,-1,15,-1,-1,-1,17,19,21,-1,23,25,-1,-1,27,-1,-1,-1,29,31,-1,-1,-1,-1,-1,-1],"loss_changes":[5.1190063E1,1.968811E0,1.0831871E1,2.9269394E-1,1.624939E0,6.6350365E-1,5.5060616E0,0E0,0E0,9.5147705E-1,0E0,0E0,0E0,9.337223E0,2.660428E0,6.3830566E-1,0E0,6.4388456E0,4.099016E0,0E0,0E0,5.876465E-1,0E0,0E0,0E0,3.77254E-1,4.0753155E0,0E0,0E0,0E0,0E0,0E0,0E0],"parents":[2147483647,0,0,1,1,2,2,3,3,4,4,5,5,6,6,9,9,13,13,14,14,15,15,17,17,18,18,21,21,25,25,26,26],"right_children":[2,4,6,8,10,12,14,-1,-1,16,-1,-1,-1,18,20,22,-1,24,26,-1,-1,28,-1,-1,-1,30,32,-1,-1,-1,-1,-1,-1],"split_conditions":[5.5756137E-2,2.858154E3,5.693954E-1,9.337918E0,3.2073882E3,2.996164E3,-3.2585716E-1,8.833947E-2,-7.073425E-2,5.764035E5,1.3533714E-2,1.6041508E-2,2.7917224E-1,9.995957E2,2.9101865E3,1.2186064E4,2.4005426E-3,-6.2045133E-1,2.991061E3,-1.5081315E-1,2.651101E-1,1.8628463E-5,5.099895E-2,-7.6372766E-1,1.9897621E-2,9.985647E-1,9.2316144E2,5.9285868E-2,2.982684E-1,-3.4263176E-1,-5.789094E-2,8.0588885E-2,-9.7750574E-2],"split_indices":[7,0,18,16,0,0,1,0,0,21,0,0,0,3,0,3,0,1,0,0,0,32,0,0,0,15,6,0,0,0,0,0,0],"split_type":[0,0,0,0,0,0,0,0,0,0,0,0,0,0,0,0,0,0,0,0,0,0,0,0,0,0,0,0,0,0,0,0,0],"sum_hessian":[9.476883E2,8.737902E2,7.3898094E1,2.1771924E0,8.7161304E2,1.4157416E1,5.974068E1,1.0071244E0,1.170068E0,8.696946E2,1.9184393E0,1.0530459E0,1.310437E1,5.203065E1,7.710028E0,8.686944E2,1.0001556E0,3.0728662E0,4.8957787E1,1.0051663E0,6.704862E0,8.672948E2,1.3995937E0,1.697663E0,1.3752033E0,3.5554473E0,4.540234E1,1.4855436E0,8.6580927E2,2.546099E0,1.0093484E0,2.6579477E1,1.8822863E1],"tree_param":{"num_deleted":"0","num_feature":"39","num_nodes":"33","size_leaf_vector":"0"}},{"base_weights":[8.968325E-1,9.811915E-1,8.794521E-2,4.5374298E-1,9.902237E-1,8.3725774E-1,-6.797775E-2,8.223798E-1,-1.1332077E0,9.9301577E-1,3.6406334E-2,1.819745E-2,9.102434E-1,4.0353343E-2,-7.8117794E-1,8.459825E-3,9.0585244E-1,9.945606E-1,1.3268095E-1,3.329234E-1,-3.0946535E-1,-1.2257062E0,-1.2381965E-1,1.6305181E-1,9.96115E-1,5.045702E-1,-3.0077633E-1,-5.5756265E-1,2.821108E-1,-1.4834545E0,-1.8460755E-1,3.1924495E-1,-6.297664E-1,-2.8252998E-1,6.472758E-1,3.2789072E-1,-7.7279323E-1,-1.2592078E0,-2.0582475E-1,6.726248E-1,-2.048754E-1],"categories":[],"categories_nodes":[],"categories_segments":[],"categories_sizes":[],"default_left":[1,1,1,1,1,1,1,1,0,1,0,0,0,1,1,0,0,1,0,1,1,1,1,0,0,1,1,1,1,0,0,0,0,0,0,0,0,0,0,0,0],"id":21,"left_children":[1,3,5,7,9,11,13,15,-1,17,-1,-1,-1,19,21,-1,-1,23,-1,25,27,29,31,-1,-1,33,35,37,39,-1,-1,-1,-1,-1,-1,-1,-1,-1,-1,-1,-1],"loss_changes":[4.902893E1,2.6553955E0,8.127255E0,8.430457E0,1.6678467E0,6.9917107E-1,4.520566E0,7.3838997E-1,0E0,7.160034E-1,0E0,0E0,0E0,5.3627214E0,2.1014109E0,0E0,0E0,6.6052246E-1,0E0,3.2482128E0,3.6685588E0,9.303622E-1,1.1477203E0,0E0,0E0,2.7408605E0,2.2397368E0,3.9834986E0,1.6083835E0,0E0,0E0,0E0,0E0,0E0,0E0,0E0,0E0,0E0,0E0,0E0,0E0],"parents":[2147483647,0,0,1,1,2,2,3,3,4,4,5,5,6,6,7,7,9,9,13,13,14,14,17,17,19,19,20,20,21,21,22,22,25,25,26,26,27,27,28,28],"right_children":[2,4,6,8,10,12,14,16,-1,18,-1,-1,-1,20,22,-1,-1,24,-1,26,28,30,32,-1,-1,34,36,38,40,-1,-1,-1,-1,-1,-1,-1,-1,-1,-1,-1,-1],"split_conditions":[5.5756137E-2,3.0284565E3,5.693954E-1,8.779602E-1,3.2073882E3,2.9954788E3,1.01627795E3,2.7687854E3,-3.399623E-1,1.2186064E4,1.0921901E-2,5.4592355E-3,2.7307302E-1,9.7323394E-1,3.0898342E3,2.5379476E-3,2.7175575E-1,1.8628463E-5,3.9804287E-2,9.920252E-1,9.914205E-1,1.1140536E-1,1.3563105E0,4.8915546E-2,2.9883453E-1,4.5093447E3,1.4855773E-3,6.2726094E3,1.2527829E-3,-4.4503635E-1,-5.5382267E-2,9.577349E-2,-1.8892993E-1,-8.4759E-2,1.9418275E-1,9.836722E-2,-2.3183797E-1,-3.7776238E-1,-6.1747428E-2,2.0178746E-1,-6.1462622E-2],"split_indices":[7,0,18,18,0,0,6,0,0,3,0,0,0,18,0,0,0,32,0,7,18,9,26,0,0,12,29,12,32,0,0,0,0,0,0,0,0,0,0,0,0],"split_type":[0,0,0,0,0,0,0,0,0,0,0,0,0,0,0,0,0,0,0,0,0,0,0,0,0,0,0,0,0,0,0,0,0,0,0,0,0,0,0,0,0],"sum_hessian":[7.187751E2,6.507004E2,6.807466E1,1.1817813E1,6.3888257E2,1.097291E1,5.710175E1,9.9810705E0,1.8367424E0,6.369769E2,1.9056535E0,1.0000021E0,9.972908E0,5.0391052E1,6.710698E0,1.0308514E0,8.950219E0,6.356795E2,1.2974672E0,2.746721E1,2.2923841E1,3.487641E0,3.2230573E0,1.3837067E0,6.342958E2,2.1773354E1,5.693857E0,1.619107E1,6.7327714E0,2.4549642E0,1.0326769E0,1.9150425E0,1.3080146E0,3.1913712E0,1.8581982E1,2.572694E0,3.1211634E0,4.544921E0,1.164615E1,3.5249314E0,3.20784E0],"tree_param":{"num_deleted":"0","num_feature":"39","num_nodes":"41","size_leaf_vector":"0"}},{"base_weights":[8.699413E-1,9.7491366E-1,6.3523695E-2,4.6705508E-1,9.883468E-1,-9.054663E-2,7.348873E-1,8.372797E-1,-9.6965563E-1,9.921453E-1,2.936449E-2,-1.1593367E0,1.8871312E-3,-5.3228664E-1,9.132982E-1,1.2366116E-2,9.12776E-1,-2.2241566E0,4.6935698E-1,9.94252E-1,8.43181E-2,-1.7457165E0,1.08073816E-1,-5.3430796E-1,1.1509151E-1,1.3663891E-1,9.9636173E-1,-9.473613E-1,1.7985472E-1,5.063189E-1,-1.5967973E-1,-4.2929098E-2,-1.1773244E0,6.884108E-1,-6.866196E-1,-4.528199E-1,5.9654826E-1,4.4694522E-1,-4.389414E-1],"categories":[],"categories_nodes":[],"categories_segments":[],"categories_sizes":[],"default_left":[1,1,1,1,1,1,1,1,1,1,0,1,1,0,0,0,0,0,0,1,0,0,0,1,1,0,0,1,1,1,1,0,0,0,0,0,0,0,0],"id":22,"left_children":[1,3,5,7,9,11,13,15,17,19,-1,21,23,-1,-1,-1,-1,-1,-1,25,-1,-1,-1,27,29,-1,-1,31,33,35,37,-1,-1,-1,-1,-1,-1,-1,-1],"loss_changes":[4.645288E1,2.854828E0,6.723607E0,8.483515E0,1.6927795E0,5.2615E0,3.2267509E0,7.363243E-1,7.215144E0,8.1655884E-1,0E0,3.3391943E0,3.096283E0,0E0,0E0,0E0,0E0,0E0,0E0,7.13562E-1,0E0,0E0,0E0,2.7936378E0,4.6069546E0,0E0,0E0,1.1544628E0,2.2789373E0,1.7941976E0,4.51495E0,0E0,0E0,0E0,0E0,0E0,0E0,0E0,0E0],"parents":[2147483647,0,0,1,1,2,2,3,3,4,4,5,5,6,6,7,7,8,8,9,9,11,11,12,12,19,19,23,23,24,24,27,27,28,28,29,29,30,30],"right_children":[2,4,6,8,10,12,14,16,18,20,-1,22,24,-1,-1,-1,-1,-1,-1,26,-1,-1,-1,28,30,-1,-1,32,34,36,38,-1,-1,-1,-1,-1,-1,-1,-1],"split_conditions":[5.5756137E-2,3.0425112E3,-3.8534725E-1,8.670238E-1,3.2073882E3,9.9828394E2,2.8965264E3,2.7687854E3,-2.6046494E-1,1.2590285E4,8.809348E-3,-6.200001E-1,8.516581E2,-1.59686E-1,2.7398947E-1,3.709835E-3,2.738328E-1,-6.67247E-1,1.408071E-1,1.8628463E-5,2.529543E-2,-5.2371496E-1,3.2422148E-2,2.4358838E3,9.064881E2,4.0991675E-2,2.9890853E-1,8.9953756E-1,6.4367848E-3,2.9912222E3,-7.629383E-1,-1.287873E-2,-3.5319734E-1,2.0652325E-1,-2.0598589E-1,-1.3584597E-1,1.7896448E-1,1.3408357E-1,-1.3168243E-1],"split_indices":[7,0,1,18,0,3,0,0,1,10,0,1,6,0,0,0,0,0,0,32,0,0,0,25,6,0,0,18,32,0,1,0,0,0,0,0,0,0,0],"split_type":[0,0,0,0,0,0,0,0,0,0,0,0,0,0,0,0,0,0,0,0,0,0,0,0,0,0,0,0,0,0,0,0,0,0,0,0,0,0,0],"sum_hessian":[5.484855E2,4.8512695E2,6.3358513E1,1.3422937E1,4.71704E2,5.223606E1,1.1122453E1,1.1004438E1,2.4184988E0,4.6980856E2,1.8954618E0,3.2392316E0,4.899683E1,1.1279107E0,9.994542E0,1.0202655E0,9.984173E0,1.0005912E0,1.4179076E0,4.6862585E2,1.1827195E0,1.9566023E0,1.2826293E0,7.892757E0,4.1104073E1,1.3113421E0,4.673145E2,4.7936807E0,3.099076E0,1.6610647E1,2.4493425E1,1.2123306E0,3.5813503E0,2.0823781E0,1.0166979E0,1.0827254E0,1.5527923E1,7.5318794E0,1.6961546E1],"tree_param":{"num_deleted":"0","num_feature":"39","num_nodes":"39","size_leaf_vector":"0"}},{"base_weights":[8.384233E-1,9.6665573E-1,4.3647263E-2,3.99434E-1,9.839473E-1,8.18976E-1,-6.820755E-2,7.9506916E-1,-7.0537907E-1,9.8905605E-1,2.367802E-2,2.2447841E-2,-8.066892E-1,1.0494941E-2,8.868198E-1,4.7503862E-1,-2.0007422E0,9.918849E-1,7.830752E-4,-7.387231E-1,1.1398714E-1,-1.4752867E0,-2.878073E-1,1.1768177E-1,9.947184E-1,-9.088444E-1,-2.6823054E-3,3.8639796E-1,-1.9142735E-1,1.5736285E-1,-6.4069444E-1,-4.7167526E-3,7.161595E-1,-4.3463877E-1,3.1435958E-1],"categories":[],"categories_nodes":[],"categories_segments":[],"categories_sizes":[],"default_left":[1,1,1,1,1,0,1,1,1,1,0,1,1,0,0,0,0,1,0,1,1,0,1,0,0,0,0,1,1,0,0,0,0,0,0],"id":23,"left_children":[1,3,5,7,9,-1,11,13,15,17,-1,19,21,-1,-1,-1,-1,23,-1,25,27,-1,29,-1,-1,-1,-1,31,33,-1,-1,-1,-1,-1,-1],"loss_changes":[4.2979828E1,3.1716003E0,5.232738E0,5.9961476E0,1.7034607E0,0E0,3.5723822E0,6.836357E-1,6.7741857E0,9.7802734E-1,0E0,3.4467325E0,1.598603E0,0E0,0E0,0E0,0E0,7.4768066E-1,0E0,6.629989E-1,3.7300665E0,0E0,8.118208E-1,0E0,0E0,0E0,0E0,3.0418262E0,2.7673857E0,0E0,0E0,0E0,0E0,0E0,0E0],"parents":[2147483647,0,0,1,1,2,2,3,3,4,4,6,6,7,7,8,8,9,9,11,11,12,12,17,17,19,19,20,20,22,22,27,27,28,28],"right_children":[2,4,6,8,10,-1,12,14,16,18,-1,20,22,-1,-1,-1,-1,24,-1,26,28,-1,30,-1,-1,-1,-1,32,34,-1,-1,-1,-1,-1,-1],"split_conditions":[5.5756137E-2,3.0425112E3,4.5302647E-1,8.670238E-1,3.2073882E3,2.456928E-1,9.360508E-3,2.7687854E3,1.2881085E3,1.4393822E5,7.1034064E-3,2.991061E3,1.0095809E4,3.1484824E-3,2.6604596E-1,1.4251159E-1,-6.002227E-1,1.8628463E-5,2.3492255E-4,1.2917809E5,9.6509993E-1,-4.4258603E-1,9.731965E-1,3.530453E-2,2.984155E-1,-2.7265334E-1,-8.0469163E-4,1.480646E3,5.2121123E3,4.7208857E-2,-1.9220833E-1,-1.4150258E-3,2.1484786E-1,-1.3039164E-1,9.430788E-2],"split_indices":[7,0,18,18,0,0,33,0,19,34,0,0,31,0,0,0,0,32,0,21,7,0,18,0,0,0,0,25,30,0,0,0,0,0,0],"split_type":[0,0,0,0,0,0,0,0,0,0,0,0,0,0,0,0,0,0,0,0,0,0,0,0,0,0,0,0,0,0,0,0,0,0,0],"sum_hessian":[4.2113187E2,3.6243832E2,5.869355E1,1.1434881E1,3.5100345E2,6.6029572E0,5.209059E1,8.626189E0,2.8086922E0,3.4911612E2,1.8873332E0,4.725875E1,4.8318415E0,1.0198313E0,7.6063576E0,1.8008869E0,1.0078055E0,3.48116E2,1.0001034E0,4.3143015E0,4.294445E1,1.3059179E0,3.525924E0,1.2620691E0,3.4685394E2,3.3136437E0,1.0006579E0,2.2558502E1,2.0385946E1,1.8041031E0,1.7218207E0,1.0770185E1,1.1788317E1,1.3861303E1,6.5246434E0],"tree_param":{"num_deleted":"0","num_feature":"39","num_nodes":"35","size_leaf_vector":"0"}},{"base_weights":[7.992546E-1,9.556897E-1,2.9093673E-2,3.3470175E-1,9.781707E-1,-8.336572E-2,6.89721E-1,8.543175E-1,-4.0185592E-1,9.887558E-1,2.3458724E-1,1.8236076E-2,-7.6536906E-1,-3.0338094E-1,8.67441E-1,-1.5503014E0,4.3950513E-1,9.925919E-1,4.3373404E-4,6.4696354E-1,-5.8361816E-1,4.6157664E-1,-1.7457296E-1,-1.2306553E0,-7.242691E-2,-5.570264E-2,6.4708984E-1,9.964363E-1,4.343927E-1,7.024509E-1,-2.653725E-1,-6.0501564E-1,-1.7067097E-2,-1.4233488E0,-3.6366412E-1,3.6937472E-1,-3.835269E-1,1.792596E-4,6.0565096E-1,8.1912136E-1,-1.9871524E-1,-6.3541967E-1,2.8235546E-1,5.1282936E-1,-8.737302E-1,1.3855524E-1,-6.9667435E-1],"categories":[],"categories_nodes":[],"categories_segments":[],"categories_sizes":[],"default_left":[1,1,1,1,1,1,1,0,1,1,1,1,1,0,0,0,1,1,0,0,0,1,1,1,1,0,0,0,1,1,1,1,1,0,0,0,0,0,0,0,0,0,0,0,0,0,0],"id":24,"left_children":[1,3,5,7,9,11,13,-1,15,17,19,21,23,-1,-1,-1,25,27,-1,-1,-1,29,31,33,35,-1,-1,-1,37,39,41,43,45,-1,-1,-1,-1,-1,-1,-1,-1,-1,-1,-1,-1,-1,-1],"loss_changes":[3.948709E1,3.477829E0,4.2479033E0,4.569825E0,1.8344116E0,3.415573E0,1.7303066E0,0E0,5.752373E0,9.797821E-1,2.0632057E0,3.8162434E0,1.9705663E0,0E0,0E0,0E0,4.2751157E-1,1.19781494E-1,0E0,0E0,0E0,2.5538092E0,2.1037388E0,1.1044693E-1,6.4043224E-1,0E0,0E0,0E0,2.6272148E-1,1.259304E0,1.0085378E0,2.948562E0,2.6197767E0,0E0,0E0,0E0,0E0,0E0,0E0,0E0,0E0,0E0,0E0,0E0,0E0,0E0,0E0],"parents":[2147483647,0,0,1,1,2,2,3,3,4,4,5,5,6,6,8,8,9,9,10,10,11,11,12,12,16,16,17,17,21,21,22,22,23,23,24,24,28,28,29,29,30,30,31,31,32,32],"right_children":[2,4,6,8,10,12,14,-1,16,18,20,22,24,-1,-1,-1,26,28,-1,-1,-1,30,32,34,36,-1,-1,-1,38,40,42,44,46,-1,-1,-1,-1,-1,-1,-1,-1,-1,-1,-1,-1,-1,-1],"split_conditions":[5.5756137E-2,3.0425112E3,-3.8534725E-1,7.586859E-1,3.1351829E3,1.0162312E3,2.9638901E3,2.5629526E-1,-4.8827985E-1,1.1842947E4,9.247203E2,8.8668156E-1,-1.4254387E2,-9.101428E-2,2.602323E-1,-4.6509045E-1,2.7560264E3,1.0716409E3,1.3012021E-4,1.9408907E-1,-1.7508546E-1,3.113472E3,6.2726094E3,2.1919914E4,2.9207393E3,-1.6710794E-2,1.9412696E-1,2.989309E-1,3.0938887E3,2.27973E-2,1.7121203E4,2.9718444E-6,9.9202424E-1,-4.2700467E-1,-1.0909924E-1,1.1081242E-1,-1.1505807E-1,5.3777883E-5,1.816953E-1,2.4573642E-1,-5.9614573E-2,-1.906259E-1,8.470664E-2,1.5384881E-1,-2.6211905E-1,4.1566573E-2,-2.0900232E-1],"split_indices":[7,0,1,18,0,6,0,0,1,10,6,18,19,0,0,0,0,6,0,0,0,0,12,34,30,0,0,0,0,20,34,20,7,0,0,0,0,0,0,0,0,0,0,0,0,0,0],"split_type":[0,0,0,0,0,0,0,0,0,0,0,0,0,0,0,0,0,0,0,0,0,0,0,0,0,0,0,0,0,0,0,0,0,0,0,0,0,0,0,0,0,0,0,0,0,0,0],"sum_hessian":[3.2697797E2,2.7157477E2,5.5403183E1,1.0043155E1,2.6153162E2,4.809049E1,7.312694E0,5.795062E0,4.2480927E0,2.5753583E2,3.9958012E0,4.270217E1,5.388317E0,1.0026726E0,6.3100214E0,1.4399588E0,2.808134E0,2.5653577E2,1.0000414E0,2.7959363E0,1.1998649E0,1.2520006E1,3.0182165E1,2.7594547E0,2.6288624E0,1.0455543E0,1.7625798E0,2.5400134E2,2.5344374E0,9.42931E0,3.0906966E0,7.3243794E0,2.2857786E1,1.7326527E0,1.026802E0,1.0088494E0,1.620013E0,1.0000151E0,1.5344223E0,8.429073E0,1.0002367E0,1.7489787E0,1.3417178E0,1.2434031E0,6.0809765E0,1.9246647E1,3.611139E0],"tree_param":{"num_deleted":"0","num_feature":"39","num_nodes":"47","size_leaf_vector":"0"}},{"base_weights":[7.561878E-1,9.426772E-1,1.5816981E-2,9.807146E-1,4.14287E-1,-4.519033E-1,1.52635E-1,9.9006844E-1,2.6295054E-1,-6.116569E-1,8.784066E-1,3.8965136E-2,-8.550646E-1,2.980823E-1,-5.1361704E-1,4.7209136E-2,9.9492204E-1,-4.0926722E-1,6.47198E-1,6.7972386E-1,-1.7709788E0,-5.0349754E-1,2.9619545E-1,-1.1985241E0,-2.3483068E-1,6.193799E-1,-5.7203397E-2,-6.5683955E-1,2.2693123E-1,-2.6339045E0,-1.164739E-1,5.1757884E-1,-2.1441755E-1,-1.4125774E0,-3.4016815E-1,1.4027998E-1,-4.5272344E-1,2.2996315E-1,9.3899244E-1,6.579008E-1,-2.4804951E-1,-8.4883887E-1,3.250418E-2,7.796496E-2,6.551788E-1,5.0695324E-1,-6.661477E-1,-2.1806967E-1,1.0310708E0,4.7074635E-2,-7.3018193E-1,-2.3147464E-1,-9.418656E-1],"categories":[],"categories_nodes":[],"categories_segments":[],"categories_sizes":[],"default_left":[1,1,1,1,1,1,1,1,1,1,0,1,1,1,1,0,0,0,0,0,1,0,1,1,1,1,1,1,0,0,0,1,0,0,0,0,0,1,0,1,1,1,0,0,0,0,0,0,0,0,0,0,0],"id":25,"left_children":[1,3,5,7,9,11,13,15,17,19,-1,21,23,25,27,-1,-1,-1,-1,-1,29,-1,31,33,35,37,39,41,-1,-1,-1,43,-1,-1,-1,-1,-1,45,-1,47,49,51,-1,-1,-1,-1,-1,-1,-1,-1,-1,-1,-1],"loss_changes":[3.5459396E1,3.7182465E0,3.442171E0,1.0200043E0,7.923601E0,2.4441714E0,4.1775527E0,8.1288147E-1,1.2502543E0,9.320005E0,0E0,1.0491492E0,1.1526904E0,3.9989307E0,9.7729945E-1,0E0,0E0,0E0,0E0,0E0,4.167714E0,0E0,6.7673594E-1,2.708125E-1,3.612687E-1,2.0638719E0,2.5383875E0,9.2762375E-1,0E0,0E0,0E0,1.7782474E-1,0E0,0E0,0E0,0E0,0E0,2.7159102E0,0E0,1.5128021E0,2.0924149E0,8.956623E-2,0E0,0E0,0E0,0E0,0E0,0E0,0E0,0E0,0E0,0E0,0E0],"parents":[2147483647,0,0,1,1,2,2,3,3,4,4,5,5,6,6,7,7,8,8,9,9,11,11,12,12,13,13,14,14,20,20,22,22,23,23,24,24,25,25,26,26,27,27,31,31,37,37,39,39,40,40,41,41],"right_children":[2,4,6,8,10,12,14,16,18,20,-1,22,24,26,28,-1,-1,-1,-1,-1,30,-1,32,34,36,38,40,42,-1,-1,-1,44,-1,-1,-1,-1,-1,46,-1,48,50,52,-1,-1,-1,-1,-1,-1,-1,-1,-1,-1,-1],"split_conditions":[5.5756137E-2,8.670368E-1,3.0701328E3,3.1351821E3,-4.9292886E-1,1.6581407E-3,3.1225513E3,2.8204387E3,-4.2230957E2,8.1126434E2,2.63522E-1,2.9565835E3,1.9746165E3,9.6509993E-1,3.2932065E3,1.4162742E-2,2.9847664E-1,-1.2278017E-1,1.9415942E-1,2.0391716E-1,7.196854E2,-1.5104927E-1,9.4248914E2,9.9730396E-1,8.679701E-1,7.4399867E0,2.4528704E0,-6.4712477E-1,6.8079375E-2,-7.901714E-1,-3.4942172E-2,1.9339207E4,-6.4325266E-2,-4.2377323E-1,-1.02050446E-1,4.2083994E-2,-1.3581704E-1,9.398366E3,2.8169775E-1,3.1074219E4,9.9809897E-1,9.365679E1,9.751254E-3,2.3389488E-2,1.9655365E-1,1.5208597E-1,-1.9984432E-1,-6.54209E-2,3.0932125E-1,1.4122391E-2,-2.190546E-1,-6.944239E-2,-2.825597E-1],"split_indices":[7,18,0,0,1,32,0,0,37,19,0,0,25,7,36,0,0,0,0,0,17,0,6,15,7,13,24,1,0,0,0,31,0,0,0,0,0,22,0,21,15,2,0,0,0,0,0,0,0,0,0,0,0],"split_type":[0,0,0,0,0,0,0,0,0,0,0,0,0,0,0,0,0,0,0,0,0,0,0,0,0,0,0,0,0,0,0,0,0,0,0,0,0,0,0,0,0,0,0,0,0,0,0,0,0,0,0,0,0],"sum_hessian":[2.5592743E2,2.0421512E2,5.1712296E1,1.8970288E2,1.4512242E1,1.1182233E1,4.0530064E1,1.86888E2,2.814886E0,4.4212065E0,1.0091036E1,5.4499745E0,5.7322583E0,3.3721115E1,6.808948E0,1.0120612E0,1.8587593E2,1.000121E0,1.814765E0,2.2871807E0,2.1340258E0,1.4450938E0,4.004881E0,3.0892093E0,2.6430492E0,1.7317211E1,1.6403904E1,5.8002176E0,1.0087302E0,1.0134765E0,1.1205494E0,2.784137E0,1.2207437E0,1.9558017E0,1.1334076E0,1.102041E0,1.5410082E0,8.581272E0,8.735938E0,2.9400804E0,1.3463824E1,4.3556805E0,1.4445373E0,1.0371583E0,1.7469789E0,6.8868146E0,1.6944578E0,1.0024894E0,1.937591E0,8.911348E0,4.5524764E0,1.0271755E0,3.328505E0],"tree_param":{"num_deleted":"0","num_feature":"39","num_nodes":"53","size_leaf_vector":"0"}},{"base_weights":[7.0828927E-1,9.247215E-1,4.2874026E-3,1.7820762E-1,9.624187E-1,-8.257569E-2,6.293703E-1,-1.0655239E0,6.0025626E-1,9.7942096E-1,1.6927001E-1,-1.0777433E0,-1.9014532E-2,-1.2669115E-1,8.0468446E-1,7.489173E-1,-3.1342816E-2,9.862485E-1,4.038867E-4,6.666929E-1,-5.4654855E-1,4.7919273E-1,-9.942821E-2,9.9314034E-1,2.5888157E-1,7.9595304E-1,8.6202994E-2,-5.873887E-1,-2.800235E-3,3.389732E-1,-2.7989006E-1,1.6910473E-1,-7.702056E-1,-1.3739598E-1,3.764613E-1],"categories":[],"categories_nodes":[],"categories_segments":[],"categories_sizes":[],"default_left":[1,1,1,1,1,1,1,0,1,1,1,0,1,0,0,0,0,1,0,0,0,1,1,0,0,0,1,1,1,0,0,0,0,0,0],"id":26,"left_children":[1,3,5,7,9,11,13,-1,15,17,19,-1,21,-1,-1,-1,-1,23,-1,-1,-1,25,27,-1,-1,-1,29,31,33,-1,-1,-1,-1,-1,-1],"loss_changes":[3.0945114E1,4.200363E0,2.6998277E0,5.2037764E0,1.8254089E0,2.743746E0,9.0596986E-1,0E0,6.931007E-1,9.644928E-1,1.8982252E0,0E0,1.7340835E0,0E0,0E0,0E0,0E0,4.6148682E-1,0E0,0E0,0E0,6.8102336E-1,1.7463713E0,0E0,0E0,0E0,4.4735518E-1,9.7706795E-1,1.6826717E0,0E0,0E0,0E0,0E0,0E0,0E0],"parents":[2147483647,0,0,1,1,2,2,3,3,4,4,5,5,6,6,8,8,9,9,10,10,12,12,17,17,21,21,22,22,26,26,27,27,28,28],"right_children":[2,4,6,8,10,12,14,-1,16,18,20,-1,22,-1,-1,-1,-1,24,-1,-1,-1,26,28,-1,-1,-1,30,32,34,-1,-1,-1,-1,-1,-1],"split_conditions":[5.5756137E-2,3.0425112E3,-3.8534725E-1,3.8757086E4,3.1351829E3,1.8925467E-1,2.9884888E3,-3.1965718E-1,8.586047E-2,1.0459985E4,6.681564E-1,-3.23323E-1,-2.4458003E3,-3.8007345E-2,2.4140535E-1,2.246752E-1,-9.402845E-3,1.0716409E3,1.2116601E-4,2.0000789E-1,-1.6396457E-1,7.559331E-4,8.488852E2,2.979421E-1,7.766447E-2,2.3878592E-1,9.629577E-1,9.047024E-1,1.3593665E3,1.0169196E-1,-8.396702E-2,5.073142E-2,-2.310617E-1,-4.1218795E-2,1.129384E-1],"split_indices":[7,0,1,21,0,7,0,0,32,10,18,0,17,0,0,0,0,6,0,0,0,32,6,0,0,0,18,18,17,0,0,0,0,0,0],"split_type":[0,0,0,0,0,0,0,0,0,0,0,0,0,0,0,0,0,0,0,0,0,0,0,0,0,0,0,0,0,0,0,0,0,0,0],"sum_hessian":[2.0211964E2,1.5435313E2,4.7766506E1,7.695097E0,1.4665804E2,4.2700615E1,5.065889E0,1.5633698E0,6.131727E0,1.4335027E2,3.3077722E0,1.6056222E0,4.1094994E1,1.0057653E0,4.0601234E0,4.813107E0,1.3186203E0,1.4235014E2,1.0001198E0,1.9920934E0,1.3156787E0,5.021976E0,3.6073017E1,1.4065207E2,1.6980755E0,2.2129223E0,2.8090537E0,5.1230946E0,3.0949924E1,1.705538E0,1.1035155E0,1.0117003E0,4.1113944E0,2.331383E1,7.636094E0],"tree_param":{"num_deleted":"0","num_feature":"39","num_nodes":"35","size_leaf_vector":"0"}},{"base_weights":[6.502113E-1,9.482574E-1,7.409849E-2,9.7181505E-1,-5.7059564E-2,-1.5770216E-1,6.803E-1,2.721216E-2,9.805533E-1,-3.7206003E-1,3.3530572E-1,-1.1639997E0,-1.7663817E-3,-2.8796133E-1,8.472045E-1,9.87598E-1,1.2402678E-1,-2.5631092E0,-2.9771078E-1,1.2969065E-1,-7.60492E-1,4.0218566E-2,-4.632931E-1,9.1141707E-1,1.9154058E-1,-6.5002567E-1,4.692303E-1,-4.246841E-1,3.073563E-1,3.0762717E-1,-1.279212E0,-3.5716552E-2,-9.525129E-1,1.6824871E-1,-7.50064E-1,6.1898094E-1,-8.408123E-2,-1.4752697E0,-4.0689296E-1],"categories":[],"categories_nodes":[],"categories_segments":[],"categories_sizes":[],"default_left":[1,1,1,1,1,1,1,0,1,0,0,1,1,1,1,0,0,0,1,1,1,0,0,0,0,1,0,1,1,0,1,0,0,0,0,0,0,0,0],"id":27,"left_children":[1,3,5,7,9,11,13,-1,15,-1,-1,17,19,21,23,-1,-1,-1,25,27,29,-1,-1,-1,-1,31,-1,33,35,-1,37,-1,-1,-1,-1,-1,-1,-1,-1],"loss_changes":[2.8201332E1,2.6233292E0,8.148024E0,8.4825134E-1,5.483324E-1,6.620769E0,2.8323388E0,0E0,5.1107025E-1,0E0,0E0,6.0984716E0,3.8433123E0,1.9707969E-1,4.1128445E-1,0E0,0E0,0E0,1.5554545E0,3.3664763E0,3.5461178E0,0E0,0E0,0E0,0E0,6.33129E-1,0E0,1.7455648E0,3.1578004E0,0E0,8.79097E-2,0E0,0E0,0E0,0E0,0E0,0E0,0E0,0E0],"parents":[2147483647,0,0,1,1,2,2,3,3,4,4,5,5,6,6,8,8,11,11,12,12,13,13,14,14,18,18,19,19,20,20,25,25,27,27,28,28,30,30],"right_children":[2,4,6,8,10,12,14,-1,16,-1,-1,18,20,22,24,-1,-1,-1,26,28,30,-1,-1,-1,-1,32,-1,34,36,-1,38,-1,-1,-1,-1,-1,-1,-1,-1],"split_conditions":[7.554704E-1,9.57151E-1,-4.806372E-1,1.9189068E0,-8.0668056E-1,1.1192375E3,2.9361284E3,8.163649E-3,3.1602085E3,-1.1161801E-1,1.0059172E-1,4.394795E4,-5.4819715E-1,-8.02366E-1,1.0023683E3,2.962794E-1,3.7208036E-2,-7.6893276E-1,-6.2081814E-1,8.6287646E2,9.165342E2,1.206557E-2,-1.3898794E-1,2.7342513E-1,5.746218E-2,9.320632E-1,1.407691E-1,5.659763E-4,3.1021523E3,9.228815E-2,3.0666032E-1,-1.0714966E-2,-2.8575388E-1,5.0474618E-2,-2.2501922E-1,1.8569429E-1,-2.522437E-2,-4.425809E-1,-1.2206789E-1],"split_indices":[18,7,1,23,1,3,0,0,0,0,0,21,1,27,6,0,0,0,1,6,6,0,0,0,0,26,0,32,0,0,27,0,0,0,0,0,0,0,0],"split_type":[0,0,0,0,0,0,0,0,0,0,0,0,0,0,0,0,0,0,0,0,0,0,0,0,0,0,0,0,0,0,0,0,0,0,0,0,0,0,0],"sum_hessian":[1.6364906E2,1.0742689E2,5.622217E1,1.0499974E2,2.4271424E0,4.1205696E1,1.5016473E1,1.0001324E0,1.0399961E2,1.3750052E0,1.052137E0,4.6611805E0,3.6544518E1,2.1012437E0,1.2915229E1,1.0299945E2,1.0001609E0,1.0334203E0,3.6277602E0,3.1854471E1,4.690047E0,1.0000323E0,1.1012113E0,1.1407924E1,1.5073053E0,2.5902867E0,1.0374736E0,7.3936176E0,2.4460854E1,1.666151E0,3.0238957E0,1.2235352E0,1.3667516E0,2.790842E0,4.6027756E0,1.32952E1,1.1165653E1,1.9046197E0,1.1192759E0],"tree_param":{"num_deleted":"0","num_feature":"39","num_nodes":"39","size_leaf_vector":"0"}},{"base_weights":[5.881748E-1,9.314564E-1,4.1655865E-2,9.7728235E-1,1.9730447E-1,-1.3104557E-1,7.115826E-1,9.870061E-1,1.193247E-1,6.09785E-1,-4.5744997E-1,-7.073533E-1,4.7703136E-2,-3.8441843E-1,8.743456E-1,-1.6226482E0,-1.7480165E-2,3.7178904E-1,-2.595418E-1,-2.5318954E0,-3.7912986E-1,4.7086158E-1,-2.8733632E-1,4.8488498E-1,-5.832341E-1,8.356809E-2,-5.610995E-1,-2.1959567E-2,-5.472365E-1,5.5038586E-2,-5.556238E-1,6.1854905E-1,-1.6961996E-1,5.5993754E-1,-2.0262434E-1,-9.508E-2,-1.0624809E0],"categories":[],"categories_nodes":[],"categories_segments":[],"categories_sizes":[],"default_left":[1,1,1,1,1,1,1,0,0,0,0,1,1,0,0,1,1,1,1,0,1,0,1,1,0,1,1,0,0,0,0,0,0,0,0,0,0],"id":28,"left_children":[1,3,5,7,9,11,13,-1,-1,-1,-1,15,17,-1,-1,19,21,23,25,-1,27,-1,29,31,-1,33,35,-1,-1,-1,-1,-1,-1,-1,-1,-1,-1],"loss_changes":[2.5036865E1,2.5674973E0,6.180288E0,5.2438354E-1,1.9192228E0,4.429687E0,2.287434E0,0E0,0E0,0E0,0E0,6.3904696E0,3.432985E0,0E0,0E0,3.9675627E0,1.0323883E0,2.0885055E0,1.8875424E0,0E0,1.691187E-1,0E0,4.9036515E-1,1.460386E0,0E0,1.3666179E0,2.1415355E0,0E0,0E0,0E0,0E0,0E0,0E0,0E0,0E0,0E0,0E0],"parents":[2147483647,0,0,1,1,2,2,3,3,4,4,5,5,6,6,11,11,12,12,15,15,16,16,17,17,18,18,20,20,22,22,23,23,25,25,26,26],"right_children":[2,4,6,8,10,12,14,-1,-1,-1,-1,16,18,-1,-1,20,22,24,26,-1,28,-1,30,32,-1,34,36,-1,-1,-1,-1,-1,-1,-1,-1,-1,-1],"split_conditions":[7.554704E-1,1.8918273E-1,-3.85366E-1,3.155042E3,9.709214E2,3.070194E3,2.5463726E3,2.9610184E-1,3.579741E-2,1.829355E-1,-1.37235E-1,1.6742803E3,3.102114E3,-1.1532553E-1,2.6230368E-1,3.0544412E-4,-7.1249795E-1,2.9263271E3,2.8836553E-6,-7.5956863E-1,1.11107734E5,1.4125848E-1,9.3212414E-1,5.2431105E-3,-1.7497022E-1,-9.406207E2,9.1816406E2,-6.5878704E-3,-1.6417095E-1,1.6511576E-2,-1.6668716E-1,1.8556473E-1,-5.088599E-2,1.6798127E-1,-6.07873E-2,-2.8524002E-2,-3.187443E-1],"split_indices":[18,7,1,0,6,0,0,0,0,0,0,3,0,0,0,29,1,37,28,0,21,0,7,20,0,17,6,0,0,0,0,0,0,0,0,0,0],"split_type":[0,0,0,0,0,0,0,0,0,0,0,0,0,0,0,0,0,0,0,0,0,0,0,0,0,0,0,0,0,0,0,0,0,0,0,0,0],"sum_hessian":[1.3265854E2,8.1046776E1,5.161176E1,7.597333E1,5.073445E0,4.167316E1,9.938599E0,7.49732E1,1.0001332E0,3.1547222E0,1.9187227E0,9.165432E0,3.250773E1,1.109009E0,8.82959E0,3.3580346E0,5.8073974E0,1.5718051E1,1.6789677E1,1.3412519E0,2.0167828E0,1.8018469E0,4.0055504E0,1.4493928E1,1.2241234E0,8.19189E0,8.597786E0,1.0072798E0,1.009503E0,2.1090016E0,1.8965487E0,1.208155E1,2.4123783E0,2.715467E0,5.4764223E0,5.0725937E0,3.5251927E0],"tree_param":{"num_deleted":"0","num_feature":"39","num_nodes":"37","size_leaf_vector":"0"}},{"base_weights":[5.220671E-1,9.118324E-1,1.7966863E-2,9.694374E-1,1.6322578E-1,-1.20323606E-1,6.571599E-1,9.8248506E-1,1.14898086E-1,-5.027732E-1,4.8181307E-1,-3.6283566E-3,-8.411652E-1,-2.972878E-1,8.5510904E-1,-1.26035E-2,6.9356644E-1,6.500976E-2,-8.212373E-1,1.7445673E-1,-1.304333E0,-9.559502E-1,1.2568198E-1,-1.8196632E0,-2.5295115E-1,3.6659783E-1,-1.3749002E-1],"categories":[],"categories_nodes":[],"categories_segments":[],"categories_sizes":[],"default_left":[1,1,1,1,1,1,1,0,0,0,1,1,1,0,0,0,0,1,0,0,1,0,1,0,0,0,0],"id":29,"left_children":[1,3,5,7,9,11,13,-1,-1,-1,15,17,19,-1,-1,-1,-1,21,-1,-1,23,-1,25,-1,-1,-1,-1],"loss_changes":[2.1711777E1,2.5303307E0,4.4316797E0,5.30323E-1,1.442573E0,3.4733782E0,1.9382012E0,0E0,0E0,0E0,4.6283162E-1,2.1058738E0,2.934206E0,0E0,0E0,0E0,0E0,2.2676053E0,0E0,0E0,1.7447219E0,0E0,2.1811635E0,0E0,0E0,0E0,0E0],"parents":[2147483647,0,0,1,1,2,2,3,3,4,4,5,5,6,6,10,10,11,11,12,12,17,17,20,20,22,22],"right_children":[2,4,6,8,10,12,14,-1,-1,-1,16,18,20,-1,-1,-1,-1,22,-1,-1,24,-1,26,-1,-1,-1,-1],"split_conditions":[7.554704E-1,1.8918273E-1,-3.85366E-1,3.152373E3,3.0397427E3,1.1872783E-2,2.732057E3,2.9474553E-1,3.4469426E-2,-1.5083197E-1,-8.097275E-1,3.134101E3,6.3202053E-1,-8.918634E-2,2.5653273E-1,-3.7810502E-3,2.0806994E-1,6.562359E-2,-2.4637121E-1,5.233702E-2,8.200519E-1,-2.8678507E-1,9.7370595E-1,-5.45899E-1,-7.588535E-2,1.09979354E-1,-4.1247007E-2],"split_indices":[18,7,1,0,0,33,0,0,0,0,1,0,26,0,0,0,0,4,0,0,4,0,18,0,0,0,0],"split_type":[0,0,0,0,0,0,0,0,0,0,0,0,0,0,0,0,0,0,0,0,0,0,0,0,0,0,0],"sum_hessian":[1.0958667E2,6.1345844E1,4.824082E1,5.6688683E1,4.6571636E0,4.032763E1,7.9131913E0,5.568867E1,1.0000125E0,1.3198713E0,3.3372924E0,3.5573723E1,4.7539077E0,1.2730602E0,6.6401315E0,1.2827405E0,2.0545518E0,3.3667805E1,1.9059176E0,1.6841934E0,3.0697143E0,1.0608252E0,3.260698E1,1.5696313E0,1.500083E0,1.6818136E1,1.5788843E1],"tree_param":{"num_deleted":"0","num_feature":"39","num_nodes":"27","size_leaf_vector":"0"}},{"base_weights":[4.526218E-1,9.57908E-1,4.929236E-2,9.7598475E-1,1.12700835E-1,-9.872299E-2,7.0361805E-1,-7.6426536E-1,3.6835946E-2,-2.3700236E-1,8.764909E-1,-1.3488597E0,6.773864E-2,2.742444E-1,-2.3504731E-1,-1.9362825E0,-2.1089174E-1,3.5484797E-1,-2.2216801E-1,-2.8714195E-1,4.8298314E-1,-4.171388E-1,2.0051676E-1,2.3959404E-1,-1.2709711E0,6.6650504E-1,-2.7251951E-2,2.721354E-1,-5.2974886E-1,6.0124576E-1,-3.3199444E-1],"categories":[],"categories_nodes":[],"categories_segments":[],"categories_sizes":[],"default_left":[1,1,1,0,0,1,1,1,1,0,0,1,1,1,1,0,0,0,0,1,1,1,1,0,0,0,0,0,0,0,0],"id":30,"left_children":[1,3,5,-1,-1,7,9,11,13,-1,-1,15,17,19,21,-1,-1,-1,-1,23,25,27,29,-1,-1,-1,-1,-1,-1,-1,-1],"loss_changes":[1.9044416E1,5.2451706E-1,5.2170615E0,0E0,0E0,4.0178657E0,1.8221221E0,3.7533765E0,2.4974391E0,0E0,0E0,2.5795784E0,4.1670486E-1,2.5507493E0,1.5199286E0,0E0,0E0,0E0,0E0,3.520719E0,1.4580979E0,1.1605909E0,1.4829841E0,0E0,0E0,0E0,0E0,0E0,0E0,0E0,0E0],"parents":[2147483647,0,0,1,1,2,2,5,5,6,6,7,7,8,8,11,11,12,12,13,13,14,14,19,19,20,20,21,21,22,22],"right_children":[2,4,6,-1,-1,8,10,12,14,-1,-1,16,18,20,22,-1,-1,-1,-1,24,26,28,30,-1,-1,-1,-1,-1,-1,-1,-1],"split_conditions":[5.905895E-1,8.944981E-1,-3.85366E-1,2.9279545E-1,3.381025E-2,1.163678E3,2.8197012E3,5.738171E4,9.6509993E-1,-7.110071E-2,2.629473E-1,-6.443738E-1,5.1347303E-1,5.7879364E-1,1.5420174E4,-5.8088475E-1,-6.326752E-2,1.06454395E-1,-6.6650406E-2,3.1407603E3,3.7996855E0,8.091912E-7,9.8967373E-1,7.187822E-2,-3.8129133E-1,1.9995151E-1,-8.175585E-3,8.164062E-2,-1.5892467E-1,1.8037373E-1,-9.959834E-2],"split_indices":[18,7,1,0,0,3,0,21,7,0,0,1,7,4,12,0,0,0,0,36,23,33,7,0,0,0,0,0,0,0,0],"split_type":[0,0,0,0,0,0,0,0,0,0,0,0,0,0,0,0,0,0,0,0,0,0,0,0,0,0,0,0,0,0,0],"sum_hessian":[9.2679756E1,4.0529675E1,5.215008E1,3.9529514E1,1.0001621E0,4.3221947E1,8.928136E0,6.52903E0,3.6692917E1,1.3285239E0,7.5996118E0,3.4698074E0,3.0592227E0,1.9583725E1,1.7109192E1,1.8257979E0,1.6440095E0,1.42448E0,1.6347427E0,5.2062697E0,1.4377455E1,1.2095049E1,5.0141416E0,3.8835235E0,1.3227465E0,1.0348886E1,4.0285687E0,1.4995923E0,1.0595457E1,2.787441E0,2.2267005E0],"tree_param":{"num_deleted":"0","num_feature":"39","num_nodes":"31","size_leaf_vector":"0"}},{"base_weights":[3.906423E-1,9.433262E-1,3.5161674E-2,9.6771216E-1,1.0000359E-1,1.8500273E-1,-5.2955866E-1,1.9059964E-2,7.164134E-1,-1.446737E0,-1.5396343E-1,2.3212007E-1,-3.2219708E-1,1.010803E-1,8.709148E-1,-9.287906E-1,2.1477641E-1,4.853022E-1,-2.7348152E-1,-5.4224455E-1,1.4760457E-1,3.815459E-1,-2.2556563E-1,-1.1369536E0,-2.5850883E-1,-3.7083238E-1,4.5347264E-1,6.011766E-1,-1.70542E-1,-7.5832814E-1,4.6403006E-1,6.8113156E-2,-8.105065E-1,4.684983E-1,-2.4404566E-1,6.3151604E-1,-9.1045715E-2],"categories":[],"categories_nodes":[],"categories_segments":[],"categories_sizes":[],"default_left":[1,1,1,0,0,1,1,1,1,0,1,1,1,1,0,1,1,1,1,1,1,0,0,0,0,0,1,0,0,0,0,0,0,0,0,0,0],"id":31,"left_children":[1,3,5,-1,-1,7,9,11,13,-1,15,17,19,21,-1,23,